// Auto-generated TD3 Actor weights for ESP32
// Generated from trained PyTorch model
#pragma once

// Network configuration
static const int ACTOR_INPUT_DIM = 15;
static const int ACTOR_OUTPUT_DIM = 2;
static const int ACTOR_NUM_LAYERS = 3;
static const float ACTOR_MAX_ACTION = 1.000000f;

// Past states configuration
static const bool PAST_STATES_ENABLED = true;
static const int PAST_STATES_COUNT = 4;
static const int PAST_STATES_STRIDE = 10;
static const char PAST_STATES_SOURCE[] = "sensors";

// Layer dimensions
static const int L0_IN = 15;
static const int L0_OUT = 64;
static const char L0_ACTIVATION[] = "relu";
static const int L1_IN = 64;
static const int L1_OUT = 64;
static const char L1_ACTIVATION[] = "relu";
static const int L2_IN = 64;
static const int L2_OUT = 2;
static const char L2_ACTIVATION[] = "tanh";

// Layer 0 (hidden_0) weights and biases
static const float L0_WEIGHTS[L0_OUT][L0_IN] = 
{
  { 0.96167678f, -0.30349120f, 0.48884389f, -0.10242905f, -0.19614853f, 0.00941722f, -0.50443536f, 0.55742878f, 0.34121734f, -0.46427280f, 0.97556150f, 0.24084146f, -0.23657878f, 0.57746166f, -0.09234034f },
  { 0.10116241f, 1.98875034f, 0.73766011f, -0.20716947f, 0.38390169f, -0.09956591f, -0.15457423f, -0.16325399f, -0.30695033f, -0.22377238f, -0.11043110f, -0.34581882f, -0.17640205f, -0.11779115f, -0.27026877f },
  { 0.22215812f, -1.28792894f, 1.58295846f, -0.28033626f, -0.29924959f, 0.10652671f, -0.19230513f, 0.40439481f, -0.53705007f, -0.23378749f, 0.28576317f, -0.49066553f, -0.18723053f, 0.19954205f, -0.55898809f },
  { -0.10524563f, -1.66129279f, 1.35210788f, 0.08285526f, -1.26847970f, -0.12358101f, -0.05925392f, -0.43223652f, -0.02295641f, 0.22013617f, 0.16203648f, 0.06922288f, 0.24993631f, 0.29999050f, -0.17224292f },
  { -0.02568225f, -0.21814407f, 0.03763296f, -0.13085854f, 0.03717239f, -0.09575585f, 0.17220870f, -0.19491911f, -0.19595256f, -0.19597080f, 0.19029579f, 0.04411845f, 0.20651269f, -0.25504887f, -0.29802179f },
  { -0.33843830f, -0.07943079f, -0.22847342f, 0.01853990f, 0.35636210f, 0.25857323f, -0.07256579f, 0.62275565f, -0.21209428f, 0.57598484f, 0.73925734f, 0.92320102f, -0.64820963f, -1.21707070f, -0.85018492f },
  { 0.39555338f, -1.40647280f, 1.11422896f, 0.30968916f, -1.23618662f, -0.19269815f, 0.41319910f, -0.75355279f, 0.10267106f, 0.00880846f, -0.69162160f, 0.14521484f, 0.16642341f, -0.37071091f, 0.17052394f },
  { -0.17637089f, -0.21905507f, -0.14218047f, -0.22597879f, -0.16440505f, 0.25809792f, 0.04876730f, 0.07956651f, -0.24081805f, -0.16957827f, -0.08594300f, 0.04037485f, -0.22719470f, -0.11125094f, -0.15457556f },
  { -0.07310839f, 0.18343039f, 0.40743130f, -0.52961755f, -0.52635342f, -0.03193033f, 0.33870924f, 0.03382338f, 0.80905831f, -0.53279084f, -0.44918668f, -0.09808332f, -0.99456716f, -0.40637138f, -0.67409647f },
  { 0.05601529f, -0.48077959f, -1.53982747f, 0.11684084f, 0.01913974f, -0.43104488f, -0.18870920f, 0.15265895f, -0.59642667f, -0.29502150f, 0.25889936f, 0.06730428f, 0.12709191f, 0.41164058f, 0.01755296f },
  { 0.43785343f, 0.57494199f, -1.80527174f, -0.06702647f, 0.10818995f, -0.65284157f, 0.11695138f, -0.54528034f, 0.20039864f, -0.12244874f, -0.43344843f, 0.77324098f, -0.02642099f, -0.51075548f, 0.64113861f },
  { 0.34050688f, 0.01341815f, 0.62579072f, -0.29857713f, -0.98466742f, -0.42843184f, -0.13262974f, -0.13632563f, -0.16938771f, -0.26080766f, -0.26063204f, -0.30212843f, -0.02076783f, 0.05194022f, -0.44322598f },
  { -0.13283412f, 0.04605430f, -0.14166173f, -0.19537240f, -0.02891812f, 0.11851291f, 0.05021471f, -0.21630773f, -0.02715124f, -0.00222341f, -0.19962220f, -0.09944722f, 0.04597607f, 0.14901525f, -0.11448745f },
  { -0.07235017f, -0.01073461f, -0.02994300f, 0.04757162f, 0.05785371f, -0.24902698f, -0.10978653f, 0.20293459f, 0.08603807f, -0.01284219f, -0.15566960f, -0.15796739f, -0.23128600f, -0.08416313f, 0.08719483f },
  { 0.12081059f, -0.20436756f, -0.69149804f, -0.10199954f, -0.54782623f, 0.40104151f, 0.07265264f, -0.49356708f, 0.37360764f, -0.03630962f, -0.33242801f, 0.33647063f, -0.12148875f, -0.10137169f, -0.48708072f },
  { 0.42748243f, 0.33011115f, 1.65555274f, -0.01147826f, -0.24197865f, -0.40244669f, 0.26177561f, 0.27531633f, -0.48780039f, 0.34020340f, 0.00101274f, -0.77142853f, 0.15475936f, -0.45498776f, -1.17010689f },
  { 0.10569680f, -0.12676738f, -0.05196320f, -0.14859483f, -0.04704992f, -0.18172938f, -0.16871120f, 0.08564737f, -0.07673578f, 0.15939733f, -0.08283247f, -0.18940625f, -0.04555634f, -0.12516125f, -0.07899378f },
  { -0.38382673f, 1.13100338f, -2.13304019f, 0.29674578f, -0.03191904f, 0.30774173f, -0.14702833f, -0.35703191f, 0.29154450f, -0.07416086f, 0.56529438f, 0.14163816f, 0.00178028f, 0.20001228f, -0.06383357f },
  { 0.45206708f, -0.38598233f, 0.43228194f, -0.32766396f, 0.95924562f, -0.58425784f, -1.10270917f, 0.60229826f, -0.80267352f, -0.62299502f, 0.65556264f, -0.62786555f, -0.22914425f, 0.43813878f, -0.34272656f },
  { 0.43415943f, -0.64367831f, 1.11153829f, 0.44583097f, -0.51280493f, -0.52033192f, 0.06741354f, -0.69389498f, -0.47507700f, 0.28597912f, -0.90082222f, -0.03601595f, 0.18617670f, -0.72475159f, 0.07280491f },
  { 0.04461971f, -0.35075128f, -2.25941992f, 0.02267770f, -0.02488638f, -0.29580405f, 0.14186241f, 0.20102187f, 0.12141264f, 0.16681895f, 0.09111395f, 0.67194176f, -0.02296456f, 0.23163907f, 0.84047359f },
  { 0.40227038f, 0.83131272f, 1.55177474f, -0.22763592f, 0.23792329f, 0.15035170f, -0.27612317f, 0.15721002f, -0.02419273f, -0.30308047f, -0.14471324f, -0.21804814f, -0.40629420f, 0.11488229f, 0.08749299f },
  { 0.26414838f, -0.45888487f, 0.29379848f, -0.58549184f, -0.21216097f, -0.48855814f, -0.10617585f, 0.04766032f, -0.23705412f, -0.12315444f, -0.18428558f, -0.12687480f, -0.29910770f, -0.36112639f, -0.40369159f },
  { -0.73247528f, 1.24929893f, -1.69278359f, -0.27868196f, 0.35453561f, 0.38617072f, 0.12262530f, -0.14917079f, 0.56075895f, -0.46814293f, -0.45156285f, 0.28210592f, -0.00653412f, -0.27886066f, 0.17332427f },
  { -0.09657358f, -0.14700413f, -0.23278052f, 0.01153332f, 0.11441648f, 0.05715564f, 0.05105877f, -0.19581479f, -0.24112865f, 0.00454670f, 0.23543456f, 0.14896044f, -0.15033224f, -0.03351642f, -0.19033998f },
  { -0.97809255f, 0.17647840f, 0.97906774f, -0.40258518f, 0.03635298f, 0.59222287f, -0.57210487f, 0.60328126f, 0.36079875f, -0.54526931f, 0.91076761f, -0.57959378f, -0.37038130f, 0.63920963f, 0.24352685f },
  { -0.08254454f, -0.13717134f, 0.14739545f, 0.09606474f, 0.05282240f, -0.17567839f, -0.20959283f, 0.02792695f, 0.07649887f, -0.11921349f, -0.07224345f, 0.17437920f, 0.02056804f, 0.01164949f, -0.06354289f },
  { -1.62985790f, 0.16748597f, -1.08176708f, -0.40773585f, 0.61801052f, -0.09531923f, -0.25778532f, 0.52241570f, 0.25324416f, 0.20728831f, 0.11057219f, 0.30966583f, 0.43782756f, -0.08500994f, 0.54274917f },
  { 0.43868828f, -0.38954052f, -1.78035462f, 0.68743247f, -0.48379171f, 0.04347253f, 0.24523510f, -0.58063352f, 0.11763403f, 0.31533903f, -0.12900977f, 0.04664483f, 0.09356832f, 0.17835368f, -0.52461606f },
  { 0.13257711f, -0.26653689f, 0.08677430f, -0.22213157f, -0.07364668f, -0.17901428f, -0.00479398f, -0.05832424f, 0.04340684f, 0.12859797f, -0.25128740f, -0.27073738f, 0.08390556f, 0.06911679f, -0.33656716f },
  { -0.05064021f, -0.28923795f, -0.24497813f, 0.01548907f, 0.03443649f, 0.01959633f, -0.10537261f, 0.20323323f, 0.00164710f, -0.18771756f, -0.04990123f, 0.02673557f, 0.05514971f, -0.21786632f, 0.06147549f },
  { 0.21935841f, -1.49739218f, -1.41586268f, 0.57653171f, -0.23921862f, 0.82778037f, 0.23215413f, 0.04049434f, -0.09524699f, 0.01351584f, 0.32357585f, 0.16556829f, -0.06077384f, 0.03611472f, -0.12221047f },
  { 0.16873497f, -0.24089408f, -0.02828312f, -0.06209046f, -0.26196975f, -0.21456845f, 0.02151616f, -0.08409622f, 0.12493968f, 0.17506599f, -0.03696314f, 0.00473284f, 0.00037868f, -0.05993413f, -0.12524225f },
  { -0.06633712f, 0.03267284f, 0.17262574f, -0.13557740f, -0.17228392f, -0.12985432f, -0.19218311f, -0.01816667f, 0.12386832f, 0.13876802f, 0.05888721f, -0.25420791f, -0.19887462f, -0.11210099f, -0.11084794f },
  { -0.51885068f, -1.85024166f, 1.41591954f, -0.60620493f, -0.89928365f, 0.07351527f, -0.03663502f, -0.71240431f, 0.43764514f, -0.11111175f, -0.28604400f, 0.63859165f, -0.11452778f, -0.13494197f, 0.34001419f },
  { -0.26952991f, 0.04991005f, 0.01295310f, 0.00976773f, -0.01171400f, 0.03654465f, -0.16840334f, -0.08115962f, 0.21053769f, 0.12938382f, -0.05901513f, -0.27988034f, -0.02868243f, -0.21541180f, 0.17542917f },
  { -0.04078815f, 0.66344810f, -0.52964884f, 0.36950868f, 0.56387681f, -0.01147269f, 0.28119448f, 0.72618020f, -0.23964942f, -0.29541165f, 0.48774338f, -0.55551648f, -1.62849295f, -1.34760261f, -1.73292112f },
  { 0.55585963f, 0.28831628f, 0.30065936f, 0.63707232f, -0.06153895f, -0.73282373f, 0.75399911f, -0.75766784f, -0.82344735f, 0.39089191f, -0.75420195f, -0.67365998f, 0.29543400f, -0.92308509f, -0.97759187f },
  { 0.04661420f, -0.36572737f, -1.47199869f, 0.04854700f, 0.27608138f, -1.21132386f, 0.04009129f, 0.19370879f, -0.72100633f, -0.15328954f, 0.26300260f, -0.63566720f, 0.06471770f, 0.36106688f, -0.19773683f },
  { 0.15005237f, -0.30424654f, 0.34745005f, -0.14550020f, -0.02472202f, -0.00236076f, 0.09743045f, -0.21178679f, -0.12139478f, -0.17546137f, -0.24532777f, -0.11317858f, -0.26286590f, 0.18493444f, -0.05459182f },
  { -0.52223176f, 0.75239372f, -1.54517639f, -0.55527717f, 0.12599966f, -0.67434609f, -0.45903808f, 0.06424458f, 0.00416245f, -0.21463469f, 0.22181165f, -0.03007665f, -0.51826739f, 0.44641179f, 0.04024865f },
  { -0.00715101f, 0.02074283f, -0.22093886f, -0.10039225f, 0.23434727f, -0.07738633f, -0.01295231f, -0.21439056f, -0.14443830f, -0.00527233f, -0.16038267f, -0.03201914f, 0.10507640f, -0.25256428f, 0.07668820f },
  { -0.17072320f, -0.12601423f, 0.09912506f, 0.20529917f, -0.07056798f, -0.10600847f, -0.23347269f, -0.13314223f, -0.22608848f, -0.05909412f, 0.05268687f, -0.24190027f, 0.22543693f, 0.16199163f, -0.25276273f },
  { -1.04149258f, -1.02870154f, 0.14185293f, -0.27158332f, -0.65133774f, 0.73746943f, 0.04041556f, -0.10217455f, 0.91260803f, 0.15039954f, 0.12090255f, 0.57650465f, -0.05546262f, 0.11425190f, 0.66443515f },
  { -0.22779143f, 0.00311582f, -0.30316824f, 0.09073219f, 0.03886525f, -0.01389131f, 0.06375327f, -0.05199151f, 0.11219526f, -0.23471910f, -0.07096577f, 0.11738930f, 0.22555925f, 0.09379452f, -0.22324492f },
  { 0.94013268f, 0.65254205f, 0.71043646f, -0.28102192f, 0.19459955f, 0.56078982f, -0.31304204f, -0.09512930f, 0.27107731f, -0.34953883f, 0.07723940f, 0.00411681f, -0.27236018f, -0.57272923f, 0.16531594f },
  { 0.34245303f, 0.45757103f, -1.42592597f, 0.54329699f, 0.36774743f, -0.78948623f, 0.18198672f, 0.67850477f, -0.86008286f, 0.17603305f, -0.04747665f, -0.78613722f, -0.03216712f, 0.17007507f, -0.65082860f },
  { -0.73023850f, 0.09598176f, -0.72971761f, -0.60138476f, 0.15850964f, -0.48436084f, 0.00911829f, 0.25417915f, -0.38474780f, 0.22150564f, 0.42807564f, 0.11819375f, -0.36959726f, -0.28274569f, -0.10730898f },
  { 0.55726391f, -1.22721040f, 1.08434534f, 0.37088525f, -0.50824976f, -0.73345751f, 0.33962330f, -0.00506028f, -0.63306642f, 0.35608810f, 0.03562703f, -0.41387761f, 0.13881853f, 0.16785850f, -0.34945154f },
  { 0.53524601f, -2.17246699f, 0.03806034f, 0.21835588f, 0.26919717f, -0.36585176f, -0.01408448f, 0.58558112f, 0.62121195f, -0.07411446f, 0.24450341f, 0.30168450f, -0.30466294f, 0.20166172f, 0.37936923f },
  { 0.18269502f, 0.37836978f, -2.35500383f, 0.40442204f, 0.15604734f, -0.60876572f, 0.21881677f, 0.08303887f, -0.48936263f, 0.37513316f, -0.15558989f, -0.41907525f, 0.12056549f, -0.13324563f, -0.59780115f },
  { 0.84774256f, 0.64728993f, -1.45805061f, 0.56537908f, 0.15226977f, -0.07441936f, 0.13296983f, -0.58600479f, -0.82223326f, -0.04860899f, -0.26917151f, -0.62664330f, -0.09267024f, -0.36369181f, -0.26965514f },
  { 0.32215080f, -0.24166465f, 1.14767981f, 0.18398593f, 0.58969438f, -1.18726087f, 0.15582448f, 0.06104076f, -0.88360500f, 0.38514569f, -0.50279897f, -0.25723955f, 0.35120088f, -0.79423267f, 0.01580892f },
  { -0.26783895f, -0.17347065f, -0.07348312f, -0.20447628f, 0.22180352f, -0.08223107f, 0.07211313f, -0.26098576f, 0.11819410f, -0.11068610f, -0.22684327f, 0.00731221f, 0.09464519f, 0.19300485f, -0.18814212f },
  { -0.39407787f, 0.48144221f, -1.88180685f, 0.19336301f, 0.50161725f, -0.68658537f, 0.16792881f, 0.47853914f, -0.78552520f, 0.04441750f, 0.54995722f, -0.29750347f, 0.28562602f, 0.45587519f, -0.22189933f },
  { 0.13900241f, 0.28013429f, 0.53782231f, 0.53851956f, -0.90088034f, 1.30609858f, -0.19873428f, -0.44283670f, -0.15944870f, -0.79388297f, -0.37711039f, -0.69655931f, -0.43582815f, -0.40183479f, -0.47579724f },
  { 0.07448265f, -0.25211143f, -0.18474349f, -0.23396005f, -0.07809931f, -0.09406118f, 0.03697237f, -0.04774471f, 0.12137467f, 0.23671556f, 0.09263948f, -0.10172197f, -0.24177372f, 0.09352013f, -0.12792668f },
  { 0.16168395f, -0.09878954f, -0.29373333f, 0.10314894f, 0.13374816f, -0.49398661f, -0.93077660f, -0.22137523f, -1.14278352f, -0.60969704f, -0.39249456f, -0.45276326f, -0.41258937f, -0.65154958f, -0.73465121f },
  { 0.20972338f, 0.48757231f, 0.26038122f, -0.37333840f, -0.71906185f, -0.52936828f, -0.31180224f, -0.47976744f, -0.15909682f, -0.31640592f, -0.17795217f, -0.03142884f, -0.22788057f, -0.03400628f, 0.08893161f },
  { 0.62931544f, 0.62857991f, 1.08889341f, -0.27780348f, -0.46925351f, -0.25270197f, -0.04059942f, -0.60003608f, 0.11170035f, 0.26498818f, -0.89555037f, -0.07460763f, 0.26686999f, -0.80296516f, 0.24075529f },
  { 0.29017639f, 0.12352348f, 1.91603386f, -0.34131837f, 0.55064189f, 0.31533891f, -0.58410066f, 0.10906500f, 0.19445439f, -0.34740770f, 0.10280659f, 0.34319451f, -0.26372978f, 0.17612600f, 0.47017562f },
  { -0.26245284f, -0.22274779f, 0.17130731f, -0.16589318f, -0.16257863f, -0.13215075f, -0.00694369f, -0.23582375f, 0.06709877f, 0.18483713f, -0.11008880f, -0.05748153f, 0.11389972f, -0.07307640f, -0.17133947f },
  { 0.24109024f, -0.10585476f, -0.18471813f, -0.14449939f, -0.07158452f, -0.12251505f, -0.13398761f, 0.10429803f, 0.04387772f, -0.08263955f, -0.20059764f, -0.08129647f, -0.10897005f, -0.08402281f, -0.23292714f },
  { 0.05562353f, -0.18970481f, -0.20108508f, -0.21095705f, 0.10776800f, -0.15544263f, -0.10657181f, 0.20238680f, 0.13709438f, 0.14804897f, -0.24516153f, -0.18515436f, -0.09747292f, 0.21329749f, 0.02641386f }
};

static const float L0_BIASES[L0_OUT] = 
{ -0.91669899f, -0.15700205f, -0.62978053f, 0.40402585f, -0.11293763f, 0.24429187f, 0.18754631f, -0.04502243f, 0.32261601f, 0.08388372f, 0.31427413f, 0.33639973f, -0.05662326f, -0.11514227f, 0.18519731f, -0.17939445f, -0.10052113f, 0.59400421f, 0.37190589f, 0.25755504f, 0.49853054f, -0.54474264f, -0.24476223f, 0.54355824f, -0.25325027f, 0.27704391f, -0.20666535f, 0.47304639f, 0.45338371f, -0.17650862f, -0.05686986f, 0.30371225f, -0.19030534f, -0.27946115f, 0.66928053f, -0.16845798f, 0.60679263f, 0.12834609f, 0.19080874f, -0.45966935f, 0.47877538f, -0.13148174f, -0.13391733f, 0.61972082f, -0.18348768f, -0.53481144f, -0.24188553f, 0.05341173f, -0.15220657f, -0.15085442f, 0.36998239f, 0.41298121f, -0.27372074f, -0.02667489f, 0.29394269f, 0.72889179f, -0.18137026f, -0.06735686f, 0.22799268f, -0.07044203f, -0.81878674f, -0.13929251f, -0.22193888f, -0.16339120f };

// Layer 1 (hidden_1) weights and biases
static const float L1_WEIGHTS[L1_OUT][L1_IN] = 
{
  { -0.76863503f, -0.73396915f, -0.61559188f, -0.69993234f, 0.05038242f, 0.51804173f, -0.43353271f, -0.05467238f, 0.65967977f, 0.03200678f, -0.20105146f, 0.01001095f, 0.13343389f, -0.05487035f, 0.15053436f, -0.48577476f, -0.10063428f, 0.38316426f, -0.11353684f, -0.48509067f, 0.52352959f, -0.08773818f, 0.34349224f, -0.82831430f, 0.02803725f, -0.69393581f, 0.12136222f, -0.15431374f, 0.64190447f, 0.00789024f, 0.10059817f, 0.69168508f, 0.05021043f, -0.02727207f, -0.43146455f, -0.05554586f, -0.29486904f, -2.21620631f, -0.17519325f, 0.32595798f, -0.55348796f, 0.07090848f, -0.07737082f, -0.59904450f, 0.10142913f, -0.00600974f, 1.19424605f, -0.09183758f, -0.16713627f, 0.32858896f, -0.17111240f, -0.72714394f, -1.04315269f, 0.02747117f, -0.52759659f, -0.41000718f, -0.06573412f, -0.23883195f, -0.04259627f, -0.21822403f, -1.36006200f, 0.10874154f, 0.11384368f, 0.07294427f },
  { -0.55259341f, -1.00936472f, 0.14243717f, -0.73631424f, -0.13905860f, 0.89002913f, -0.00151233f, 0.00757207f, -0.17995764f, 0.64000511f, 0.33166054f, 0.27215329f, 0.00763410f, 0.07274319f, 0.29535693f, 0.74751985f, -0.05296247f, -0.17134783f, 1.06439555f, -0.25035250f, 0.35221153f, -0.97727096f, -0.35670969f, 0.25841635f, -0.04802538f, 0.63975376f, -0.03290871f, 0.56115931f, -0.50303084f, 0.17291221f, 0.10447662f, 0.66981989f, -0.00767923f, -0.11401945f, 0.01288852f, -0.02943263f, -0.08048692f, -2.52094531f, 1.18153691f, -0.04540011f, 0.97479874f, 0.04262234f, -0.12026833f, -0.26929590f, -0.04703095f, -1.34789205f, -0.30057055f, -0.04018924f, 0.59960747f, -0.15088086f, -0.85195076f, 1.04952300f, -0.04781844f, -0.04713371f, -0.29462394f, 0.00927038f, 0.00373833f, 0.21625246f, -0.09099863f, -0.93679297f, -0.95571560f, 0.23342274f, -0.10568041f, 0.09919399f },
  { 0.02375139f, -0.01093333f, -0.08712690f, 0.00556323f, 0.11444783f, 0.05196487f, -0.11151920f, 0.11410265f, 0.00968872f, 0.04727955f, 0.06956342f, 0.09541707f, -0.11130368f, 0.10945798f, -0.10001748f, -0.01371137f, -0.08734545f, -0.06195132f, -0.03371354f, -0.04604257f, -0.03247784f, -0.02383446f, 0.11663298f, 0.03536405f, 0.06993374f, 0.02261572f, 0.09677264f, -0.00576863f, -0.01589133f, 0.01176831f, -0.11430110f, -0.12860900f, 0.00095129f, -0.05481669f, -0.01662575f, -0.03994910f, -0.02147190f, 0.05432186f, -0.05413182f, 0.10010758f, 0.08590462f, -0.09593727f, -0.09652828f, -0.11402129f, -0.08124030f, -0.07361431f, -0.03430822f, -0.04256879f, -0.07781177f, -0.05415551f, -0.07549399f, 0.09107554f, -0.06088070f, -0.08950011f, 0.02837338f, -0.01757693f, 0.09569550f, 0.04218114f, 0.10079926f, -0.11540575f, 0.05480678f, 0.09640715f, -0.06172894f, 0.11489749f },
  { 0.41432995f, 0.23863274f, -2.08401060f, -0.21563923f, -0.06837495f, 0.06715393f, -0.77802467f, -0.08169487f, 0.00414075f, -0.95619726f, -0.54042429f, -0.40291238f, 0.06676837f, -0.06201254f, 0.39342383f, -0.20517029f, 0.03398985f, -1.48467612f, -1.08111966f, -0.90434968f, -0.85601419f, 0.53373694f, 0.13266215f, -1.80398667f, -0.06565481f, -0.72841537f, 0.02335665f, -1.56169462f, -1.01512897f, 0.04723226f, -0.13872252f, -1.05005145f, -0.03806910f, 0.02951635f, -4.01701069f, -0.10311634f, -0.66667706f, -0.99226707f, 0.17217763f, 0.33034322f, -0.71106017f, 0.08581794f, 0.03096472f, -1.53907788f, 0.04731731f, 0.63399750f, -0.36671636f, -0.10866211f, -0.08594489f, -0.86639696f, -0.53149486f, -0.59318674f, -0.04250696f, -0.09297704f, -0.40700433f, -1.31039608f, -0.03749511f, -0.24926426f, 0.46291384f, 0.98528874f, 0.31932032f, 0.12951733f, 0.02118641f, 0.04116862f },
  { 1.20359457f, -0.89900994f, 0.35439730f, -0.19869460f, -0.08254986f, -0.33447015f, 0.28405544f, -0.11352353f, 1.40519607f, -0.55452621f, 0.11950411f, -0.59250164f, 0.02038910f, -0.02450045f, -0.08174129f, 0.37630928f, -0.11804101f, 0.00158713f, 0.06745436f, 1.21492672f, -0.11185805f, -0.21597329f, -0.68630373f, -0.26728293f, -0.06716870f, -1.07210648f, 0.05383629f, 1.09854257f, 0.38246164f, -0.04283533f, 0.01638312f, 1.09724522f, 0.02423847f, -0.06752618f, -0.57089448f, -0.02923695f, 0.60108662f, 0.78689337f, -0.65919209f, 0.14102815f, -1.20473731f, 0.01751062f, 0.01197594f, 0.65492201f, -0.09166294f, 0.05110274f, 0.09580255f, -0.55346924f, 0.55504519f, 1.82436717f, -0.85595679f, -0.76663333f, -0.13651136f, 0.12518705f, -0.53825074f, -0.85783333f, 0.06528965f, -0.65074801f, 0.00693377f, 0.21412465f, 0.42565560f, 0.02197821f, 0.01798710f, 0.03309834f },
  { 0.23507097f, -3.51011777f, 1.16556382f, 0.59610069f, -0.10960330f, -0.20845117f, 2.33581400f, -0.05064549f, 0.62381631f, 0.77715558f, -0.32432356f, 0.08704939f, -0.10810103f, 0.08831897f, 0.29798281f, -0.16318884f, -0.08238785f, -0.32579926f, 0.06636569f, 0.58641994f, -0.70431685f, -1.58817947f, 0.01303771f, 0.45082465f, 0.10506332f, 0.38579339f, 0.00782511f, 1.02873516f, 0.98957700f, -0.15056023f, 0.04366186f, 1.16051865f, 0.09334524f, -0.00003618f, -0.24765937f, 0.07662047f, -0.49838093f, 0.40264985f, -0.05710926f, -0.13573717f, 0.70621526f, -0.00518008f, -0.11077714f, -1.03020084f, -0.02544335f, -0.43529204f, 0.13293292f, -0.10012896f, 0.85542214f, 0.66042966f, -0.43913397f, 0.17598069f, -0.77130800f, 0.02391812f, -0.28368974f, 1.48380053f, -0.03927645f, 0.77393669f, -0.30415228f, -0.11336793f, -0.82704401f, -0.05184950f, -0.02246080f, -0.01440042f },
  { 0.36369038f, 0.70039713f, -0.19949852f, -0.52756166f, 0.01541899f, 0.02796785f, -0.41352129f, -0.00144072f, -0.02470114f, 0.17363131f, 0.38097867f, -0.74315763f, 0.05490577f, 0.10997541f, -0.34661859f, -0.06317737f, 0.05587612f, 0.23101223f, -2.66661286f, -0.17598377f, -1.16790950f, 0.42359853f, 0.69129932f, -0.69407755f, 0.03464217f, -0.10878763f, -0.10929442f, -1.02777815f, -1.24323153f, 0.01066025f, -0.12264142f, -0.05339763f, -0.06644125f, 0.00592116f, -2.49972129f, -0.10530655f, -0.13069408f, 0.25804147f, 0.15957782f, 0.17817836f, -0.17220582f, -0.04269135f, 0.00204180f, -0.99588144f, 0.08913620f, 0.44388536f, -1.26137638f, 0.16209969f, -0.24425544f, 0.49196079f, -0.81307548f, 0.05277652f, 0.29100466f, 0.08513653f, -1.21072090f, -0.69796455f, -0.05237779f, -0.69567013f, 0.58152509f, 0.97926211f, 0.43849635f, 0.20738702f, 0.01583451f, 0.02662720f },
  { -0.40688327f, 0.07573044f, -1.18967509f, -0.31153059f, -0.01059198f, -0.30933514f, -0.61931103f, -0.04628326f, 0.09845265f, -0.69622511f, -1.31926847f, -0.14090922f, -0.02794172f, -0.02891565f, 0.56267023f, 0.62915891f, -0.01338732f, 0.32463118f, -0.02550540f, -1.91553307f, -1.82922244f, -0.24527119f, 0.00271885f, -1.28735733f, -0.11078490f, -0.01536901f, 0.07623175f, -0.56001443f, -0.13719968f, -0.01372875f, 0.00195382f, -0.87580192f, 0.04351100f, -0.11026476f, -0.21045035f, 0.04395238f, -0.45964304f, 0.39550564f, -0.52552056f, 0.17632854f, 0.01307321f, 0.08617832f, 0.01650982f, 0.02334286f, 0.10274044f, 0.30733025f, -0.30699274f, -0.32398027f, 1.04059470f, 0.03587197f, -0.12995188f, -0.67959332f, -1.47487164f, -0.01633323f, 0.37056974f, 0.40537679f, 0.02107616f, -0.20819458f, 0.12387434f, 0.34689668f, -1.09296620f, 0.05498751f, -0.01199922f, -0.07834135f },
  { -0.00736565f, -0.05437898f, -0.07046910f, -0.04019338f, -0.04456857f, 0.10752510f, 0.04794650f, 0.12301415f, 0.00253133f, 0.02830391f, 0.05138670f, 0.02145407f, -0.09809643f, -0.07391919f, -0.03028482f, -0.01242573f, 0.04708931f, 0.01272160f, 0.11890023f, 0.02544659f, -0.07434870f, -0.11449736f, -0.09155133f, -0.10642540f, 0.03770044f, 0.03705961f, 0.10936408f, -0.03948002f, -0.00986037f, -0.03712043f, -0.00045675f, 0.03020982f, -0.00274643f, 0.00578685f, 0.01583590f, 0.04655229f, -0.04960384f, -0.04280495f, 0.02949058f, -0.01480070f, -0.05850860f, 0.05249538f, 0.00113364f, -0.01818308f, -0.06051047f, -0.03712809f, -0.13364640f, 0.02843629f, 0.02666155f, 0.08969610f, -0.02367715f, 0.04173026f, 0.01800339f, 0.09511720f, -0.08008355f, 0.07462564f, 0.03057019f, -0.08338960f, 0.04352336f, -0.07496668f, -0.06334228f, -0.05958360f, -0.08503927f, 0.09844643f },
  { 0.63602358f, 0.49196294f, -0.46243095f, -0.55909544f, -0.02426989f, -0.02242700f, -0.06222540f, 0.03597844f, 0.19563672f, 0.14535162f, -1.93384802f, 0.50919813f, -0.05992452f, -0.07349393f, 0.00083570f, 0.29940322f, -0.02127996f, -0.09582985f, -0.56494415f, 0.06345500f, -0.96983576f, 0.40887865f, 0.66924405f, -1.58292282f, 0.10341151f, -1.32177615f, 0.08263160f, -1.68988776f, -0.77375335f, 0.21373877f, 0.10989955f, -1.11836219f, 0.03942471f, 0.05611502f, -0.85458249f, -0.07217052f, -0.74109942f, -1.67645085f, 0.30676776f, 0.56673479f, -1.06045222f, 0.04915250f, -0.07855052f, -0.21070072f, 0.00072718f, 0.78358239f, 0.01868385f, -0.43267989f, -0.72130841f, 0.37606171f, -0.67849690f, 0.99647033f, -0.35807642f, -0.10054620f, -0.48838863f, -0.61689961f, 0.07507946f, -0.28787768f, 0.14339323f, -0.68505704f, 0.42286468f, -0.03000124f, 0.08112876f, 0.04096594f },
  { -0.37048742f, -0.17445095f, -1.60379112f, -1.06088042f, 0.01076720f, -0.00638230f, -1.58876824f, 0.04326612f, -0.07843290f, -0.10245122f, 0.30606526f, -0.09466189f, -0.04874334f, -0.12581269f, -0.42057583f, -0.41820154f, -0.03695448f, -0.31589645f, -0.00288986f, -0.36044067f, 0.04250989f, -0.45987543f, 0.13273184f, 0.30639014f, -0.11058545f, 0.95319372f, -0.08905618f, -0.27960837f, -0.45363438f, 0.05457940f, -0.07504755f, 0.15727635f, -0.00481880f, 0.00599072f, -0.20570341f, -0.04958675f, 0.43858206f, -0.19492982f, 3.11175394f, -0.28332001f, 0.32810512f, 0.06104933f, 0.10047463f, -0.19889757f, -0.01641559f, -0.67693055f, -0.70756471f, 1.22198379f, -0.60580271f, -0.35881799f, -0.78705209f, 1.04966462f, -0.28017411f, -0.02796909f, -0.45909813f, -0.33531198f, 0.00876732f, 0.17599919f, 0.05765620f, -0.60974711f, -0.85816205f, 0.06587540f, 0.08381598f, -0.08537126f },
  { -0.05174702f, -0.14152963f, -0.10269072f, 0.03264200f, 0.06037614f, -0.04685147f, -0.02535993f, 0.02421962f, 0.02928013f, -0.04849573f, -0.08643083f, 0.06842442f, 0.00392760f, 0.05231871f, -0.08952646f, -0.01328636f, 0.09097071f, 0.00038173f, -0.00970010f, 0.08037636f, -0.07667136f, -0.04840358f, 0.10781127f, 0.10860406f, -0.05277751f, 0.03632025f, 0.04613250f, -0.08985329f, 0.03294716f, -0.07755683f, 0.08121857f, 0.07931318f, -0.09910564f, -0.07968749f, -0.17068270f, -0.02249530f, -0.12632756f, -0.08111776f, 0.02514715f, 0.00649198f, -0.00660540f, 0.06938511f, 0.05185798f, -0.09043689f, -0.11217351f, -0.05049110f, 0.04234637f, -0.00592688f, -0.05195735f, -0.15783690f, -0.10653567f, -0.13760491f, 0.02942387f, -0.02036621f, -0.15399837f, 0.00022966f, 0.00907102f, -0.02835008f, 0.03186193f, 0.05424653f, -0.16220598f, -0.09424924f, -0.00600499f, -0.11589222f },
  { -0.10054011f, 0.05708082f, -0.42382559f, -0.66681033f, -0.00151861f, 0.10920591f, -0.94402039f, -0.02710485f, -0.12963733f, -0.84124804f, 1.73986280f, -0.27917880f, 0.01182848f, -0.01616190f, 0.02301304f, -0.93666261f, 0.09617130f, -0.84693754f, -0.69711965f, 0.30429095f, -1.50494993f, 0.32439747f, 0.07186488f, -0.05036604f, -0.02190052f, 0.25459117f, -0.07468604f, -0.90465182f, -0.28842086f, -0.05852628f, 0.00803580f, -1.26886404f, 0.08691438f, -0.01486503f, -2.01849985f, -0.07951788f, -1.16540217f, 1.26081598f, 0.12054528f, 0.19544055f, 1.33694053f, -0.07020264f, 0.07601146f, -4.41375780f, 0.01723270f, 0.95427698f, -2.00386834f, -0.03301673f, -1.55182707f, -0.23275168f, 0.56180549f, 0.63422978f, 0.33483526f, 0.05345673f, -1.00418019f, -1.51080728f, 0.08866429f, -0.02558601f, 0.07231949f, 1.02994156f, 0.29617822f, 0.15490136f, 0.03958951f, 0.10113432f },
  { -0.20294371f, -0.13218148f, -0.24229079f, 0.02669590f, 0.04378875f, -0.09153335f, -0.03387730f, 0.11405154f, -0.12326045f, 0.09067763f, -0.01243457f, 0.01162761f, 0.08086791f, 0.11319877f, 0.02106189f, 0.07929073f, 0.05200306f, 0.02036770f, -0.13384290f, -0.06333569f, -0.16551840f, 0.02880812f, 0.02205424f, -0.02879907f, -0.08546583f, -0.07577465f, 0.09239221f, 0.02927005f, 0.00433451f, -0.06885371f, -0.02152453f, -0.06213200f, 0.05435452f, -0.05396098f, -0.01189888f, 0.08618672f, -0.11431950f, 0.00933304f, -0.02380669f, -0.10070895f, 0.02235769f, -0.01518688f, 0.10943852f, -0.19270496f, 0.05807893f, -0.12565804f, -0.06265271f, 0.00852662f, 0.06954447f, 0.00788763f, -0.10531904f, -0.02062174f, -0.05798867f, 0.00541621f, -0.16252337f, -0.03667168f, 0.08573331f, -0.11469202f, -0.15078463f, 0.03964176f, -0.01847977f, -0.02286069f, 0.10915151f, -0.07526112f },
  { -0.22543006f, -1.73498249f, 0.09208457f, 0.28031537f, 0.07734336f, 0.75396436f, -0.18453690f, -0.05194458f, -0.28661853f, 0.00887237f, 0.06499869f, -0.05529023f, -0.08220921f, 0.05310336f, 0.01028089f, 0.29130572f, 0.12489656f, -0.73776740f, 0.81313765f, -1.97273886f, 0.20485055f, -1.94132733f, 0.06000717f, 0.55319858f, 0.00961405f, -0.20528926f, -0.11881590f, 0.31161070f, -0.50093836f, -0.14324790f, -0.09010096f, 0.34376347f, -0.17028901f, -0.01710148f, 1.49368894f, 0.04510236f, -0.30854303f, -0.24110609f, 0.54090452f, -0.03170728f, 0.14587826f, 0.01828301f, -0.03661881f, 0.28203726f, -0.09764120f, -1.44718695f, -1.16067386f, 0.14678387f, 0.02318543f, -0.38559747f, -0.54209548f, 0.06265356f, 0.10012713f, -0.08469237f, -0.47429785f, -0.77378416f, -0.10526982f, -0.29163554f, 0.20535931f, 0.22912940f, -0.47663909f, -0.02883321f, 0.08557384f, 0.05776098f },
  { 0.25376606f, -0.94191396f, 1.15617979f, -0.73661083f, -0.02267048f, -0.30810997f, -1.40077305f, 0.05053607f, -0.23730388f, 0.72123384f, 0.28205732f, -0.06413245f, -0.06299947f, 0.07085502f, 1.00151491f, -1.95633495f, -0.02649239f, 0.16240890f, -0.84539646f, -1.15181470f, 0.48529485f, -0.07053652f, -0.01260747f, 0.31088474f, -0.00508660f, -0.38461432f, 0.03713545f, -1.46469617f, -0.07751106f, -0.14699623f, -0.02647869f, 0.41890222f, -0.06571163f, -0.01215125f, -1.55079329f, 0.01155488f, -0.58477134f, -1.73733592f, 1.83698285f, -0.27293521f, 0.11004264f, -0.00028192f, -0.10168388f, 0.88590980f, -0.01834740f, 0.43196097f, -0.52588981f, 1.02032435f, -0.24193026f, 0.99418849f, -0.97229958f, -0.17107908f, -1.26776290f, -0.10228911f, 0.06134316f, -0.85038728f, 0.00989705f, -0.53016979f, -0.12653030f, 0.97136557f, 0.45139429f, 0.00304900f, 0.02272774f, 0.11781016f },
  { 0.58909231f, -2.69207811f, 0.58483094f, -0.05658298f, 0.00430941f, -0.25731441f, 0.60163450f, 0.00419572f, 0.00186603f, 0.27817696f, 0.48377761f, -0.41904774f, 0.00230872f, -0.03069211f, 0.46369237f, 1.08042276f, 0.09556535f, -1.61876059f, 0.63776249f, 0.56775880f, -0.07581600f, -1.57513988f, -0.34175909f, -1.09728074f, -0.12300242f, 0.12654448f, 0.01007351f, 0.14119411f, -0.23264752f, 0.02442756f, 0.04806707f, 0.62932408f, -0.11837638f, 0.10847126f, 0.15937921f, -0.05771088f, -0.28937399f, 0.23018739f, 0.32280907f, -0.13890822f, -0.06294563f, -0.05870849f, 0.04024376f, -1.41686833f, 0.00522403f, -1.45545626f, -0.74432683f, -0.09331603f, 0.28132716f, 0.27032119f, -1.81785762f, -0.86183321f, -0.08388177f, -0.00473386f, -0.23495027f, -0.59067613f, -0.02466728f, -0.07069755f, -0.41705480f, 0.32979164f, -2.05484819f, -0.02436128f, 0.07055645f, -0.00323445f },
  { 1.05876172f, 0.34756815f, 0.20605810f, -0.32924846f, 0.12687793f, -0.56066096f, -0.83735830f, 0.04346107f, 0.49393079f, -0.54444391f, 0.11423298f, -0.28327274f, 0.10337023f, 0.01015992f, 0.03811259f, -0.47359908f, 0.09184799f, -0.45808369f, -1.46448970f, -0.21923392f, -0.76564682f, 0.11320786f, -0.76366657f, -1.43490422f, 0.07081814f, -1.68101835f, 0.00829549f, 0.26683566f, -2.16665077f, -0.09696284f, 0.07567854f, -0.27363041f, 0.08348719f, 0.15304451f, -0.79464656f, -0.12768075f, 0.40908772f, -1.85491145f, -0.41925964f, -0.00820508f, -1.00880814f, -0.05551427f, 0.12242638f, -0.47137827f, 0.12236092f, 0.48275492f, -0.61442107f, -0.15689731f, 0.58979028f, 0.57461250f, -0.89074296f, -0.84350586f, -2.00006390f, -0.03481624f, -1.24271572f, -0.07685383f, 0.08784933f, 0.23678257f, -0.36044624f, 0.22688414f, 0.69055438f, -0.03151744f, 0.06517255f, -0.05041972f },
  { -0.09575025f, 0.06687250f, 0.14976387f, -3.07226133f, -0.00098125f, 0.11302530f, -1.66092682f, -0.11857145f, 1.13756478f, 0.87077707f, 0.44507694f, 0.15206355f, -0.08422165f, -0.10409234f, 0.01972871f, 0.31288588f, -0.01388226f, 0.65002930f, 0.80211645f, -1.28438354f, 0.51438326f, -0.08977348f, 0.39484543f, -0.16527811f, 0.07693106f, -1.40932524f, -0.10243157f, 0.05243182f, 0.64726454f, 0.06177173f, -0.02115439f, 0.30329812f, 0.07175119f, -0.00451602f, -1.09189153f, 0.10249049f, 0.58602339f, -0.68899119f, -0.50773793f, 0.27382976f, -0.85454834f, -0.10327595f, -0.02566208f, -0.90226287f, 0.10700309f, -0.31115377f, 1.00397241f, -0.12653187f, -0.34567845f, 0.26783767f, 0.25062922f, -1.02839446f, -0.76403475f, -0.06986674f, 0.45661440f, 0.43178105f, -0.01984261f, -0.13759701f, 0.01404975f, -0.99003679f, -1.13671875f, 0.14423777f, -0.08604486f, -0.11768299f },
  { -0.10865401f, -0.13931662f, -0.07804745f, -0.15427358f, 0.04141977f, -0.17269778f, -0.12883528f, -0.06571272f, 0.06048642f, -0.05715311f, -0.13956100f, -0.09078237f, -0.07759187f, -0.12669982f, -0.03273862f, -0.05011486f, -0.02293471f, -0.16118592f, -0.08766585f, -0.18569528f, -0.17082447f, -0.08793953f, 0.09440339f, -0.08479740f, 0.06195743f, -0.12586699f, -0.03327473f, -0.16023169f, 0.00045929f, 0.10191523f, -0.00809230f, -0.02057097f, 0.08249572f, 0.05612907f, 0.00032320f, -0.13700210f, -0.14815122f, -0.15252456f, 0.01812346f, -0.10812208f, -0.15174940f, -0.06058785f, -0.11521067f, -0.02527633f, 0.00207913f, -0.15926373f, -0.02446073f, -0.07813703f, -0.06033202f, 0.00747144f, 0.00590336f, -0.07325788f, -0.11745558f, -0.06270863f, -0.04747794f, 0.05383120f, 0.06223059f, -0.11047486f, -0.13782875f, -0.20611529f, -0.14313135f, -0.01393641f, -0.05614695f, -0.09883815f },
  { 1.30266941f, -0.37538323f, -1.01901007f, 0.09734449f, -0.03387168f, 0.19763143f, -0.43059635f, -0.01482113f, 0.39985609f, 1.14207482f, -0.11364173f, -0.55521882f, -0.02020682f, -0.07130312f, -0.25732815f, -1.48135602f, -0.02272764f, 0.26978099f, 0.06222399f, -0.17613079f, 0.76368833f, 0.09612808f, -0.03813979f, -2.07084417f, -0.08636621f, 0.25926489f, -0.03410409f, -1.16679835f, -1.47432470f, 0.05714963f, 0.08696520f, -1.10347939f, 0.08213107f, 0.01214905f, -1.27946210f, 0.00253941f, 0.01243226f, -1.39551175f, -0.42691204f, 0.02213841f, -0.23503788f, 0.04347886f, 0.00242946f, -0.68304616f, -0.04145581f, 1.18917036f, -0.29653937f, -0.05654139f, -2.36902738f, 0.35095310f, -2.39307499f, 0.46462858f, -0.05307092f, 0.02714403f, -0.49124551f, -0.65307301f, 0.00648831f, -0.48116243f, 0.09254592f, -0.47283489f, 0.43913487f, 0.15488189f, 0.02479883f, 0.11172539f },
  { -0.12380370f, -0.04479194f, 0.08337087f, -0.00880247f, -0.10031368f, -0.18759358f, 0.08871350f, 0.00206475f, -0.09175263f, -0.01782565f, -0.52077830f, 0.04172893f, -0.07003780f, -0.02639174f, -0.03681395f, -0.07764382f, 0.01151562f, -0.04681576f, 0.21549083f, -0.07463099f, -0.00643720f, -0.18361259f, 0.01854840f, -0.29980764f, -0.07170583f, -0.21723835f, -0.11681706f, -0.15366922f, -0.10395502f, 0.06423724f, -0.04948089f, -0.24456927f, -0.10163146f, -0.07381518f, -0.03821097f, 0.07507366f, -0.20113572f, -0.19807033f, 0.05429682f, -0.07765415f, -0.14784244f, 0.02728127f, -0.06892511f, -0.30463585f, 0.10590447f, -0.12521860f, -0.25293708f, 0.04705001f, -0.10812098f, 0.00383007f, -0.21889861f, 0.07858957f, -0.18192826f, -0.08460853f, -0.03476496f, 0.30140361f, 0.09692439f, 0.23921555f, 0.19835122f, -0.00212312f, -0.02257563f, -0.02903637f, 0.00425510f, -0.11838104f },
  { -1.00720060f, -0.30744034f, 0.27477488f, 0.34314910f, 0.03557795f, -0.29260787f, -0.66982692f, -0.06952378f, -0.81730270f, 0.38387245f, 0.89147013f, -0.34925228f, 0.05788544f, -0.08982827f, -0.47449923f, -0.79685175f, -0.01245190f, 0.36000949f, 1.30449104f, -0.06734114f, 1.36668229f, -0.27751580f, 0.26643652f, 1.15753412f, 0.09956935f, 0.45889449f, 0.09336420f, 0.66030556f, -1.61871982f, 0.09300276f, 0.05827094f, -1.01323986f, 0.03700896f, -0.03722961f, -0.13363126f, -0.03124952f, -0.69259363f, -2.30169821f, -0.36805940f, 0.26447004f, 0.76905519f, 0.05307215f, -0.08956601f, -0.33682758f, 0.10616376f, 0.38097557f, -2.29482150f, -0.02343287f, -0.97234696f, -2.12180638f, 0.14673056f, -0.37951151f, -0.79386425f, -0.05839548f, -0.57677764f, -0.68484044f, 0.08053569f, -0.47111863f, -0.31703576f, -0.91644174f, 0.75199735f, 0.00131026f, -0.04332465f, -0.01749386f },
  { -0.51774973f, 0.27398577f, -1.13713431f, -2.04470062f, 0.08116969f, -0.39291355f, -0.63321441f, -0.04616217f, -0.50554711f, -1.23848283f, 0.62825733f, -0.88138890f, 0.00173094f, -0.02524278f, 0.13884836f, -0.26583081f, -0.04141752f, 0.47845799f, -0.93860143f, -2.44245291f, -0.88854402f, 0.17453951f, -0.40274572f, -1.14148712f, 0.09057790f, -1.73483992f, -0.08121742f, -0.47132903f, 0.18437868f, 0.27420133f, -0.01475411f, -1.01869273f, 0.07957685f, 0.11988289f, -0.24288158f, -0.02335146f, -1.31932402f, -0.51400828f, -1.08112061f, 0.18250272f, -0.72404480f, 0.07828818f, 0.04140519f, 0.81146795f, 0.11478711f, 1.21532369f, -0.04701173f, 0.18285087f, -1.29114199f, -3.44599223f, -0.01307501f, -2.86306691f, -0.39253417f, 0.10161045f, 0.06091205f, -0.09484079f, 0.11588120f, -0.23681483f, -0.25509399f, 0.37127748f, -0.31113839f, 0.12403366f, 0.05384181f, -0.00419156f },
  { -0.20981260f, -0.07721115f, 0.02103786f, -0.02017733f, -0.06348809f, 0.02010479f, -0.06352597f, 0.11420037f, 0.12941994f, -0.08105943f, -0.06959706f, 0.20583956f, -0.01933356f, 0.10714304f, -0.08346552f, -0.12689407f, -0.00000143f, -0.24201831f, 0.18451178f, -0.08933616f, -0.01572521f, -0.15555805f, 0.22313361f, -0.18541123f, -0.05238572f, -0.04335525f, 0.00075789f, -0.15626818f, 0.02299557f, -0.07043459f, -0.07089765f, -0.03016993f, 0.07614750f, 0.02966945f, 0.11695911f, 0.00526200f, 0.19201437f, -0.03932971f, 0.07831963f, -0.13897707f, -0.14551662f, -0.05929554f, 0.04258354f, 0.10945386f, -0.06378788f, -0.06666034f, -0.06837091f, 0.00049651f, -0.01993723f, -0.10424160f, 0.00613695f, 0.07468218f, 0.08360047f, -0.10550173f, -0.14455076f, -0.00207556f, 0.09981246f, 0.26773980f, 0.16585582f, -0.16471420f, -0.05098660f, -0.09461283f, -0.10673399f, 0.01709293f },
  { -0.12217852f, 0.07589696f, -0.09770356f, -0.00113087f, 0.07337035f, -0.14261849f, 0.02938918f, -0.01673701f, 0.06477034f, 0.15185741f, -0.09505366f, -0.10974447f, 0.07021914f, 0.01390006f, -0.05299204f, 0.05451963f, -0.06039301f, -0.04791573f, 0.05019557f, 0.01480697f, -0.12169560f, -0.00549634f, -0.16467252f, -0.10894202f, 0.08037648f, -0.06638361f, -0.06366964f, -0.02875587f, -0.00543737f, -0.10957108f, -0.08429542f, -0.16399394f, -0.00136650f, -0.08065368f, -0.02341974f, -0.02795728f, -0.12175135f, -0.07797881f, -0.06587017f, -0.09947620f, -0.05092806f, -0.10686439f, -0.10962917f, 0.05062049f, 0.01176226f, -0.09260847f, -0.04345757f, 0.04564273f, -0.13793972f, -0.10316774f, -0.13065676f, -0.04591715f, -0.03900301f, -0.09741323f, 0.04484820f, -0.15206382f, 0.11670446f, -0.12853165f, -0.05359559f, -0.04756996f, -0.08719117f, 0.11120418f, -0.08617929f, -0.00692855f },
  { 0.36496001f, 0.25998992f, -1.40355265f, -1.00686944f, 0.05607758f, -0.71872103f, -1.00545073f, 0.00932880f, 0.50878161f, -1.65904069f, -1.02374470f, -0.52965736f, 0.13308722f, 0.03714570f, -0.19953766f, 1.21258032f, -0.05361314f, -1.11078668f, 0.93932581f, 0.88457721f, -0.76200300f, 0.27366248f, -0.56177115f, -1.74776983f, 0.01991893f, -1.15124738f, 0.11513908f, -0.56365240f, -0.39349952f, -0.19821955f, 0.01268469f, -1.82103038f, 0.03250638f, 0.12875073f, -2.36534238f, -0.08301905f, -0.88303053f, 0.86812717f, 0.79076284f, 0.10471927f, 0.00826320f, -0.02820673f, 0.04533151f, -1.81396830f, -0.04248315f, 0.56070626f, -0.73247749f, -0.07331321f, 0.63099450f, -2.78718591f, -0.73382801f, -1.00677645f, 1.67412388f, -0.03737101f, -0.34856212f, -0.55092210f, 0.05564600f, 0.06388468f, -0.49033692f, 1.39241171f, 0.99070537f, 0.17070299f, 0.10299389f, 0.04633135f },
  { 0.07937030f, -0.04951067f, 0.00645374f, -0.04596670f, 0.10618380f, -0.01340825f, -0.00376191f, -0.02826348f, 0.09052761f, 0.15638283f, -0.15543836f, 0.08722939f, -0.09671509f, -0.09686238f, -0.14846215f, 0.00712513f, -0.09385341f, -0.12682204f, -0.12226471f, -0.08655282f, -0.14997104f, -0.14580700f, -0.01467123f, -0.02037699f, -0.05645305f, -0.03054191f, -0.08246925f, -0.13819101f, -0.11035081f, -0.08149182f, 0.07332756f, -0.11385221f, -0.02353940f, 0.04595881f, -0.13305965f, 0.08301709f, -0.08325156f, -0.09573828f, -0.12080549f, -0.08718475f, -0.10583669f, -0.11123461f, 0.04271345f, -0.04341616f, 0.10825056f, -0.02075518f, 0.02731697f, -0.00929339f, -0.06947323f, 0.05606016f, 0.02213483f, -0.06875549f, -0.04841079f, -0.12055811f, -0.04634530f, -0.06344792f, 0.10848957f, 0.00730744f, -0.01267274f, -0.13366437f, -0.15035009f, 0.01437552f, -0.06211026f, -0.05740656f },
  { 0.29319295f, -1.75371540f, -0.96071738f, -1.85350239f, 0.02711069f, -0.42783564f, -1.95051396f, 0.06301717f, -0.02224172f, 0.44595504f, 0.94054013f, -0.03836487f, 0.15593438f, -0.06624506f, -0.01310692f, -0.81831622f, -0.10701329f, 1.59724605f, -0.53352338f, -0.31566080f, 1.41122437f, -0.14329478f, -0.05299857f, -0.53680176f, 0.10899073f, -2.02681971f, 0.08802772f, -1.38361275f, 1.10842729f, 0.03325673f, 0.15255040f, 0.30186409f, 0.11957408f, 0.08668816f, -0.14641891f, 0.00308721f, 0.10756800f, -1.32817757f, -0.41037717f, 0.43812487f, -0.02400865f, -0.09096479f, -0.07822907f, -1.21964395f, 0.00340598f, 0.26314202f, 0.65430850f, -0.24394827f, -0.69349545f, 0.13068798f, 0.28735662f, 0.70378220f, -0.83582270f, -0.10776035f, -0.34763896f, 0.09138901f, 0.08251637f, -0.36336344f, -0.05678876f, -0.32909933f, -1.05799747f, -0.02842190f, -0.02532402f, 0.01744090f },
  { -0.10788459f, -0.15043226f, -0.16668829f, -0.13148504f, -0.07846440f, 0.09896334f, -0.06680664f, -0.11307757f, -0.06389612f, -0.04383193f, -0.07941311f, -0.12063636f, -0.09855530f, -0.04446539f, -0.03187589f, -0.03142375f, 0.08031024f, 0.03254464f, 0.04981483f, -0.07723147f, 0.00898701f, -0.06025284f, -0.07841028f, 0.00054164f, -0.01508130f, -0.12727821f, -0.10597648f, 0.02941374f, 0.01425207f, 0.07053421f, -0.04428376f, -0.00397762f, -0.01336399f, -0.07962127f, -0.06477375f, 0.06401062f, -0.11745960f, 0.06361406f, -0.00569555f, 0.04038908f, 0.06665000f, 0.06117700f, 0.05391032f, 0.00796707f, -0.06677302f, -0.13456835f, -0.08296875f, 0.04406270f, 0.02293869f, 0.04445952f, -0.08012123f, -0.07435947f, -0.09602791f, 0.07707453f, -0.12058969f, -0.13261846f, 0.10322069f, -0.01903570f, -0.10093217f, -0.11720264f, -0.14558794f, 0.07442600f, -0.11425054f, 0.10801616f },
  { -0.19999605f, -0.42998338f, -1.87460172f, -0.18128744f, 0.03720738f, -1.48576629f, -1.65906668f, -0.08196995f, -0.04061149f, -0.91490364f, -0.86795741f, -0.63375723f, -0.02936259f, -0.05925513f, 0.16125904f, 0.59493130f, -0.03361019f, -1.86392999f, -0.24357082f, -0.32634506f, -1.69186139f, 0.20118941f, 0.30747992f, -3.23607635f, -0.10150698f, -1.59569550f, 0.10501086f, -1.08521032f, -0.32479557f, 0.17217061f, -0.13840717f, -0.83669019f, 0.01909097f, -0.01062949f, -1.51101267f, 0.10620729f, -0.90646827f, -0.69028932f, -1.00125742f, 0.44584233f, -1.58138025f, 0.06926976f, 0.05953921f, -1.59900427f, 0.00648660f, 0.35914201f, -0.85037696f, 0.04791674f, 0.16495447f, -0.44557878f, -0.13692433f, -1.37377048f, 0.03068885f, 0.11655994f, -0.66533017f, -1.21364105f, 0.09623407f, -0.25834492f, 0.11864290f, 0.43043658f, 0.30299911f, 0.01816209f, -0.03513871f, 0.09577405f },
  { -0.07419063f, -0.15303451f, -0.10034226f, 0.01540212f, 0.00603157f, 0.05993612f, 0.02556293f, -0.11648984f, -0.00080250f, 0.08261629f, 0.04593274f, 0.03751120f, -0.09391300f, -0.07495432f, 0.05311507f, -0.08358224f, 0.02851668f, -0.07935040f, 0.04188508f, 0.00817901f, -0.12697288f, -0.11332797f, 0.10902390f, -0.01704622f, 0.06338188f, -0.06306285f, 0.09895508f, -0.05852211f, -0.10563358f, 0.02535681f, -0.04478917f, -0.08197124f, -0.01788691f, -0.00713630f, -0.10284343f, 0.04272670f, -0.12114780f, 0.07673290f, 0.08416931f, 0.02022286f, -0.06097140f, -0.11448760f, 0.05870031f, 0.03889741f, 0.10686569f, -0.05236814f, 0.00979367f, 0.08801251f, 0.01865742f, -0.09209619f, -0.15044102f, 0.05465136f, 0.04869293f, 0.11108555f, -0.09540139f, 0.05369039f, -0.04135679f, -0.03106688f, 0.07293582f, -0.14633568f, 0.02863864f, 0.05813731f, -0.07428992f, 0.06378694f },
  { 0.01867511f, 0.34437972f, -0.19832580f, -0.68368113f, -0.03476612f, 0.16493972f, 0.32527533f, -0.06155160f, 0.52077091f, 0.41528472f, 0.24681000f, 0.39204195f, -0.01814833f, -0.00401903f, 0.49008146f, -1.03034592f, 0.00231986f, -0.59402543f, -0.67026269f, -0.52195364f, -1.06089151f, 0.07409278f, 0.83381605f, 0.29420483f, -0.09659781f, -0.92859703f, -0.10331188f, 0.68542343f, -1.87511420f, -0.03436172f, -0.08820891f, 0.32338586f, 0.17997806f, 0.12801290f, -0.39754274f, 0.13221923f, -0.66361856f, 0.50160986f, 0.42443129f, 0.44702893f, -0.80800474f, 0.06614104f, -0.06917773f, -0.51914531f, -0.09647940f, -0.14425080f, -0.58962840f, -0.27104849f, -0.63862592f, 0.19698514f, -0.84314066f, -0.49607098f, -0.22442664f, -0.07334919f, -0.65869784f, -0.30200720f, 0.02231625f, -0.41510132f, 0.80355489f, -0.22722332f, 0.29452905f, -0.16928218f, -0.01074003f, -0.05900738f },
  { 0.34670681f, -0.02363051f, -0.13428096f, -0.77844775f, -0.10348678f, -2.61512089f, 0.40872064f, -0.06992269f, 0.11585662f, -0.75086027f, -0.25385630f, -0.26669809f, -0.00475181f, -0.09575582f, -0.22570829f, -1.31551039f, -0.11213042f, -0.63210022f, -0.94670457f, -0.44622263f, -2.35467386f, 0.57470828f, -0.74012929f, -1.35902131f, -0.03038584f, -1.25735521f, -0.13765396f, -2.56222701f, -0.63012695f, 0.16785806f, -0.10573834f, -1.04732227f, 0.07080469f, -0.03781409f, -0.59376770f, 0.08483074f, -0.36329579f, -1.34946239f, -0.18285793f, 0.08284783f, -1.02802610f, -0.09186590f, 0.05125675f, 0.71327484f, -0.05639891f, 0.59165299f, -0.06810899f, -0.08867481f, -1.44832993f, -1.35661268f, -0.48528787f, -0.71001208f, 0.63117325f, -0.01215508f, -1.61057997f, -1.09849346f, -0.07871762f, -0.24428189f, 0.36342999f, -0.24980700f, 1.35323715f, -0.00476326f, 0.10321569f, 0.00304656f },
  { -2.49572897f, -2.71202350f, 0.16488664f, 0.62485957f, -0.08724736f, 0.63890088f, 0.47380400f, 0.12297019f, 0.22841616f, -0.35066152f, -1.72759092f, 0.04226614f, 0.02826236f, -0.02043255f, 0.07395758f, -0.48254353f, 0.08257332f, -0.72786272f, 0.41305330f, -0.18254708f, 0.35935909f, -0.40669990f, -0.23542328f, 1.63982069f, -0.01570146f, 1.29646897f, -0.13555317f, -0.14217989f, 0.08009399f, 0.09625649f, -0.05746483f, 0.77552193f, 0.01303365f, 0.14090911f, -1.82449067f, 0.09359084f, 0.01046659f, 0.18128204f, -0.45485795f, 0.12228464f, -0.31187108f, -0.02371500f, -0.02589025f, -0.06601073f, 0.00946972f, -0.13602814f, 0.15407494f, -0.22988540f, 0.77263767f, 1.68579245f, -0.10243330f, -0.73731983f, 0.25485817f, 0.06598483f, -0.98672694f, -1.05289388f, 0.06229301f, -0.04425262f, -0.02043188f, -1.28168046f, -0.28829360f, -0.05358464f, 0.11957765f, -0.12040116f },
  { 0.46718746f, 0.77603924f, 0.05442463f, 0.31492347f, -0.04366818f, -1.11595511f, 1.01825011f, 0.04405627f, 0.48341215f, -1.04284537f, -1.09661674f, 0.88828695f, -0.14692178f, 0.04539550f, 0.29076540f, 0.61920953f, -0.06774361f, -0.47098479f, -1.80714881f, 0.78744572f, -0.55265856f, -0.05291736f, 2.25511765f, 1.56367016f, 0.07896353f, 0.11120779f, -0.01091813f, -0.03869892f, -2.16479897f, 0.13410097f, -0.00667168f, 0.23428650f, -0.12790188f, 0.03296196f, 0.31259078f, -0.09702017f, 0.33345744f, -0.13771147f, -0.07164439f, -0.04188000f, 0.55269140f, -0.00783187f, -0.07627009f, -0.24049032f, -0.02334668f, -0.05438161f, -0.80776030f, -0.11362010f, 0.29062200f, 0.66239065f, -1.92745745f, -0.52208275f, -1.47657633f, 0.02602668f, -1.45551729f, 0.72585654f, 0.06303696f, 0.03859456f, 0.31918025f, 0.51109958f, 0.38515863f, 0.12554072f, -0.06933722f, -0.10140780f },
  { -0.97929585f, -0.04884905f, -0.87511724f, -0.30468988f, -0.05221798f, -0.61567587f, 0.34895903f, 0.04444194f, -0.38271081f, 0.47237843f, 0.02974537f, 0.24238837f, 0.12971042f, 0.04666320f, 0.17617336f, -0.31604639f, -0.06937174f, -0.19255491f, -0.00478442f, -0.78432912f, -0.16304444f, -0.02793345f, 0.39242893f, -0.19257076f, 0.05383408f, -0.54676181f, -0.08423079f, -0.67998326f, -1.97423398f, 0.21297267f, 0.13671541f, -0.70064318f, 0.27255633f, -0.11106257f, 0.44159091f, 0.11673987f, -0.27145094f, -0.81306714f, 0.54966491f, 0.41726369f, -0.05726324f, 0.05820608f, 0.04392703f, -0.21823306f, -0.07666021f, 0.05354278f, -0.54731256f, -0.08299876f, -1.55330455f, -0.84936464f, -0.18704492f, 0.58822119f, -0.05443062f, -0.08337031f, -0.71036899f, 0.76707447f, -0.11056650f, -0.15321951f, 0.26164946f, 0.04047897f, 0.16370644f, -0.15049578f, -0.01197232f, -0.01802224f },
  { -0.69329047f, 0.32257411f, -0.96889508f, -0.06584605f, 0.03565883f, 0.03069239f, -0.17630965f, 0.08531205f, 1.38379300f, 0.60942090f, -0.22225299f, -0.54492211f, 0.10585362f, 0.05774733f, 0.10194556f, -1.80209827f, 0.00374819f, 0.44021222f, 0.85316181f, -1.07034683f, 0.35484970f, -0.00321072f, -0.23615105f, -0.03659153f, 0.02862926f, -0.56362933f, -0.01212986f, -0.45638621f, -0.27643189f, 0.22018881f, 0.06868394f, -0.38386971f, 0.26770076f, -0.10652748f, 0.14665049f, -0.07227133f, -0.94704026f, -3.43281627f, -0.80141205f, 0.18268466f, 0.27347797f, 0.02554763f, 0.10725485f, 0.33700144f, 0.04015919f, 0.75666201f, 0.64020413f, -0.09666733f, -1.52284467f, -2.39701200f, 0.17240393f, -0.44959712f, -0.82780564f, 0.08014838f, 0.33789209f, 0.09709743f, -0.07667424f, 0.10875467f, 0.23487763f, 0.46651492f, -1.09385204f, -0.21936606f, -0.08640137f, 0.02425443f },
  { 0.11855568f, -0.23856279f, -0.03548748f, -0.49238613f, -0.01498572f, -0.05379218f, 0.10679036f, 0.09131484f, -0.42461756f, 0.31042111f, -0.15381290f, -0.23534656f, 0.03501198f, 0.08540066f, -0.13608912f, -0.13315260f, -0.08878236f, 0.29040027f, -0.51095098f, 0.39245129f, -0.40749499f, 0.03104233f, 0.99027413f, -0.74810606f, 0.08742543f, -0.56851572f, 0.10300080f, -0.49243039f, -0.94396269f, 0.20902848f, 0.05829381f, 0.10324309f, 0.03508921f, -0.01270297f, -0.61049205f, -0.08302877f, 0.04286543f, -0.18285297f, 0.09111738f, 0.20678285f, 0.48316318f, -0.03576571f, -0.09997855f, -1.33988249f, -0.09599150f, 0.24412771f, -0.34581044f, 0.21546665f, -0.13392502f, -0.16790505f, -0.40292230f, -1.50030172f, 0.29832971f, 0.13205750f, 0.31022263f, -0.84703648f, 0.03790540f, -0.39268211f, 0.27786088f, 0.43859318f, -0.08568123f, -0.02125072f, -0.05559261f, -0.02523217f },
  { -0.23519878f, 0.92767233f, -0.76139975f, -1.54740572f, -0.06596886f, -0.22278538f, -0.93379074f, 0.01578517f, -0.47156841f, -0.90540987f, -0.00108697f, -0.76665670f, 0.16565363f, 0.08448149f, 0.05272866f, 0.04058327f, -0.06814992f, -0.43383145f, 0.98128611f, -0.47685137f, -0.34522840f, 0.76320571f, -0.10365510f, -0.49943763f, -0.03157979f, -0.23977590f, -0.00495670f, 0.72558022f, -0.27527767f, 0.09061508f, 0.03134782f, -0.79734850f, -0.00618311f, -0.06311923f, -1.46763027f, 0.00560816f, 0.30387154f, -0.62765372f, -0.47892606f, 0.18873966f, -0.99886543f, 0.07499358f, 0.08776753f, -2.70929027f, -0.26142904f, 0.35178640f, -0.46796966f, 0.20162329f, -0.44055009f, -0.58206844f, -2.21538973f, -1.67273343f, 0.17776063f, -0.06885368f, -0.86425322f, -1.97871816f, -0.10926922f, 0.12366936f, 0.14741634f, 0.36146858f, 1.10487533f, -0.17856407f, 0.07076119f, 0.12461726f },
  { -0.15592930f, -0.04434035f, -0.17703000f, -0.11893392f, 0.04206580f, 0.10912328f, 0.02331923f, -0.11773553f, -0.03030333f, -0.04591442f, -0.03743649f, -0.04010585f, -0.07858788f, 0.10744546f, -0.16485485f, -0.08593131f, 0.09108931f, -0.14251707f, 0.03951700f, -0.13433009f, -0.10329178f, -0.12388624f, 0.08928194f, 0.04856456f, 0.00600639f, -0.03616036f, -0.04717425f, -0.14159447f, -0.10899749f, 0.03008009f, -0.02248342f, 0.00400410f, 0.01799741f, 0.00137986f, -0.02289799f, 0.05042654f, -0.17471319f, -0.01255606f, 0.03983583f, 0.02262126f, 0.04037967f, 0.03000082f, -0.03452246f, -0.15346876f, -0.12748326f, -0.01232890f, 0.01129917f, -0.11959950f, 0.03276876f, -0.03875053f, 0.05352932f, -0.09305084f, 0.14817694f, 0.08841431f, 0.02648398f, 0.01505071f, 0.03898503f, 0.01951885f, -0.12031662f, -0.05237441f, -0.10921665f, 0.06065087f, -0.04843788f, 0.05727541f },
  { 0.02875815f, -0.00221551f, 0.00826067f, -0.04100413f, 0.05987830f, -0.06721791f, 0.08393990f, -0.00320803f, -0.00729150f, -0.13440178f, 0.09125695f, -0.04184224f, 0.06874710f, -0.08177565f, -0.12891713f, -0.07600471f, -0.09995002f, -0.03209517f, -0.02266007f, -0.07016186f, 0.02215946f, 0.02487188f, -0.11036880f, -0.12449423f, 0.07312790f, -0.10027177f, 0.02412054f, -0.05764549f, -0.03373271f, -0.09333210f, 0.00039944f, -0.06860488f, -0.08065708f, -0.06145515f, 0.00357216f, 0.08088417f, -0.02743443f, -0.00122081f, 0.07878117f, 0.07641166f, -0.04249950f, -0.10235615f, 0.02933355f, 0.01297003f, -0.09891194f, -0.16822304f, -0.04300416f, 0.09770736f, -0.11180620f, -0.08559585f, -0.09920665f, -0.11041421f, -0.10131016f, 0.09811582f, 0.03948933f, -0.11631174f, 0.00267968f, -0.12616055f, 0.02756330f, -0.10972361f, -0.11975262f, -0.05793884f, 0.01842524f, 0.08352882f },
  { -0.07124189f, -0.03959036f, 0.08742139f, -0.00757413f, 0.01290713f, -0.05215977f, -0.00159682f, 0.07504626f, 0.06763658f, -0.06694570f, 0.06085793f, 0.07192563f, -0.04122976f, 0.10882948f, -0.01748565f, 0.02151624f, -0.10613665f, 0.05310511f, 0.09005775f, -0.12404811f, -0.18158773f, -0.09906273f, -0.10627227f, -0.02482903f, 0.05564159f, -0.03474718f, 0.08771440f, -0.05799655f, -0.09445107f, -0.12857150f, 0.03972766f, -0.17218980f, -0.02371946f, 0.01248163f, -0.07000603f, 0.02740496f, -0.03159503f, 0.02694892f, 0.07240733f, -0.10115951f, -0.13959059f, -0.04587793f, -0.08992495f, -0.02070752f, -0.09215945f, -0.15803224f, -0.01976415f, 0.00813283f, -0.03634030f, -0.15000950f, -0.04077325f, 0.06405799f, 0.06228720f, 0.01186025f, 0.02987611f, -0.11176723f, 0.11958477f, -0.10260674f, -0.10544092f, 0.07090187f, -0.03789276f, 0.07714187f, -0.08755302f, 0.09457175f },
  { 0.58118546f, 0.12690802f, -1.21186268f, -0.36678362f, -0.00593531f, -0.64992082f, 0.64472628f, -0.06674482f, -0.40945667f, -0.66189897f, -2.42688537f, -0.83481526f, -0.09017916f, -0.11472481f, 0.29260147f, 1.45077777f, 0.04806861f, 0.06493013f, 0.31904531f, -0.07020855f, -1.55518675f, -0.41562265f, -0.91689104f, -1.05538988f, 0.09549694f, -0.31674990f, -0.04062544f, -0.97875434f, -1.92922878f, -0.29670942f, -0.12050593f, -1.60243452f, 0.14650159f, 0.10683105f, 0.67063153f, 0.06611973f, -0.87298447f, 0.70271993f, -0.23180825f, -0.08557932f, 0.89848709f, 0.02593826f, -0.09616491f, 0.87950003f, -0.11347707f, -0.69568592f, 0.42962611f, 0.08358171f, -0.39015529f, -1.34817278f, -0.48994353f, -0.39208359f, -1.58786654f, 0.05037121f, 0.58922637f, -0.48900542f, 0.09153019f, 0.70156842f, -0.83919615f, -0.57522970f, -0.04002542f, 0.05640376f, 0.03279811f, -0.00468747f },
  { 0.39463589f, 1.19885540f, 0.64089447f, -1.31834006f, 0.02871759f, -1.75870001f, -2.12590957f, -0.02056606f, 0.16095288f, 0.12170703f, 1.04505312f, -0.11098073f, 0.03633605f, 0.07779798f, 0.86405760f, 0.77174258f, -0.01616649f, 0.02496526f, -0.01940514f, 0.03763138f, -1.21763790f, 0.06555506f, 1.07665551f, 0.66196471f, 0.00724606f, 0.52878910f, 0.02307839f, -1.10366392f, 0.26875636f, 0.27408436f, -0.13457581f, -0.21925840f, -0.08032656f, 0.10959350f, -1.18877113f, 0.00321114f, -0.31929091f, 0.02377435f, 0.56809139f, 0.29783663f, 0.39847067f, -0.11104425f, 0.01625222f, -1.02566397f, 0.11281665f, -0.09115696f, -0.46882862f, -0.08131610f, 0.63136196f, -0.75447690f, -0.09476089f, -0.14289846f, 0.31719407f, 0.05686080f, -0.46648690f, -2.09254336f, -0.12066379f, -0.26158375f, -0.78466749f, 0.03256305f, -1.08628702f, -0.05913778f, -0.00583477f, -0.12229753f },
  { -0.59057504f, -0.19518892f, -0.18155375f, -0.24199210f, -0.02223469f, -0.53618681f, 0.70992613f, 0.03938468f, -0.15155499f, 0.00687530f, -0.04158737f, -0.24432848f, 0.06373666f, -0.13645431f, 0.08378826f, -0.19823052f, -0.05148372f, -0.50399482f, -1.40203106f, 0.08385988f, 0.49148765f, -0.29613769f, -0.04901055f, -0.34645653f, -0.02517498f, 0.21044667f, 0.00365501f, -0.10029835f, -0.98287207f, 0.15830849f, 0.08203780f, -0.24216318f, 0.02986934f, -0.09011900f, 0.04382359f, -0.06619189f, -0.49670303f, -0.32761365f, 0.24660774f, 0.28440851f, -0.17099358f, 0.02560758f, 0.03204083f, -0.16753802f, -0.00579521f, 0.07530876f, -0.59305215f, -0.55292034f, -0.87725699f, -0.04829559f, -0.73070669f, 0.83210099f, -0.98240542f, -0.03285187f, -0.49129573f, 0.83748764f, 0.03549057f, -0.35681808f, 0.21634318f, -0.65560967f, -0.24608621f, 0.37448227f, 0.03500754f, 0.06021647f },
  { -0.08905508f, -0.04014102f, -0.01979059f, -0.03767451f, -0.04665627f, -0.16751160f, -0.25207257f, 0.07597211f, 0.01999969f, 0.08586017f, 0.04881338f, -0.00817778f, 0.09624486f, 0.04093611f, -0.16990198f, -0.08463676f, -0.07059009f, -0.00523540f, 0.01848016f, -0.06501742f, -0.00140266f, -0.11387552f, -0.15229154f, 0.07600753f, 0.09833579f, -0.01149186f, 0.03831334f, -0.08559979f, 0.01503488f, -0.04232637f, -0.06502680f, 0.04858411f, 0.10274056f, 0.01508283f, -0.05679092f, 0.00257009f, -0.20027202f, -0.10551791f, 0.07467009f, 0.01441778f, 0.00223615f, -0.11774613f, -0.02351110f, -0.03061682f, -0.11141337f, -0.05954905f, 0.09961955f, 0.01492989f, 0.01128666f, -0.16904667f, 0.03082899f, -0.09572492f, -0.05405754f, 0.10103765f, -0.26351601f, -0.03765392f, -0.11300288f, 0.01967136f, -0.04995131f, -0.01086525f, -0.02438052f, 0.04712941f, -0.06488180f, 0.02389470f },
  { 0.07864062f, -0.14734405f, -0.08780420f, -0.04735440f, 0.02962304f, -0.07046681f, -0.06079573f, -0.03248295f, 0.03224401f, -0.10973357f, 0.01284883f, 0.09570932f, 0.11652258f, 0.07207216f, -0.18940464f, -0.01360139f, -0.07222779f, 0.04128684f, -0.10157968f, 0.08988661f, -0.00120860f, -0.01234656f, 0.08082253f, 0.04356470f, 0.04292418f, -0.08375722f, -0.00782582f, -0.15092255f, -0.01882447f, 0.15304044f, 0.03193691f, 0.00329240f, 0.09461125f, -0.09981442f, -0.02302648f, 0.00492090f, 0.09167647f, -0.06678037f, -0.26082528f, 0.26041782f, -0.14721408f, 0.03991469f, 0.05479695f, -0.05880686f, 0.06300558f, 0.07872778f, -0.09509934f, 0.01410440f, 0.05545337f, -0.23183946f, 0.00317344f, -0.47026947f, 0.07289829f, -0.09265856f, -0.01854567f, -0.17693494f, -0.07605980f, -0.00125649f, -0.08970063f, 0.03574218f, -0.10189421f, 0.08526917f, -0.07355373f, 0.00067401f },
  { 0.45885515f, -0.32684374f, 0.37891263f, 0.84620291f, -0.02175118f, 0.47212929f, 0.78662956f, 0.05735506f, -0.61480385f, -0.58154190f, 1.29887021f, -0.41373998f, 0.08056715f, -0.05873744f, -0.59271437f, 0.15741509f, -0.03808449f, -0.28356528f, 0.34571937f, 0.31476623f, 0.40524232f, -0.31544617f, -0.18519229f, -0.91637588f, 0.11047874f, -1.53100908f, -0.08886809f, -1.15577734f, 0.23236179f, -0.14174412f, -0.01316697f, 0.60983729f, 0.01688188f, -0.02171781f, -1.33880401f, -0.10570221f, 0.42699367f, -0.69787627f, -0.77722806f, 0.08074142f, -0.69022441f, -0.00370621f, 0.00876424f, -1.15522933f, 0.11067496f, 0.18981877f, 1.26699674f, -0.08939718f, 0.73050183f, 0.05064320f, -0.08939793f, -0.39028633f, 0.40880314f, -0.00095223f, 0.59751225f, 0.26375318f, -0.09204254f, -0.37912625f, 0.06046547f, -0.45607600f, -1.66042030f, -0.27230009f, 0.03379859f, 0.08576751f },
  { 0.24809903f, -0.31513950f, 0.50419450f, -0.73483461f, 0.06660838f, 0.22398967f, 0.00930077f, -0.04942258f, 0.63700974f, -0.72817421f, -0.55937970f, 0.05254698f, -0.16226888f, -0.07130948f, -0.15836813f, 0.44789842f, -0.01039755f, -2.71561790f, 1.11445606f, -0.83219570f, -1.20362210f, -0.11182489f, 0.31174806f, 0.68142086f, -0.08394636f, 0.23618114f, 0.08773805f, -0.38121936f, -1.14866889f, -0.09326773f, 0.08798866f, -2.08799410f, 0.11626365f, 0.06219056f, -2.67054486f, 0.08169241f, 0.63691878f, 0.99251050f, -0.34298781f, 0.03019427f, -2.02428150f, 0.03030749f, -0.01115264f, -2.56873727f, -0.04734223f, -0.45810944f, -0.21558701f, -0.11375807f, 2.06639123f, 0.84859073f, -0.87673700f, -0.66879183f, 1.11333060f, 0.14385560f, -0.89673376f, -0.50664079f, 0.09688736f, -0.59111786f, -0.01973539f, -0.73531836f, 0.04002072f, -0.30515268f, 0.05400276f, 0.01155075f },
  { -0.57729822f, -0.71438962f, -0.27722543f, -0.31624222f, -0.01004474f, 1.05229306f, -0.76356161f, -0.08263248f, -0.00391978f, 0.38310328f, -0.02086928f, -0.05645468f, -0.05463147f, -0.03506824f, -0.51043248f, 0.26820496f, 0.05562608f, -0.12717427f, -0.21611120f, -1.09341192f, -0.12344313f, -0.86163718f, 0.21232788f, -0.10058901f, 0.10806069f, 0.23696995f, 0.12187988f, 0.03460995f, -0.52052474f, -0.00477056f, -0.00939350f, -0.21524611f, -0.25828338f, 0.09741362f, -0.11400848f, 0.09737643f, 0.57353377f, -0.66273427f, 1.88554931f, -0.37982181f, 0.72225696f, 0.07895091f, -0.12142420f, 0.38404933f, -0.10327373f, -1.21865690f, -0.52802581f, 1.74108565f, -0.33604908f, -0.22942057f, -0.36940187f, 0.51287997f, -0.33670625f, -0.06720789f, -0.02573895f, -0.21461903f, 0.04506473f, -0.22425643f, -0.16955158f, -0.23739831f, -0.21104150f, -0.10600436f, -0.00659306f, 0.11119640f },
  { -0.28983834f, 0.78006244f, -0.53041571f, -0.43910077f, -0.00377110f, -1.58676398f, -1.25915182f, -0.09839310f, 0.02840308f, -0.12758204f, 0.37313035f, 0.21823429f, 0.12887496f, 0.01917154f, -0.14161053f, 0.70685709f, -0.05610245f, -0.05592574f, -1.24734914f, 0.23171990f, -0.65113175f, 0.26490274f, -0.31371731f, 0.19814979f, -0.03879280f, 0.93942106f, -0.10674989f, -2.10699415f, -0.39097914f, 0.11102819f, 0.08326060f, -0.40342981f, 0.09879949f, 0.02515702f, -0.82664376f, 0.10130054f, -0.80295616f, -0.78795302f, -0.10011734f, 0.27022904f, 0.63553631f, 0.12787409f, 0.03771612f, 0.09481146f, -0.03506928f, 0.90049356f, -0.95437843f, -0.38174838f, -0.43782350f, 0.46353796f, -0.12017133f, 0.60442042f, -0.55373180f, 0.08907970f, -0.70502359f, -0.27578545f, 0.06741199f, 0.01958056f, -0.26654476f, -0.14005120f, 0.09487607f, 0.05959398f, -0.05436791f, 0.02593598f },
  { 0.28603482f, 0.91838837f, -0.02248229f, -0.52938855f, 0.02877397f, -1.62261927f, -1.59795821f, -0.08108833f, -0.20754822f, -0.09620582f, 0.69949734f, 1.51105201f, 0.04372165f, -0.01667691f, 0.08266602f, -0.80709594f, -0.07258157f, 0.81022549f, -0.13515729f, -0.73808980f, 0.26467356f, 0.45877770f, 0.72243971f, -0.48198178f, 0.08562997f, -0.00685264f, -0.06596643f, 0.19306293f, -0.58637142f, 0.23785134f, -0.03067362f, -0.11089060f, 0.11390278f, -0.11692388f, -3.22697210f, 0.01293087f, -1.01271164f, -0.60432559f, -0.15321836f, 0.26713338f, -0.04962705f, -0.10944924f, -0.04292913f, 0.07095907f, 0.12166265f, 0.38795492f, -1.13135207f, -0.34249169f, -1.50084960f, -0.04576948f, -0.66881740f, 0.86798823f, -0.54641211f, -0.00325583f, -0.80132884f, 0.06893960f, -0.02113594f, 0.10824229f, 0.02373862f, -0.23789777f, 0.38235608f, -0.02810886f, 0.05886720f, -0.08294690f },
  { 0.07696655f, -0.11731558f, -0.08570978f, -0.04022911f, -0.12143837f, -0.11881611f, -0.11096656f, 0.10049860f, 0.02741937f, -0.07154758f, -0.03690192f, -0.10895233f, -0.11805633f, -0.08717239f, -0.15269355f, 0.08223908f, -0.04374138f, -0.06542962f, -0.10764320f, 0.02070263f, -0.05051885f, -0.11684587f, 0.08014508f, 0.07359940f, -0.08909743f, 0.07082254f, -0.02029711f, -0.03294360f, 0.05320607f, -0.02278972f, 0.10620542f, 0.07690823f, -0.08114149f, -0.07607031f, -0.15542908f, 0.04002075f, -0.09402335f, -0.10477237f, -0.08012089f, -0.12358397f, -0.10178038f, 0.11149561f, 0.06982318f, 0.07898816f, -0.06063513f, -0.08302642f, -0.07562035f, 0.00244132f, -0.08972068f, -0.01343942f, -0.11184791f, 0.01975252f, 0.11449969f, 0.02111238f, 0.05942030f, -0.08902614f, -0.01764047f, -0.07718481f, -0.01386836f, -0.08148766f, -0.07097355f, -0.12074257f, -0.04634911f, 0.01673980f },
  { 0.86542547f, 1.22033703f, 1.97746348f, 1.08825445f, -0.07536265f, -0.36103955f, -0.24351381f, -0.11870603f, -0.33830822f, -0.83471131f, -1.78384721f, 0.16367805f, -0.04258893f, 0.02266382f, 0.63884372f, 0.29434809f, -0.04037568f, -1.41646039f, -0.90157968f, -0.32152355f, -0.65807080f, 0.57722044f, -1.22037637f, -1.29516399f, -0.04618354f, -2.07718062f, -0.02099066f, -1.84770703f, -1.65594649f, 0.10210583f, -0.00169467f, -1.32356906f, -0.11257512f, -0.03342452f, 0.66611886f, -0.07957911f, -0.65256780f, -3.24023843f, -0.50115615f, 0.54560894f, -2.58413291f, -0.07347849f, -0.10190046f, -0.68397117f, -0.00948622f, 0.63445598f, -0.27179915f, -0.66294855f, -1.67683208f, 0.20871814f, -2.13304734f, -2.39053559f, 0.04858199f, 0.07791106f, 0.07905487f, -0.59719694f, 0.07074170f, -0.46062014f, 0.13484821f, -0.28496161f, 0.36986306f, 0.74750161f, -0.01627509f, -0.02297862f },
  { -0.70181113f, -1.28455138f, -1.56806958f, -0.16160622f, -0.05076834f, -0.17021549f, 0.77210784f, -0.10958347f, -0.26220733f, 0.10522179f, 0.26947415f, -0.17762998f, -0.05834009f, -0.09276913f, 1.00810945f, -0.38657153f, -0.09393847f, 0.70564556f, 1.47853565f, 0.05003425f, 0.09244458f, -0.99876606f, -0.21036449f, -1.31780589f, 0.08654223f, -0.73255724f, 0.09111588f, -1.02842355f, 0.59754783f, -0.06570036f, 0.07575946f, 0.41457763f, -0.04390299f, -0.03969460f, -0.13388373f, -0.07587753f, 0.10068390f, 0.39296487f, 1.77698135f, -0.17558827f, -0.07700721f, -0.05948377f, -0.06435186f, -1.37576008f, -0.04312842f, -0.40921539f, 0.30565956f, -0.06116055f, 0.49269825f, 0.79059571f, -0.22119893f, 0.99628454f, 0.58652800f, 0.10911322f, 1.06739569f, 0.48336598f, -0.00951642f, -0.23701422f, -0.49602827f, -0.38585019f, -2.86969209f, 0.00804568f, -0.09171519f, -0.03418271f },
  { 0.94830012f, -1.85994279f, -0.26070344f, -0.99823445f, -0.04127634f, -0.18898858f, -0.63404602f, -0.00977302f, 0.05559761f, -0.83298582f, -0.34293276f, -0.23594961f, 0.10912974f, -0.07270877f, -0.14950509f, 0.05086995f, -0.03801900f, 0.51912892f, -0.66420460f, -0.65914470f, -0.30578768f, -0.26882321f, 0.25427824f, -1.21013033f, -0.04218225f, -0.91809911f, -0.12213135f, -0.69780016f, 0.22098224f, 0.10902524f, -0.08838920f, 0.53441602f, -0.00828784f, 0.08903167f, -0.80497652f, -0.04942934f, 0.15598433f, -0.06998113f, -0.25004148f, 0.29646924f, -0.47971761f, 0.11076710f, -0.00112763f, -0.24019258f, -0.04959989f, -0.00039584f, -0.17272456f, 0.17236263f, 0.29091626f, -0.03091437f, -1.04818058f, -0.95893258f, -0.48172474f, -0.00152092f, -0.62221819f, -0.37675413f, 0.01790878f, -0.02158665f, -0.03298687f, -0.07280773f, -0.52083194f, -0.00449984f, -0.05931143f, 0.09771204f },
  { -0.37807840f, 0.57664281f, -1.29743624f, -0.99247497f, 0.15234241f, -0.42747125f, -1.63245761f, 0.04835378f, 1.46329904f, -0.32500872f, -1.21477616f, 1.41461480f, 0.04769474f, -0.07580969f, -0.08254385f, 1.16684330f, -0.10455456f, -0.28703210f, -0.26419500f, 0.35270461f, -0.92004317f, 0.29318592f, 1.00517642f, -1.05418861f, 0.11929050f, -0.57672250f, 0.00474249f, -3.68266749f, 0.79830432f, -0.02059579f, 0.04056451f, -1.56489325f, 0.12038531f, 0.04489732f, -0.00058262f, 0.06847960f, -0.84025240f, 0.12203089f, -0.87033516f, 0.21175535f, -0.33480167f, 0.04945423f, -0.12259428f, -0.05346049f, -0.08384361f, 0.53758007f, -0.74064189f, -0.08538795f, 0.33602327f, -2.01588726f, -0.59291005f, -1.64994836f, 0.09159597f, 0.13199209f, -0.98949242f, 0.51681256f, 0.06579274f, 0.07355639f, 1.41814995f, 0.76144367f, 0.07567193f, 0.04308769f, -0.12188649f, -0.04771236f },
  { 0.03351140f, -0.11692819f, -0.00268409f, -0.11051813f, 0.11190534f, -0.20215580f, -0.12117738f, -0.08187455f, -0.05545919f, -0.16046160f, -0.18880630f, -0.05839603f, -0.07636786f, 0.07597504f, -0.08089850f, -0.00783790f, -0.02093619f, -0.03494294f, 0.06957407f, -0.18985781f, -0.11607669f, 0.00228431f, -0.09886014f, -0.12649439f, 0.01003173f, -0.11092012f, 0.00898974f, -0.16997322f, -0.05198411f, -0.04768362f, -0.04739470f, -0.17218566f, 0.01143050f, 0.10920102f, -0.17277232f, -0.10468416f, -0.23214476f, -0.10219708f, 0.07472423f, -0.14419936f, -0.03355376f, 0.02535050f, -0.06707907f, -0.05061705f, 0.07696550f, 0.02159087f, -0.00452162f, -0.14875780f, -0.18482915f, -0.09978067f, -0.10507283f, -0.03407855f, 0.01952631f, -0.11296368f, -0.05453113f, -0.09573408f, 0.01042394f, 0.08054070f, -0.01751261f, -0.08720396f, -0.09459551f, -0.14269640f, -0.11325128f, 0.05446485f },
  { 0.13378873f, 1.04152560f, -0.47276193f, -0.93554980f, 0.12290265f, 0.65259552f, -0.23542935f, 0.10563445f, -0.97140002f, 0.07671684f, -1.17213154f, -0.13578096f, 0.01740804f, 0.00899107f, 0.48695171f, -0.20076178f, 0.10930173f, -0.43016160f, -2.30252385f, 0.18289743f, -2.72712255f, 0.52354479f, 0.23511863f, -0.68596178f, -0.04725927f, -0.49839205f, -0.09943895f, 0.77517396f, -2.20383811f, -0.04573320f, 0.04310043f, 0.15569916f, -0.01377746f, -0.00773526f, -1.03741372f, -0.02184182f, -0.87296158f, -1.49196589f, -0.42250061f, 0.22286159f, -0.32241526f, -0.06227211f, 0.11953427f, -0.62398148f, 0.00374376f, 0.52931243f, -0.10738491f, 0.04120497f, -1.00885701f, 0.14380836f, -1.37768066f, -1.34319794f, 0.50885046f, 0.11069551f, -0.49288943f, -1.62699008f, -0.03113025f, -0.37004960f, -0.19307972f, 0.87927651f, 0.59022939f, 0.08797027f, 0.03427117f, 0.02939141f },
  { -0.30860883f, -0.52452856f, 0.02936367f, -1.50141966f, -0.12210372f, -1.22947681f, 0.21993305f, 0.10500932f, 0.07494817f, -0.11983553f, 0.57567972f, -0.13587005f, 0.00292350f, 0.10197550f, 0.02915450f, 0.26337790f, 0.06253505f, 0.20289168f, -0.49824983f, -1.04348755f, 0.67962480f, -0.75804007f, -0.02932962f, 0.22557941f, 0.06324652f, -0.33968285f, -0.02567230f, 0.97394884f, -0.00903745f, -0.01976636f, 0.07542972f, -0.04144938f, 0.04381134f, 0.09560251f, -0.29517192f, -0.04179910f, -0.54669207f, -0.45754206f, -0.06050304f, 0.00538810f, 0.68879980f, -0.00603004f, 0.10073069f, -0.42534453f, 0.00954205f, -0.83329791f, -0.97052723f, 0.06105665f, 0.26568925f, -0.36963707f, -3.11019659f, 0.00057686f, 0.84214622f, -0.10722394f, 0.08000855f, -0.05529502f, -0.01870322f, -0.13276941f, -0.11008973f, -0.12352975f, -0.35041219f, -0.03789604f, 0.06515110f, 0.09636913f },
  { 1.37180102f, -1.58009720f, 1.44272065f, 1.69524574f, -0.06428813f, 0.13221833f, 0.02461418f, -0.06130213f, -0.46132573f, 0.26986724f, -1.11085808f, -1.21705103f, -0.05144507f, 0.08880158f, 0.65709490f, 0.27563447f, 0.08009511f, -0.34235293f, 0.52174222f, 1.08130050f, -0.99333209f, 0.05559274f, -0.90605837f, 0.66209114f, -0.01325005f, 0.21335407f, -0.06014482f, -0.37535286f, -0.64644706f, -0.03818288f, -0.05097508f, 0.13718307f, 0.03701462f, 0.02485171f, -0.58233196f, 0.05081371f, -1.23220146f, 0.68300551f, 0.38427046f, 0.01687740f, -1.19566894f, -0.04924546f, -0.09180762f, 0.67597765f, 0.01967225f, -0.12968288f, -0.91021258f, 0.08923130f, 0.97421426f, 1.24579263f, -2.73954105f, -1.26203561f, 0.72190344f, 0.06142536f, -1.39059973f, -1.69389534f, -0.11991562f, 0.30700606f, -0.89265311f, 0.18988341f, 1.40146387f, 0.06591742f, -0.11616910f, 0.06015757f },
  { -0.96840543f, -0.01031255f, -0.49034375f, 0.07083695f, -0.12929510f, 0.32261860f, -0.12657735f, 0.00617354f, 0.26080355f, -1.34804487f, 0.37064302f, 0.87359768f, 0.06267859f, 0.01311531f, 0.07115356f, -1.67715991f, -0.04463126f, 0.63093412f, -0.94296658f, -0.20412610f, 0.00296893f, -0.50632685f, 1.35314107f, 0.41107383f, 0.08100677f, -0.14622447f, 0.06108902f, -2.78969407f, -2.35754323f, 0.19862118f, -0.10345767f, 0.34786198f, 0.08728607f, 0.08405852f, 0.23049900f, 0.07655079f, -0.41728869f, -1.98179543f, -0.59300804f, 0.34414080f, 0.43034726f, -0.06270789f, -0.10701801f, -0.59685588f, -0.09219459f, -0.31349358f, -1.63543177f, -0.12428207f, 0.34272465f, -0.55513829f, -0.15832414f, -0.86524504f, -0.47848344f, 0.15094028f, 0.29190803f, 0.21587688f, 0.10898115f, -0.23727573f, 0.45104101f, -0.55626172f, -0.29020858f, 0.02447008f, -0.09832680f, -0.09778266f },
  { -0.88990098f, -3.18133020f, -1.30766153f, -0.86770761f, -0.05843724f, -0.08761695f, -0.87163192f, 0.12297784f, 0.51553011f, 0.23780502f, -0.75269240f, -0.17262650f, 0.13770662f, -0.01594899f, 0.45486593f, -0.71614373f, 0.01547241f, -0.38903412f, -0.02323345f, 0.05167691f, 0.86931646f, -1.27236700f, 0.35054892f, 0.28243202f, 0.02159308f, -1.33532655f, -0.09358028f, 0.65728337f, 0.89612329f, 0.06226983f, -0.08320543f, 1.06136572f, 0.18801893f, -0.08789811f, -1.37178695f, -0.15941803f, -0.07877081f, 0.40471661f, -0.08063716f, 0.51281476f, -0.34820041f, -0.05389662f, 0.09962995f, -0.24269836f, -0.14823174f, -0.85510880f, -0.94427633f, -0.17897210f, 0.38489819f, 0.34104660f, -0.13874146f, -0.16048647f, -0.14961042f, -0.01532083f, 1.05064416f, -0.46814543f, 0.06990233f, -0.79054785f, 0.26577127f, -0.54854763f, -1.40837729f, -0.22358362f, -0.08504692f, 0.01776363f }
};

static const float L1_BIASES[L1_OUT] = 
{ 0.45099822f, -0.77404851f, -0.15808730f, -0.09571881f, 0.16423388f, -0.59656060f, -0.80394781f, -0.39686450f, -0.11875908f, 0.24306621f, -0.23832066f, -0.19016437f, 0.02512861f, -0.17430624f, -0.74085003f, -0.03239664f, -0.72445422f, -0.12458719f, 0.27297738f, 0.01709491f, -0.40280747f, -0.27249974f, -0.60835356f, -0.09196350f, -0.17337736f, -0.08448033f, 0.06685524f, -0.04712809f, 0.58540523f, -0.04895254f, -0.13418302f, -0.15499239f, -0.62581956f, -0.30702099f, -0.25256011f, 0.08849054f, -0.40261710f, -0.05938839f, -0.38840982f, 0.20715936f, -0.07587177f, -0.15917405f, -0.05966462f, -0.74920976f, 0.02361145f, -0.39196181f, -0.11690422f, -0.16742697f, 0.09793437f, -0.87280232f, -0.30236846f, 0.34204832f, -0.15255816f, -0.13295148f, 0.48101789f, -0.31759268f, -0.32926977f, 0.01949877f, 0.00525006f, -0.26413831f, 0.01440871f, -0.26033726f, -0.59441942f, -0.41742042f };

// Layer 2 (output) weights and biases
static const float L2_WEIGHTS[L2_OUT][L2_IN] = 
{
  { 3.79715657f, 0.12436781f, -0.07005803f, -1.72233808f, 0.07041878f, -0.32328722f, 18.11910820f, 1.16903579f, -0.01914449f, 1.44190466f, -0.06148611f, 0.04018769f, -1.70158362f, 0.02876709f, -3.51277685f, 0.26008555f, -3.18128085f, 1.33971643f, 12.01349640f, 0.01793511f, 1.39425004f, -0.11201271f, 2.83638263f, -1.04050767f, -0.12597209f, 0.02093642f, 0.10412826f, 0.00176485f, 16.77446175f, 0.01429757f, -0.35139808f, 0.10801740f, -0.11632703f, 0.32087934f, 0.04380111f, 0.39498553f, 0.16745335f, 2.10084915f, 1.40911472f, -0.83317292f, -0.10384175f, 0.03938806f, 0.05331074f, 0.20743932f, 6.14978027f, 0.36279005f, -0.12373738f, 0.22119667f, 0.08517047f, 0.13227020f, -0.77689379f, 0.70233995f, 9.92388630f, 0.05231765f, -0.31112620f, -0.97720939f, 0.29392642f, 1.61329341f, 0.03134060f, 4.76407146f, 1.40988219f, -0.20534405f, 0.05170004f, 5.88840342f },
  { 0.64555526f, -2.51876473f, 0.08997377f, 6.76649666f, 0.79779273f, 7.38033676f, 4.31894112f, -1.02312231f, 0.01245158f, 2.10415912f, -5.04412317f, -0.01803414f, 1.90793335f, -0.06145482f, 0.26556736f, -0.82629919f, 0.35382989f, 2.50591850f, -0.17838404f, -0.01493813f, 7.30789518f, -0.07196195f, -0.86532432f, -0.67771918f, -0.04999057f, -0.00337590f, 8.27328014f, -0.00215515f, -0.04887669f, -0.14297305f, -1.42614663f, 0.00624091f, 1.26771295f, 17.56311989f, 17.03367424f, 0.06746502f, -0.18034422f, -0.50456226f, -0.17092343f, 0.32284522f, -0.04551350f, 0.02681979f, -0.03347446f, 1.85108209f, 0.42937842f, -0.48913583f, -0.00619013f, 0.00117799f, 0.33602557f, 6.75474262f, -2.02239633f, -0.52476704f, 0.17130063f, 0.00990267f, 5.71563435f, -0.83471155f, -0.54579127f, 3.00021386f, -0.00802616f, 11.29359055f, -1.95482469f, 15.77975559f, -1.07178402f, 1.11221993f }
};

static const float L2_BIASES[L2_OUT] = 
{ 0.28837875f, 0.08999917f };
