// Auto-generated TD3 Actor weights for ESP32
// Generated from trained PyTorch model
#pragma once

// Network configuration
static const int ACTOR_INPUT_DIM = 27;
static const int ACTOR_OUTPUT_DIM = 2;
static const int ACTOR_NUM_LAYERS = 3;
static const float ACTOR_MAX_ACTION = 1.000000f;
static const bool ACTOR_ALLOW_REVERSE = false;

// Past states configuration
static const bool PAST_STATES_ENABLED = true;
static const int PAST_STATES_COUNT = 8;
static const int PAST_STATES_STRIDE = 3;
static const bool PAST_STATES_USE_SENSORS = true;
static const bool PAST_STATES_USE_WHEELS = false;

// Layer dimensions
static const int L0_IN = 27;
static const int L0_OUT = 128;
static const char L0_ACTIVATION[] = "relu";
static const int L1_IN = 128;
static const int L1_OUT = 128;
static const char L1_ACTIVATION[] = "relu";
static const int L2_IN = 128;
static const int L2_OUT = 2;
static const char L2_ACTIVATION[] = "tanh";

// Layer 0 (hidden_0) weights and biases
static const float L0_WEIGHTS[L0_OUT][L0_IN] = 
{
  { 0.03414471f, 0.47973776f, 0.14099945f, 0.06268419f, 0.21840124f, 0.16555929f, 0.05644234f, 0.01189340f, 0.20868436f, -0.02292702f, -0.18014692f, 0.39453229f, -0.06789726f, -0.43297812f, 0.29374871f, -0.10501286f, -0.47931433f, 0.06690495f, 0.07099474f, -0.48834828f, 0.14131454f, -0.28796262f, -0.45091358f, 0.08965153f, -0.08506204f, -0.29234216f, -0.16130379f },
  { -0.03527231f, -0.86932826f, 0.29823458f, 0.00712426f, -0.26962692f, 0.21779902f, -0.23340121f, -0.09648830f, 0.31832132f, 0.03357431f, -0.08069023f, 0.19164778f, -0.00468630f, 0.00767402f, 0.29411787f, -0.22831693f, 0.13504222f, 0.13552402f, 0.08375898f, 0.01675596f, 0.04530544f, -0.10629018f, -0.13101855f, 0.17817949f, -0.02994740f, 0.11677667f, 0.05021245f },
  { -0.19132429f, 0.43744805f, 0.23110075f, -0.33111000f, 0.23654146f, 0.05968765f, -0.18034975f, 0.07698303f, -0.08295984f, -0.04730451f, 0.05563752f, 0.23770162f, -0.09628307f, -0.25182766f, 0.08368760f, -0.13538909f, -0.14085515f, -0.15783985f, 0.04398299f, -0.52497488f, 0.14887053f, 0.24185352f, -0.13900623f, 0.09324190f, -0.02295133f, -0.32817528f, -0.18849653f },
  { -0.30443105f, 0.35791385f, -0.26026526f, -0.35490912f, 0.19820458f, -0.08824589f, -0.02612297f, -0.01398427f, -0.13399372f, 0.00512266f, 0.16253713f, 0.03365808f, -0.30325007f, 0.37978184f, -0.11446492f, -0.13977848f, 0.30939633f, -0.18754369f, -0.09347732f, 0.09884072f, -0.00035482f, 0.00901976f, 0.20674162f, -0.01086339f, 0.25159401f, 0.12316937f, 0.09598312f },
  { -0.28446025f, -0.06877962f, 0.73857409f, -0.21889323f, 0.09769575f, 0.18777686f, -0.04782142f, 0.09477165f, 0.22327429f, 0.20385313f, 0.16490035f, 0.18747006f, 0.04179212f, 0.01479758f, 0.06318750f, -0.06532994f, -0.04096707f, 0.10911225f, -0.12763613f, 0.06884642f, -0.13765304f, -0.07491955f, -0.11222167f, -0.01758723f, 0.17436892f, -0.04417662f, -0.04519538f },
  { 0.16760282f, -0.62148786f, -0.00450653f, 0.19683379f, -0.56686366f, -0.25394213f, -0.03873974f, -0.06296663f, 0.15035012f, 0.23668481f, -0.11802544f, 0.12574430f, 0.19045135f, 0.09332336f, 0.10093552f, 0.11996613f, 0.14438005f, 0.04824367f, -0.04667864f, -0.06000727f, -0.13407092f, -0.01387269f, -0.04895056f, 0.06456933f, 0.18395361f, 0.19613647f, -0.04423426f },
  { 0.01337181f, 0.91311753f, 0.09474424f, -0.08517754f, 0.38219154f, 0.01607138f, -0.18055879f, 0.25967538f, -0.24015233f, -0.24253152f, -0.01871455f, -0.02894662f, -0.06245661f, 0.11761197f, 0.03124581f, -0.24497059f, -0.07677958f, 0.14258696f, 0.03751280f, -0.04927905f, -0.08414566f, -0.03556733f, -0.22273767f, 0.05969580f, 0.16007450f, 0.10631168f, -0.18979172f },
  { 0.33876589f, 0.30319923f, -0.33087274f, 0.12866148f, -0.21425389f, 0.29840365f, 0.23112758f, -0.44167918f, -0.02007239f, 0.13309966f, -0.02843565f, -0.01653618f, -0.02454460f, -0.29703933f, -0.21008386f, 0.09791994f, 0.00816716f, -0.09959610f, 0.19751470f, -0.26289067f, 0.16117647f, 0.06042177f, 0.01735857f, 0.14355674f, 0.14034288f, -0.07595329f, 0.00778271f },
  { 0.31591731f, -0.06675266f, -0.73856884f, 0.05437852f, -0.00363294f, -0.28395352f, 0.06225597f, 0.12635630f, 0.10549263f, 0.10165382f, -0.05802552f, 0.11597097f, -0.06091188f, -0.14774109f, -0.03891145f, -0.00751522f, 0.17368256f, -0.14464585f, -0.11236564f, 0.12491383f, -0.03847584f, 0.05482141f, 0.06622387f, 0.03834971f, 0.02984820f, 0.20659506f, -0.09688965f },
  { 0.14058192f, -0.07396708f, 0.49428061f, -0.08464684f, 0.12566625f, 0.31906298f, -0.16114046f, -0.01800897f, -0.04414866f, -0.03095014f, 0.09902538f, 0.28049809f, 0.05371372f, -0.31362811f, -0.04705678f, -0.09424377f, -0.00587787f, -0.27863422f, -0.00291390f, -0.11389451f, 0.07565448f, 0.17620708f, 0.04093506f, -0.23650701f, 0.10311569f, -0.22350435f, -0.37744445f },
  { -0.25455320f, -0.20089486f, 0.30427909f, -0.23981898f, -0.16794161f, 0.21340920f, -0.01984990f, -0.23334874f, 0.29518265f, -0.14052200f, -0.01071577f, 0.29060876f, 0.00818189f, 0.11756924f, 0.20495905f, -0.10766730f, 0.06476460f, 0.25095946f, 0.07844100f, 0.04249094f, 0.24043970f, -0.08237460f, 0.13900572f, 0.28566483f, -0.24473514f, 0.02441934f, 0.09964338f },
  { -0.07184910f, 0.44659770f, 0.18706407f, -0.23455505f, 0.31933868f, 0.23436157f, 0.00254750f, 0.13063976f, 0.20278311f, -0.00510576f, 0.02609698f, 0.20580570f, -0.08863649f, 0.03386126f, 0.13533151f, -0.11743957f, -0.02190966f, 0.10134231f, 0.06849394f, -0.03096936f, -0.14603521f, -0.20549153f, -0.19882014f, -0.24818693f, -0.15244746f, 0.01615849f, 0.11441191f },
  { 0.30403629f, -0.37893564f, 0.07300580f, 0.05699290f, -0.16082010f, 0.43100932f, 0.19017895f, -0.18503559f, 0.08998039f, 0.25701272f, -0.07040939f, -0.07635079f, 0.05263600f, 0.01744465f, -0.04361619f, -0.24399503f, -0.05963550f, 0.17361879f, -0.21484512f, -0.12824264f, -0.01659825f, -0.04151073f, -0.08826192f, 0.06261572f, -0.16813758f, -0.05070482f, 0.12399863f },
  { 0.26492217f, -0.09528217f, 0.66260451f, 0.11541454f, 0.00073704f, 0.21616837f, 0.09355301f, -0.19613513f, -0.20454611f, 0.18229975f, -0.16361713f, -0.12143341f, 0.02799526f, -0.04715410f, -0.19901657f, 0.14887789f, -0.18468262f, -0.17280309f, 0.16154632f, -0.02148977f, -0.05937569f, 0.20507668f, -0.08050788f, -0.12114464f, -0.08368586f, -0.17495979f, 0.04820921f },
  { -0.16142514f, 0.82204896f, -0.01199899f, -0.10321493f, 0.55904412f, 0.22164950f, 0.02184631f, 0.13436656f, -0.09444444f, 0.06988139f, 0.16522737f, 0.03506163f, -0.21583834f, 0.18332237f, 0.03195386f, -0.16334733f, 0.01932782f, 0.01065129f, -0.01651943f, 0.14480549f, 0.00146448f, -0.04435695f, 0.03143109f, -0.00585711f, -0.09097259f, 0.17389968f, -0.10903071f },
  { -0.19286932f, 0.03119695f, -0.13347019f, -0.21066964f, -0.14415929f, 0.10038847f, -0.14062321f, 0.12596227f, -0.17476010f, 0.09458557f, -0.11498059f, -0.16881457f, -0.02223039f, 0.14185642f, -0.18530449f, -0.02855721f, -0.11733632f, 0.11985534f, 0.15315779f, -0.02387976f, -0.00062806f, -0.08476035f, 0.12916875f, -0.20026119f, 0.00422524f, 0.04912714f, -0.00749466f },
  { 0.04532658f, -0.65068227f, 0.51259112f, -0.06913795f, -0.52663159f, 0.06097028f, 0.03892079f, -0.18901026f, 0.00090820f, -0.06258744f, -0.20072581f, -0.05412114f, -0.05183465f, -0.15371288f, 0.08067133f, 0.17722429f, -0.16951419f, -0.04304824f, 0.03482335f, -0.10507162f, -0.06857193f, 0.15983383f, -0.22800170f, 0.02613446f, -0.11416765f, -0.18793315f, 0.02598932f },
  { 0.20749697f, 0.24694669f, 0.36484194f, 0.26706588f, 0.07791871f, -0.02451164f, -0.05827561f, 0.02063055f, -0.18753858f, -0.08600896f, 0.07169186f, -0.34511295f, -0.03292414f, -0.03995471f, -0.46926254f, -0.12601610f, 0.14450872f, -0.24326317f, -0.05931116f, 0.07107024f, -0.19242673f, 0.08626764f, 0.13579144f, -0.07039223f, -0.05987247f, -0.06167991f, 0.01585634f },
  { 0.21684062f, 0.08418688f, 0.30428723f, 0.23091376f, -0.13862127f, 0.18142115f, -0.00271471f, -0.10706549f, 0.20027822f, 0.04263285f, 0.10935050f, 0.14914948f, 0.02912214f, 0.20674360f, -0.04444123f, -0.21347460f, 0.00603900f, 0.00200569f, -0.12835647f, -0.10320035f, 0.01679861f, 0.13073069f, -0.17335077f, 0.02568764f, 0.09450759f, -0.07414313f, -0.02750285f },
  { -0.13798438f, -0.03935179f, -0.10501558f, -0.16677624f, -0.10397030f, -0.05717677f, -0.05416217f, 0.07009466f, 0.09282939f, -0.16355288f, 0.02868143f, -0.11070816f, -0.02000719f, -0.16596127f, 0.09320842f, 0.01595655f, -0.17961437f, -0.02260606f, -0.18181051f, 0.12552167f, -0.05538552f, -0.10507023f, -0.01624773f, -0.08985976f, -0.18446761f, 0.13507266f, -0.15286562f },
  { -0.09993710f, -0.36467156f, 0.01668737f, 0.16804568f, -0.23096424f, 0.19276713f, -0.16764280f, -0.00928992f, -0.16246377f, -0.13155776f, -0.16295691f, 0.01376375f, 0.15571646f, 0.02500174f, 0.00675081f, 0.15311156f, 0.19190130f, 0.10094742f, -0.15788679f, 0.21257165f, 0.23614240f, -0.24576984f, 0.17736566f, -0.10302670f, -0.10848056f, -0.01668406f, 0.40330237f },
  { 0.07581748f, 0.07664660f, -0.61530292f, 0.06849368f, 0.08058502f, -0.53245419f, 0.16386615f, 0.02729053f, -0.39214435f, 0.12839185f, -0.05125408f, -0.21086837f, -0.18126422f, 0.18497574f, -0.41832560f, 0.14606899f, 0.11145193f, -0.00041667f, -0.10253283f, -0.12591702f, 0.09021039f, 0.14127372f, 0.11058466f, 0.36049226f, -0.01066333f, 0.02870551f, 0.13833636f },
  { 0.06630297f, 0.20396671f, 0.44482273f, -0.09805126f, 0.21066682f, 0.06556360f, 0.01399829f, 0.27949888f, -0.30689612f, -0.09638388f, -0.00742748f, -0.30735156f, 0.09741712f, 0.15679118f, -0.38639808f, 0.08967834f, 0.15307076f, -0.07285739f, -0.14664237f, -0.18439180f, -0.02315496f, -0.15618396f, -0.02952706f, -0.04638819f, -0.12474190f, 0.06003012f, -0.07629323f },
  { 0.38012558f, -0.33274120f, 0.18197601f, 0.19655485f, -0.23879479f, 0.25065276f, -0.12499873f, -0.01855160f, 0.11939881f, -0.22902824f, 0.24355800f, 0.00640546f, -0.03769168f, 0.08233075f, -0.09177239f, 0.09321389f, 0.17620887f, -0.06688701f, 0.14893903f, 0.26875338f, 0.06307540f, 0.06607236f, 0.14847271f, -0.29761237f, 0.09146355f, -0.11158618f, -0.01595319f },
  { 0.19297762f, 0.34369823f, 0.34641117f, -0.01403409f, 0.23996085f, -0.09664269f, 0.19663399f, 0.01031238f, 0.03862425f, 0.21929166f, -0.15552542f, -0.15752280f, 0.22696324f, -0.16132635f, 0.03144424f, -0.16711864f, -0.08694766f, -0.18893065f, 0.12749459f, 0.18922171f, 0.10142796f, 0.01821358f, 0.01886758f, -0.22843061f, -0.11230540f, -0.02221431f, -0.09520023f },
  { 0.19561192f, -0.31320760f, 0.04284229f, -0.01158138f, -0.55586314f, -0.15418261f, 0.14305738f, -0.38958529f, 0.06206210f, 0.24031495f, -0.13384737f, -0.25970092f, 0.15585488f, -0.15074515f, -0.02990375f, 0.10874937f, -0.08654665f, -0.16494286f, 0.21980084f, 0.10099439f, 0.08387398f, 0.17013155f, -0.03952670f, 0.28929815f, -0.01459201f, -0.03066178f, -0.02434680f },
  { 0.05909938f, 0.81790775f, -0.04528098f, 0.00784581f, 0.41892588f, 0.23917094f, -0.19470610f, 0.20629010f, -0.19975971f, 0.11848275f, 0.05133886f, -0.27139068f, 0.00901730f, -0.09850522f, -0.15905204f, -0.23510365f, -0.16545361f, -0.17724870f, 0.04795103f, -0.10183276f, -0.02600315f, 0.04494376f, -0.32257131f, 0.00399160f, 0.02809883f, -0.18804540f, 0.33386549f },
  { 0.40919292f, -0.18925087f, 0.45214733f, 0.22720003f, -0.13407063f, 0.22963181f, -0.20660165f, -0.02053128f, 0.01938878f, -0.18138020f, -0.10409271f, -0.09182370f, 0.02800460f, 0.20089917f, -0.01091211f, 0.07278631f, 0.13347420f, 0.08342040f, 0.14160974f, -0.02836155f, -0.15872374f, 0.03643974f, 0.23193720f, 0.05591567f, -0.16628000f, 0.21360621f, -0.22042508f },
  { -0.79904896f, 0.22228260f, 0.20964243f, -0.38765317f, 0.22128637f, 0.04219858f, -0.37350076f, 0.02337487f, 0.19337606f, -0.15820648f, 0.16214319f, 0.00227096f, -0.20958334f, -0.04369546f, 0.15614057f, -0.14033125f, 0.06482915f, -0.05190014f, -0.06233155f, 0.20045564f, 0.01586671f, -0.06397325f, 0.03136745f, -0.01303260f, 0.07879677f, -0.17645694f, 0.04484319f },
  { -0.38668948f, 0.71771944f, 0.05485283f, -0.30964631f, 0.21624292f, 0.26447281f, -0.30143800f, 0.39773160f, 0.03761047f, 0.01548978f, 0.16859995f, -0.04205014f, -0.07447586f, 0.01466329f, -0.13724059f, -0.01702875f, 0.02480967f, 0.06066575f, -0.19948062f, 0.02809461f, 0.02832224f, 0.10631432f, 0.02734102f, -0.05806392f, 0.11464079f, -0.00581321f, 0.07555837f },
  { -0.02447999f, 0.28886360f, 0.18641126f, 0.13169788f, 0.03384716f, 0.26400951f, -0.09842385f, -0.01921766f, -0.02554968f, 0.20064782f, -0.01492455f, 0.13351141f, 0.10482004f, -0.05869976f, 0.05788875f, 0.03581594f, -0.48364085f, 0.03897878f, 0.19374086f, -0.22005166f, -0.10479030f, -0.07065617f, -0.50595868f, -0.04482941f, 0.14748800f, -0.38887921f, -0.00391732f },
  { 0.33330935f, -0.21244596f, 0.06394648f, 0.24941787f, 0.15407434f, 0.21482712f, -0.01421199f, -0.03457713f, 0.22030333f, 0.09128392f, 0.03027757f, 0.16104680f, 0.07068253f, -0.12080427f, 0.09368743f, 0.03898213f, 0.08959574f, 0.10379022f, -0.07161938f, -0.09308738f, -0.06099286f, 0.02439980f, -0.05024944f, 0.13116406f, -0.12928200f, -0.12439248f, 0.07625874f },
  { 0.03528949f, -0.81102735f, 0.33859640f, -0.16501878f, -0.27180234f, -0.07526842f, 0.09306268f, -0.17114048f, 0.25771689f, -0.19962576f, -0.29833347f, 0.18793944f, 0.13355632f, 0.01695129f, 0.19283125f, -0.18675350f, -0.06828076f, -0.00514477f, -0.18695554f, -0.15691520f, 0.25363225f, -0.21260610f, -0.03587792f, 0.04445633f, -0.13646445f, 0.10092030f, 0.05726635f },
  { -0.44571891f, -0.10040009f, 0.38589472f, -0.49566299f, -0.04105410f, 0.35498050f, -0.07878288f, 0.17031254f, 0.32296762f, -0.23202592f, -0.05336031f, 0.24505641f, -0.20203578f, -0.11223180f, 0.28444865f, -0.17922762f, 0.13657488f, 0.28718159f, 0.05090066f, 0.06734817f, 0.10102738f, 0.14922489f, 0.03872563f, -0.03983846f, 0.11304504f, 0.11601344f, 0.05428006f },
  { -0.07956573f, 0.10536787f, -0.84626693f, 0.01635629f, -0.00691478f, -0.14112118f, -0.21506786f, 0.27418017f, 0.17387582f, -0.23212585f, 0.20652722f, 0.03983248f, -0.11803976f, 0.00756618f, 0.17837104f, -0.02526247f, 0.13147815f, 0.18146001f, 0.12248469f, -0.09626149f, 0.29078057f, -0.00378274f, -0.08135390f, 0.01574192f, 0.01429222f, -0.02316413f, 0.19838271f },
  { 0.11484063f, 0.00279364f, 0.07365710f, 0.02091900f, -0.07858977f, -0.18215120f, -0.02449766f, -0.04048693f, 0.14628635f, -0.11392729f, -0.09980611f, 0.04244384f, -0.03146473f, 0.13403811f, -0.10161652f, -0.10966144f, -0.03252093f, 0.13706039f, 0.01094340f, -0.09014080f, -0.16593839f, 0.16359265f, -0.05760680f, -0.14935304f, 0.00597993f, -0.02097978f, 0.03632407f },
  { 0.12651494f, 0.24823388f, -0.36836398f, 0.23550108f, -0.23321146f, 0.14542606f, 0.19192460f, -0.26173341f, 0.19076967f, 0.10343764f, -0.15123828f, 0.14963423f, -0.11345168f, 0.00572878f, -0.12145542f, -0.06689992f, -0.12038749f, -0.11344974f, -0.05125524f, 0.07712225f, -0.05247224f, 0.05435367f, 0.24571022f, -0.07249673f, 0.15941238f, -0.12404173f, -0.29367283f },
  { 0.01959640f, 0.03146956f, 0.70934439f, 0.04311373f, 0.07141028f, 0.24391574f, -0.00733745f, 0.29574409f, 0.03270027f, 0.23323172f, -0.15097755f, 0.00540468f, 0.20127550f, 0.13849866f, -0.19778882f, -0.00158975f, -0.00429140f, -0.22413030f, -0.14362454f, -0.14511298f, 0.12151903f, -0.00023851f, -0.07479014f, -0.02417928f, -0.19190402f, -0.01741878f, 0.02598567f },
  { -0.66759837f, 0.12234384f, 0.14349815f, -0.32966375f, 0.30642444f, 0.15293588f, -0.00556522f, 0.14811157f, 0.16226055f, 0.09034032f, -0.05705775f, -0.12053439f, 0.04449894f, -0.20095332f, -0.00460707f, 0.07075863f, 0.23617540f, -0.03815212f, 0.14899921f, -0.27893329f, 0.13865630f, -0.14812124f, 0.08626732f, 0.12261043f, -0.21977502f, -0.05045664f, 0.20962302f },
  { 0.36610723f, 0.07337066f, 0.43987048f, 0.16377434f, -0.17926057f, 0.03132694f, 0.05397527f, -0.11713633f, -0.08934574f, -0.06803646f, -0.17772609f, -0.20945401f, -0.15952258f, -0.21441576f, -0.19133440f, -0.08425468f, 0.04935589f, -0.26768774f, -0.22621299f, -0.14092834f, -0.16091661f, 0.00639245f, -0.03403392f, 0.08910526f, -0.28710592f, -0.08354547f, -0.15726914f },
  { -0.31696108f, 0.07100738f, 0.42516908f, 0.01419732f, -0.08026360f, 0.27389854f, -0.13386576f, -0.08417752f, 0.09409525f, 0.23273814f, -0.13539164f, 0.17948698f, 0.00081181f, -0.05914226f, 0.10755783f, 0.02847966f, -0.26440901f, 0.07119204f, 0.16661149f, -0.30293170f, 0.01527724f, 0.05253251f, -0.22948472f, -0.13134067f, 0.12446546f, -0.38007954f, 0.04271683f },
  { -0.01110806f, 0.44069749f, 0.38417742f, -0.03491208f, -0.07292168f, 0.18347789f, -0.04651535f, 0.13726072f, 0.17745371f, -0.08165088f, -0.03458588f, -0.11908923f, -0.09440291f, 0.17516875f, -0.03273878f, -0.06952958f, 0.13775557f, 0.13651079f, -0.07004780f, 0.03803901f, 0.12770000f, -0.24098313f, 0.06862334f, 0.15464149f, 0.08878402f, 0.03142990f, -0.08308809f },
  { -0.07199486f, -0.10464982f, -0.13102064f, 0.18119128f, -0.00181773f, 0.12554608f, -0.16257651f, 0.11160459f, -0.05128479f, -0.08475997f, -0.00734882f, -0.15120009f, 0.02203359f, 0.16474332f, 0.06429218f, -0.11089381f, -0.07515517f, 0.11295785f, -0.16578110f, -0.01975445f, -0.16013330f, -0.06451707f, -0.15592489f, -0.16767788f, -0.12439258f, 0.07201438f, -0.16387853f },
  { 0.30505103f, -0.29785627f, 0.36330250f, 0.08822560f, -0.08646558f, 0.50029671f, -0.14687006f, -0.31244725f, 0.08686520f, -0.04961517f, 0.04207574f, -0.05299501f, -0.07808128f, -0.02092949f, -0.17862123f, -0.01028253f, 0.01238453f, 0.10685474f, -0.16401316f, 0.05339358f, -0.13699163f, -0.23545565f, 0.15351397f, -0.08957549f, -0.12226558f, 0.26484805f, 0.20392671f },
  { -0.40759760f, 0.13641798f, 0.23611687f, -0.35161281f, -0.13036369f, 0.22503988f, -0.18252988f, -0.09260400f, 0.43717295f, -0.13750596f, -0.02512374f, 0.37931335f, 0.16504116f, -0.06799774f, 0.24286644f, 0.25174713f, -0.08914768f, 0.14531703f, 0.23223542f, 0.05029408f, 0.25428095f, 0.17181183f, -0.14246152f, 0.10127003f, 0.29133874f, -0.14034292f, -0.15499717f },
  { -0.11052875f, 0.08382878f, 0.35867715f, 0.20009409f, 0.10915728f, 0.18846516f, -0.11082692f, 0.35273954f, -0.01185981f, 0.16199863f, 0.17881963f, -0.19529516f, 0.14564614f, 0.02593501f, -0.26748526f, 0.12429553f, -0.00388629f, -0.23612449f, -0.03899975f, 0.10821199f, -0.05334451f, 0.12020849f, -0.02381420f, -0.09592801f, 0.10740920f, 0.27986094f, -0.24602966f },
  { -0.16621391f, -0.17106174f, 0.55812079f, -0.05206628f, -0.09224579f, 0.40415752f, -0.06301995f, 0.19743605f, 0.11179411f, 0.02318196f, 0.03978341f, 0.15777597f, -0.08105084f, 0.19762558f, -0.03232740f, 0.05577586f, 0.17814866f, 0.07625394f, -0.07433520f, 0.13618611f, -0.18825823f, -0.21533176f, 0.10124855f, -0.19246413f, 0.11665897f, 0.18529183f, -0.05149251f },
  { 0.36573535f, 0.06862826f, -0.05096320f, 0.17724940f, -0.01551370f, 0.02792115f, -0.21197729f, -0.09471913f, 0.24394670f, 0.05042725f, 0.13735054f, 0.09044625f, -0.03246533f, -0.17114095f, -0.25960231f, -0.02874099f, -0.10140005f, 0.13306622f, 0.09304462f, -0.08843476f, 0.10105410f, 0.23629069f, -0.07972232f, 0.11254197f, 0.16555977f, -0.02887153f, 0.04254938f },
  { -0.15797089f, -0.27007887f, 0.43638968f, -0.11445831f, -0.25144997f, 0.21055067f, -0.06866345f, 0.23205574f, -0.01546033f, -0.10727360f, -0.13867185f, 0.09058891f, -0.12763417f, 0.07362565f, 0.17936493f, -0.03536808f, 0.14321233f, 0.04410821f, -0.00393923f, -0.00099444f, 0.04717298f, 0.12430229f, -0.09704919f, 0.09042890f, 0.18214501f, -0.14336661f, -0.10213351f },
  { 0.03504618f, -0.12989071f, 0.00501862f, -0.15636350f, -0.08128447f, 0.11144738f, -0.15383187f, -0.16062820f, 0.00249353f, 0.04215512f, 0.14533217f, 0.12880220f, -0.12403861f, 0.00272718f, -0.14975898f, -0.05756590f, 0.10725226f, 0.06924687f, -0.10767479f, -0.18388823f, -0.04563867f, -0.18381737f, -0.15318725f, -0.09873470f, 0.12677558f, 0.16296352f, 0.11024638f },
  { 0.40662023f, -0.37476802f, -0.48802885f, 0.24131337f, -0.38301331f, -0.19877765f, 0.20528029f, -0.04795272f, -0.00861207f, -0.01865089f, 0.22818483f, 0.15869288f, -0.24408107f, 0.24200223f, 0.09687281f, -0.14217426f, 0.13519005f, -0.30410227f, -0.13527104f, -0.00774033f, 0.11811588f, -0.00740024f, 0.09130179f, -0.08341515f, 0.09687986f, 0.04212374f, 0.20269683f },
  { -0.44143426f, 0.15322395f, -0.30078804f, -0.26513606f, -0.06308785f, 0.08937691f, 0.12824674f, -0.23659115f, -0.07070670f, 0.12668543f, -0.04777408f, -0.08351863f, -0.00237013f, 0.06318640f, -0.05343276f, -0.00946367f, -0.21399763f, 0.18903439f, -0.04077065f, -0.06689568f, 0.06325778f, -0.00135203f, 0.14139564f, 0.23857461f, 0.07225616f, 0.19260332f, 0.16503109f },
  { 0.60873532f, -0.16504176f, 0.15796293f, 0.39181760f, 0.07057291f, -0.39018545f, 0.24870072f, 0.36106896f, -0.44612157f, 0.22658964f, 0.24610931f, -0.35658333f, 0.07077070f, 0.00851102f, -0.30161625f, 0.19456340f, -0.11352339f, -0.02670065f, 0.05939204f, 0.06170467f, -0.14083637f, 0.14342052f, -0.13516437f, 0.04272097f, 0.16665895f, -0.00571594f, -0.00861933f },
  { 0.05912157f, 0.16577362f, 0.47716022f, 0.14505041f, 0.31566721f, 0.14818171f, 0.12652522f, -0.01253273f, -0.15789361f, 0.20138334f, 0.14507005f, -0.34405309f, -0.07915390f, -0.03286431f, -0.50210786f, 0.15891194f, -0.07665358f, -0.43406397f, 0.12673429f, 0.08243509f, -0.30585220f, -0.22538146f, -0.09238188f, -0.37691122f, -0.06084557f, -0.22439894f, -0.41599736f },
  { -0.36117777f, 0.29691175f, -0.05921529f, -0.27030814f, -0.05524917f, 0.04290700f, -0.11668217f, -0.24363661f, 0.19209036f, 0.01016985f, 0.09880252f, 0.27204302f, -0.03193096f, -0.18991628f, 0.15995313f, 0.23782021f, -0.01706287f, 0.20982049f, 0.18976876f, -0.24543935f, 0.16567111f, -0.11782262f, -0.24865113f, 0.11932540f, 0.15199588f, -0.06054564f, 0.03707516f },
  { 0.39133090f, 0.28655386f, -0.23248842f, 0.34987861f, 0.38050792f, -0.29849681f, 0.03112654f, 0.09444148f, -0.01447062f, 0.24514049f, 0.06026592f, -0.49869481f, -0.14203808f, 0.12785092f, -0.39010394f, -0.13467567f, -0.29126394f, -0.22244218f, 0.17637487f, -0.29083216f, -0.24176688f, -0.07651533f, -0.23985475f, -0.19374622f, 0.07901806f, -0.07675422f, 0.10637306f },
  { -0.06887657f, -0.36923963f, -0.49332750f, -0.05794640f, 0.02758758f, -0.30391949f, -0.39135012f, 0.10152493f, 0.05237298f, -0.22278450f, 0.31688279f, -0.10784408f, -0.32943669f, 0.22614719f, -0.01996052f, -0.22420675f, 0.47449422f, 0.10144458f, -0.36436072f, 0.57001024f, 0.11500746f, -0.20501763f, 0.40010640f, -0.17178443f, -0.12338737f, 0.33547193f, 0.01485802f },
  { 0.49819005f, -0.34217685f, -0.35525274f, 0.31153494f, -0.15457457f, -0.20957358f, 0.26374033f, -0.10611850f, 0.07829251f, 0.01586280f, -0.15398470f, 0.10188252f, -0.19560149f, -0.04420846f, 0.29047289f, 0.07481113f, 0.10146108f, -0.14358175f, -0.03685364f, 0.08919852f, -0.01546733f, -0.07207656f, 0.12021512f, -0.05831775f, -0.20690922f, 0.05428926f, 0.05517575f },
  { 0.09048681f, -0.21349555f, -0.49234867f, -0.15875705f, 0.02395533f, -0.15239272f, -0.20640086f, -0.18134253f, -0.16587113f, -0.03817561f, 0.01132096f, -0.08468890f, -0.22364701f, 0.19091211f, -0.01698328f, -0.17635441f, 0.23750003f, 0.16935644f, -0.30579770f, 0.11795729f, 0.01578113f, -0.08024076f, 0.28408742f, -0.04146754f, 0.09487062f, 0.41868326f, -0.02989331f },
  { 0.17522582f, -0.01449270f, 0.29891652f, 0.30092070f, -0.05099240f, 0.21519506f, -0.12787139f, -0.09367703f, 0.20575123f, 0.07344926f, 0.22649059f, -0.07254532f, -0.08744646f, -0.05243335f, 0.09653816f, 0.19000873f, -0.07027357f, -0.10462026f, -0.03270466f, -0.03608824f, -0.05750354f, -0.08122785f, 0.07427784f, -0.04372575f, 0.03220206f, 0.16690476f, -0.13709469f },
  { -0.20157740f, 0.66520953f, -0.11606997f, -0.24877147f, 0.13351549f, 0.15316072f, -0.16824113f, -0.21602814f, 0.12745591f, 0.04297126f, -0.13035738f, 0.13116612f, 0.22649333f, 0.04350849f, 0.09375049f, 0.07935210f, 0.02960299f, 0.10569660f, 0.19532222f, 0.06410963f, -0.12498779f, -0.06897953f, 0.23079745f, 0.05230136f, -0.13669282f, 0.06985075f, 0.08740399f },
  { 0.02223248f, 0.16813254f, -0.09027417f, -0.13103111f, 0.10120945f, -0.12314546f, -0.19979252f, 0.04884835f, 0.10893652f, 0.11018943f, 0.00431295f, 0.08384605f, -0.11184860f, 0.01530456f, -0.04345161f, -0.17973571f, 0.04244342f, 0.09415150f, 0.09405691f, -0.25314119f, -0.07356965f, 0.03284638f, -0.18365908f, -0.05777534f, 0.21426521f, -0.35356435f, -0.04202225f },
  { -0.57663256f, 0.45501456f, -0.16988413f, -0.37102437f, 0.30042988f, 0.01969310f, 0.01343283f, 0.16257885f, 0.21191196f, -0.24039133f, 0.03908888f, 0.18380953f, -0.08846696f, 0.04123455f, 0.31301320f, 0.08852725f, -0.07252042f, 0.10067214f, 0.11461962f, -0.30648735f, 0.20519200f, 0.19841158f, -0.33647245f, 0.17508124f, 0.18552408f, -0.09860073f, 0.23931529f },
  { -0.10090720f, -0.18542975f, -0.15357411f, -0.14275970f, -0.06073685f, -0.02559564f, -0.00172760f, -0.13921544f, -0.02254687f, -0.13087387f, -0.01850994f, 0.01675713f, 0.12884428f, -0.18474503f, 0.10971124f, 0.15547757f, -0.02481681f, 0.15078162f, -0.15142550f, -0.14559925f, -0.05100986f, -0.10560264f, -0.05424371f, -0.17676157f, 0.18104841f, 0.12342177f, -0.07902805f },
  { 0.36825076f, 0.28576347f, 0.14186534f, 0.06956046f, 0.00772919f, -0.18879129f, 0.04321395f, 0.04756064f, -0.30997217f, 0.01889513f, 0.26462987f, -0.07402826f, -0.01444936f, 0.12932755f, -0.03224742f, -0.05445134f, -0.09023753f, -0.16711865f, 0.06691318f, -0.20339528f, -0.17342341f, -0.03379008f, -0.01438195f, -0.08570378f, -0.50830925f, -0.41768178f, -0.21806599f },
  { -0.20305113f, -0.31176889f, 0.57456350f, 0.10126354f, -0.06962313f, 0.24985190f, 0.01372396f, 0.23010151f, 0.06188542f, 0.06116826f, -0.04239540f, 0.23735458f, -0.15133096f, 0.04830253f, 0.11732720f, 0.13364424f, 0.13168584f, -0.06341926f, -0.10759383f, -0.04037113f, 0.05419848f, -0.22299689f, 0.03856484f, 0.04884487f, 0.04764124f, -0.12321158f, -0.25648326f },
  { 0.01479014f, 0.04784346f, 0.41068345f, 0.03702510f, -0.00579043f, -0.04024914f, 0.11638191f, 0.02845839f, -0.07196984f, 0.14043210f, -0.05060214f, 0.04672706f, 0.21946558f, -0.48377210f, -0.04853982f, -0.09132002f, -0.07058074f, -0.09562233f, -0.12695293f, -0.17619301f, -0.04847644f, 0.18492547f, -0.23162597f, -0.18847865f, -0.00796004f, -0.15696143f, -0.32123044f },
  { -0.12492699f, 0.77287853f, -0.03490099f, 0.10895826f, 0.47624707f, -0.18569615f, -0.14707303f, 0.12523188f, 0.05250308f, -0.13275975f, -0.07322158f, 0.18409759f, -0.04451434f, 0.04182727f, 0.07641558f, -0.21433601f, 0.00794706f, -0.03381035f, -0.07941204f, -0.18866067f, -0.03627119f, 0.05283375f, 0.14357105f, 0.06708596f, -0.03380037f, 0.12600943f, 0.00900736f },
  { 0.14145485f, 0.56658423f, 0.33554500f, -0.06710301f, 0.16562118f, 0.08359262f, -0.13488759f, 0.06945144f, 0.02839036f, 0.05906251f, 0.05187288f, 0.04789397f, -0.22303711f, -0.15328451f, -0.30438429f, -0.29046893f, -0.01945037f, -0.28583494f, -0.16325387f, 0.00339763f, -0.14650090f, 0.00709040f, 0.00544706f, 0.07176944f, -0.19240813f, -0.02192478f, -0.04989291f },
  { -0.06332382f, -0.14223431f, 0.11001186f, 0.19530827f, 0.31624922f, -0.15815413f, 0.24939017f, 0.27703086f, -0.17392690f, -0.04600640f, 0.19377565f, -0.48207754f, 0.18284437f, 0.16199853f, -0.15537703f, 0.04425443f, -0.08075832f, -0.01952826f, -0.06724722f, -0.01017083f, -0.12067166f, -0.08576201f, -0.07102204f, 0.00062448f, 0.02161432f, -0.04954908f, 0.08526870f },
  { 0.19752063f, 0.09954175f, 0.18171026f, 0.24666132f, -0.11088383f, 0.20580232f, 0.00934350f, -0.11582343f, 0.09480622f, -0.00683688f, -0.45373571f, -0.22002980f, 0.15385333f, -0.32914424f, -0.23325986f, 0.11502519f, -0.24473964f, -0.28758147f, 0.06334150f, -0.05547181f, -0.13231188f, 0.07612211f, -0.02005110f, -0.21850072f, 0.18101971f, -0.30249166f, -0.21850373f },
  { 0.10345257f, 0.26477060f, -0.50164264f, -0.04112126f, 0.41155282f, -0.38782844f, 0.09303325f, -0.09768142f, 0.12570399f, -0.21732701f, -0.15706049f, 0.23773089f, -0.04941920f, -0.06187613f, 0.24475867f, -0.22208866f, 0.06241980f, 0.24221386f, -0.18151438f, 0.02298645f, 0.19343145f, 0.01437629f, -0.09597295f, 0.10718630f, -0.18950780f, -0.09465832f, 0.13338295f },
  { -0.02568087f, -0.16206512f, -0.10780741f, 0.10668404f, 0.10753872f, -0.01727913f, 0.09257941f, 0.12253709f, -0.06465513f, -0.06706181f, -0.18082069f, 0.18641089f, -0.16348650f, -0.08690935f, -0.00845893f, 0.04271995f, -0.02678971f, -0.01119943f, 0.08466928f, -0.08929297f, 0.02064283f, -0.13313787f, 0.00834507f, -0.11437699f, -0.02363048f, 0.14043249f, -0.14410260f },
  { 0.24880844f, -0.31601372f, 0.23238096f, 0.35252663f, -0.29405743f, -0.11573155f, 0.19259015f, -0.08592543f, 0.03311770f, -0.10827515f, -0.28437215f, 0.01010396f, 0.05717684f, -0.11377173f, 0.09123616f, -0.06558743f, -0.02855097f, 0.10196918f, 0.05600806f, 0.05325116f, 0.17475827f, -0.04651982f, 0.06572902f, 0.14366224f, 0.13917200f, 0.03650255f, -0.01647171f },
  { -0.26650086f, 0.27632192f, 0.36568546f, -0.01961273f, -0.05226881f, 0.50657642f, -0.01683296f, -0.30643028f, 0.09885327f, 0.02619631f, 0.17415881f, 0.18483083f, -0.21818241f, -0.02244154f, -0.10056541f, -0.02333282f, -0.06748176f, 0.05495634f, 0.01575223f, 0.29536033f, 0.13109706f, 0.11551829f, 0.22889738f, -0.08744031f, -0.00005962f, 0.23900567f, 0.02653525f },
  { 0.17225403f, 0.21912500f, -0.15507534f, -0.11651182f, 0.19227672f, -0.14802729f, 0.14491691f, 0.02454944f, -0.18025699f, -0.04910148f, 0.04850616f, -0.26383084f, -0.15899096f, -0.25003123f, -0.00257181f, 0.05964193f, -0.20811917f, 0.12871006f, -0.06763779f, -0.12340201f, 0.21154337f, 0.05109125f, -0.23679605f, 0.27891904f, -0.24242778f, -0.27514333f, 0.17771356f },
  { 0.16727218f, 0.09647392f, -0.44402739f, 0.23537925f, 0.29030648f, -0.63336158f, 0.24069007f, 0.25746825f, -0.04012641f, -0.07093240f, 0.05909200f, -0.17936622f, 0.10093971f, 0.06199111f, -0.26699916f, 0.02956880f, 0.15772931f, -0.37385246f, 0.20192787f, 0.03569933f, -0.42818269f, -0.09415967f, -0.09117515f, -0.00440726f, -0.04521714f, 0.01871655f, -0.03434611f },
  { 0.24340191f, 0.40443221f, 0.13139318f, 0.11709998f, 0.12301406f, 0.17247465f, 0.15706274f, 0.12129588f, 0.19432129f, -0.05974477f, -0.16582118f, 0.10481896f, 0.06063955f, -0.23118438f, -0.20716178f, 0.15025586f, -0.07071844f, -0.23013054f, -0.11203578f, -0.08873829f, -0.11333817f, -0.10301461f, 0.03963184f, 0.15447210f, -0.13680446f, 0.06973783f, -0.04893839f },
  { 0.60688013f, -0.62397534f, 0.09680460f, 0.12135341f, -0.12391423f, -0.24578524f, 0.03806725f, -0.16713327f, 0.08907872f, 0.16660291f, 0.00925328f, 0.19734988f, 0.15004605f, 0.03385093f, 0.16407155f, -0.14490202f, -0.01549207f, 0.16558678f, 0.11186297f, 0.28000170f, 0.14173266f, -0.28534809f, -0.03001890f, 0.07351162f, -0.27988821f, -0.01443189f, 0.05269594f },
  { 0.42728651f, 0.68962878f, 0.09011564f, 0.33329388f, 0.09283635f, -0.25295126f, 0.15821290f, 0.01260053f, 0.00905828f, 0.05566042f, 0.09812936f, -0.15524690f, 0.07976063f, -0.15000413f, -0.19673567f, -0.16733298f, 0.02765323f, -0.16747396f, -0.17080604f, -0.10829954f, -0.12819476f, -0.20398168f, 0.08506316f, -0.14846778f, -0.08853783f, 0.13676339f, -0.14774215f },
  { -0.18333805f, 0.32106575f, -0.46380278f, -0.21310432f, 0.07734295f, -0.21378458f, 0.22494800f, 0.15216616f, 0.03184337f, 0.21493597f, -0.29252476f, 0.07195474f, 0.24052031f, -0.14330056f, -0.12449382f, 0.20130049f, 0.06007040f, 0.18271352f, -0.09629305f, -0.00826239f, 0.17213979f, -0.09299348f, -0.08553619f, -0.00301518f, 0.15008470f, -0.25872141f, -0.09700321f },
  { 0.06436846f, -0.11903345f, 0.11834935f, 0.25939268f, -0.01396478f, -0.07234091f, 0.10629451f, -0.05341489f, 0.04226769f, 0.01584621f, 0.17853643f, -0.50969076f, 0.14937975f, 0.04591485f, -0.30527949f, 0.08648009f, -0.01652623f, -0.19709300f, -0.13358285f, 0.36868483f, -0.21114650f, -0.27240694f, 0.29208788f, -0.47439390f, -0.04638285f, -0.02806974f, -0.20238733f },
  { -0.22922409f, 0.51321375f, -0.72532338f, 0.18506937f, 0.19476476f, -0.52083498f, 0.07227586f, 0.03024893f, -0.39749154f, 0.18189953f, -0.24360082f, -0.01916533f, 0.12570575f, 0.06203213f, -0.04526803f, 0.07881205f, 0.00365646f, -0.01587639f, 0.07010071f, 0.08104721f, -0.32598454f, -0.04081067f, -0.02168569f, -0.04128807f, 0.18472040f, -0.24887368f, -0.09731986f },
  { -0.06432185f, -0.17567065f, -0.09137000f, 0.06352939f, 0.02792338f, -0.08293048f, -0.04620425f, 0.03522005f, 0.11660951f, -0.17099702f, -0.02884803f, -0.12964351f, -0.17255479f, 0.01670066f, -0.11293154f, 0.15131110f, -0.11348568f, 0.07912204f, -0.03497900f, -0.10242199f, -0.09991103f, 0.15056229f, 0.16014384f, 0.09140447f, 0.09721580f, -0.15353374f, 0.04178080f },
  { 0.11477707f, -0.36370528f, 0.38686630f, -0.04169770f, -0.26276553f, -0.03608076f, 0.28375170f, -0.06773969f, -0.17577103f, 0.06057745f, 0.02359634f, 0.02980423f, 0.18681371f, 0.32102549f, -0.12800209f, -0.04043026f, 0.00488373f, -0.05313735f, 0.06569651f, -0.04268060f, 0.08146068f, 0.20546886f, -0.07762969f, -0.01134966f, 0.21167421f, -0.29090455f, -0.16355968f },
  { 0.29762548f, -0.08024338f, 0.48732677f, 0.08900876f, -0.18447821f, 0.30869564f, 0.04027547f, 0.28655505f, 0.09808137f, -0.04079562f, -0.00993590f, -0.29986909f, -0.18498020f, 0.03899186f, 0.17839783f, -0.11647861f, -0.05590763f, 0.04454863f, -0.15920535f, -0.04766041f, 0.12884825f, -0.24058115f, 0.09500587f, -0.02918866f, -0.21531425f, 0.00434483f, 0.02310848f },
  { 0.23622775f, -0.02817182f, 0.08443744f, -0.01310015f, -0.09067025f, -0.03640828f, 0.12017344f, -0.06812701f, 0.26520333f, 0.05679239f, 0.08914186f, 0.31359866f, -0.05860814f, -0.18172333f, 0.16074055f, -0.06321085f, -0.06168595f, 0.27110884f, -0.14266570f, -0.03013248f, -0.04772184f, -0.17280242f, 0.08204075f, 0.24251671f, 0.09661216f, 0.09780696f, 0.26023075f },
  { 0.17597854f, -0.46423632f, 0.46072000f, -0.12660773f, 0.09271979f, 0.16545695f, -0.16115816f, 0.03623454f, 0.19750325f, -0.03626192f, 0.14830707f, -0.19147591f, -0.11119085f, 0.32838762f, -0.25710326f, 0.08096616f, -0.01642372f, 0.17518690f, 0.20779914f, 0.11360944f, -0.09494749f, 0.25240058f, -0.02566977f, -0.17946616f, 0.19241606f, -0.01664669f, -0.13581112f },
  { 0.35645461f, 0.11473592f, -0.09983392f, 0.01906325f, 0.23323487f, -0.05131359f, -0.03687693f, -0.04273466f, 0.06191061f, 0.03966517f, 0.14953209f, 0.25369018f, 0.01615102f, -0.06657036f, 0.24316527f, 0.01329146f, -0.18917724f, 0.17251338f, 0.22917116f, -0.09097739f, -0.01821565f, -0.00568175f, -0.01692147f, -0.26957953f, -0.06688199f, -0.05766113f, -0.26000738f },
  { -0.16333322f, -0.17320205f, -0.16117989f, -0.10375389f, 0.17730947f, 0.03047720f, 0.00703935f, -0.07508980f, -0.12021480f, -0.14587045f, 0.09373571f, -0.17404184f, 0.14599790f, 0.00099336f, 0.15819369f, -0.17593302f, -0.03849564f, 0.04848051f, -0.10950266f, -0.02720542f, -0.11077928f, -0.00091125f, -0.05505672f, -0.07849229f, 0.13305323f, -0.16328563f, 0.18876873f },
  { -0.22685242f, 0.47964993f, -0.06684064f, -0.09414174f, 0.35856175f, 0.06789670f, -0.10715123f, 0.20938654f, 0.25404274f, -0.07670902f, -0.04953258f, 0.29315099f, 0.00579488f, -0.23530781f, 0.01811955f, 0.15580343f, -0.29840195f, -0.14731009f, 0.04154302f, -0.07723717f, -0.23402250f, 0.27067026f, -0.09595669f, 0.06611485f, 0.18527101f, -0.09694828f, -0.08809170f },
  { -0.27640799f, 0.10170361f, 0.31578803f, -0.00599868f, 0.20913155f, 0.19032565f, -0.18708582f, 0.04037152f, 0.22019219f, 0.16149244f, 0.05588118f, 0.17559706f, 0.04570681f, -0.14338052f, -0.00869965f, -0.07752086f, -0.01797688f, -0.12666467f, -0.00075859f, 0.03478568f, -0.13844709f, 0.06118504f, -0.15023321f, -0.26158586f, -0.14788026f, -0.11072447f, -0.30306855f },
  { -0.05723041f, -0.03558317f, 0.38418996f, -0.19935925f, 0.00015820f, 0.30819833f, 0.07872145f, 0.04282470f, 0.34504926f, -0.07400224f, -0.01851895f, 0.12111216f, -0.12891297f, 0.05766384f, 0.18485267f, 0.04187091f, -0.17066632f, -0.08278856f, 0.15529367f, -0.11115473f, -0.02796360f, 0.08221950f, 0.05908595f, -0.07027511f, 0.14121732f, 0.03447229f, 0.00357867f },
  { -0.14648241f, -0.11966766f, -0.24955511f, -0.12878723f, -0.04595690f, -0.05562282f, -0.07673480f, 0.15353374f, -0.12877776f, 0.13186502f, 0.07332888f, 0.07039180f, 0.10706241f, 0.12888287f, 0.33301532f, -0.13811105f, -0.11836438f, 0.07771245f, -0.16379055f, 0.01692203f, 0.07171608f, -0.03368266f, 0.05328370f, 0.19851048f, 0.16190255f, 0.03260748f, 0.05215359f },
  { 0.06445652f, -0.29260591f, 0.38834670f, 0.00691124f, -0.40613487f, 0.27830133f, 0.19771856f, -0.22467898f, 0.18197031f, 0.18927011f, -0.04125190f, -0.11527453f, 0.19412197f, -0.19919087f, 0.15675996f, 0.22870536f, -0.21364418f, 0.17200950f, -0.10825928f, -0.06307285f, -0.10130391f, 0.17062074f, -0.07481105f, -0.15169029f, -0.03478262f, -0.12724195f, -0.13793817f },
  { -0.05362338f, 0.18788508f, -0.51204121f, 0.15088445f, 0.17958376f, -0.04864400f, -0.05695304f, -0.05624793f, 0.15065685f, -0.07283130f, 0.24020357f, 0.05258952f, 0.10792868f, 0.23860325f, 0.00620282f, 0.00165166f, -0.01767169f, -0.11656298f, -0.09220190f, 0.16601296f, 0.15187858f, -0.03105255f, 0.22579749f, 0.04938145f, -0.05737306f, -0.15642488f, -0.18944712f },
  { 0.33023199f, -0.13012494f, 0.16837764f, 0.03700807f, -0.09817805f, 0.28868324f, 0.19388810f, -0.02729841f, 0.19007018f, 0.00426804f, 0.21679565f, 0.04640201f, -0.14580485f, 0.22481638f, -0.14668712f, 0.10882923f, 0.03049731f, 0.05913686f, -0.13249063f, -0.02798603f, -0.11430202f, 0.15129259f, -0.06732071f, -0.08141571f, 0.08275507f, -0.12948382f, 0.22239029f },
  { -0.12673137f, -0.19223802f, -0.17630506f, -0.05581398f, -0.16543640f, 0.12609698f, -0.16965075f, -0.11719418f, -0.01933506f, 0.05204938f, -0.00142758f, -0.04461086f, 0.11560024f, 0.12323339f, 0.17414029f, -0.14726293f, 0.07544617f, -0.01746903f, -0.01059835f, -0.13130185f, -0.02685383f, 0.04393905f, 0.06036784f, 0.03267840f, 0.13737021f, -0.16118011f, -0.02982572f },
  { 0.04872170f, 0.48161793f, 0.48092133f, -0.15467811f, 0.49225938f, 0.09026103f, -0.21988006f, 0.37919909f, -0.04723477f, -0.13099246f, 0.11327779f, -0.14225431f, -0.03646787f, -0.08227261f, -0.06906530f, -0.07424922f, -0.16717978f, -0.16097052f, -0.08099367f, -0.01823290f, -0.12840655f, -0.02602218f, 0.01550658f, -0.07033966f, 0.07890948f, -0.10621917f, 0.04896340f },
  { -0.42362785f, 0.12586764f, 0.48668233f, -0.04369874f, -0.01931695f, -0.11692960f, -0.03649877f, 0.05579109f, -0.00009542f, -0.11884898f, 0.06811849f, 0.24811113f, -0.18299864f, -0.08295079f, 0.04573069f, 0.02789708f, 0.17102855f, 0.24213544f, -0.09176158f, -0.04081731f, 0.18606836f, 0.01074827f, 0.06642859f, 0.14597678f, 0.15625489f, -0.07349223f, 0.22276333f },
  { 0.55247289f, -0.17520888f, 0.17794986f, 0.13368860f, -0.40819862f, -0.15735242f, 0.29957703f, -0.21920055f, 0.04963185f, 0.11819501f, -0.30331495f, -0.04469740f, 0.16414182f, -0.26379290f, -0.13585682f, -0.00335743f, -0.23283666f, 0.07699701f, 0.02173997f, 0.00582172f, -0.07185367f, 0.09040489f, -0.13461700f, -0.06996995f, -0.05114015f, -0.05592823f, -0.17023863f },
  { -0.08742164f, -0.18965293f, 0.14961238f, -0.12201849f, -0.13614045f, 0.10814117f, -0.12925714f, -0.10449315f, 0.17826875f, -0.10878277f, 0.03885196f, -0.08988376f, -0.07259522f, -0.07311513f, -0.13123463f, -0.15552011f, -0.08548948f, 0.08890472f, 0.12818627f, 0.13061504f, -0.06898783f, 0.09893410f, -0.16443078f, -0.16855183f, -0.16677409f, 0.00305170f, -0.18683404f },
  { 0.29401892f, 0.60156518f, -0.47921062f, 0.06346441f, 0.34767765f, -0.20111588f, 0.06086821f, 0.44517297f, -0.24212764f, -0.36076105f, 0.11808140f, -0.12023267f, -0.27349910f, -0.01125794f, 0.09210017f, 0.06864385f, -0.12013869f, 0.19452284f, -0.04072597f, -0.10337435f, 0.12517506f, -0.25225803f, -0.02407755f, -0.05321332f, 0.12036681f, -0.23553431f, 0.17219932f },
  { -0.06482734f, 0.17537081f, -0.22116548f, -0.16237333f, 0.29190138f, -0.19173115f, 0.11003719f, 0.11222340f, -0.35799173f, 0.18898520f, 0.09576333f, -0.32667354f, 0.17102891f, -0.14177819f, -0.19091840f, 0.20115498f, -0.09106617f, -0.19136067f, -0.01993137f, -0.29123628f, -0.13200435f, 0.10431585f, 0.08948682f, -0.25304517f, 0.16687007f, -0.08264954f, -0.05993360f },
  { -0.23213188f, 0.37251425f, -0.12159848f, 0.12928796f, 0.20295292f, -0.00351152f, 0.11443592f, 0.05162783f, 0.05782274f, 0.03160626f, -0.04912423f, -0.32829204f, -0.07884996f, -0.23549701f, -0.06943338f, -0.03492485f, -0.15682821f, 0.01577975f, 0.34477004f, -0.18683803f, 0.26640636f, 0.34236780f, -0.35487458f, 0.15241955f, 0.10513170f, -0.49365449f, -0.03335296f },
  { 0.11400142f, 0.51342839f, -0.00920558f, -0.03086140f, -0.18520482f, -0.11498304f, 0.14384347f, -0.20879303f, 0.21447121f, -0.02486368f, -0.01837852f, -0.15625682f, 0.19230717f, -0.21009788f, -0.10928084f, 0.14051718f, -0.20702459f, -0.36972219f, 0.03427795f, -0.21296474f, -0.16861573f, 0.05963556f, -0.31013307f, -0.28484887f, 0.27242804f, -0.00327754f, -0.43459946f },
  { -0.01376106f, 0.41956571f, -0.47444466f, -0.10513760f, 0.11343946f, -0.14384709f, 0.13335019f, -0.26340604f, 0.16012506f, 0.09631646f, -0.15052409f, -0.01930293f, 0.22930762f, -0.10824307f, 0.09423023f, -0.03714389f, -0.09506440f, -0.21042250f, -0.04151699f, 0.15325429f, -0.06266683f, 0.08977411f, 0.17390865f, 0.07008041f, 0.00966522f, 0.20969842f, 0.26186940f },
  { 0.02576748f, -0.08927711f, -0.14467344f, -0.04411051f, -0.03954710f, -0.10934354f, -0.05091257f, -0.07893679f, 0.07811441f, 0.03324093f, 0.11948071f, -0.09480277f, 0.03355150f, -0.16417500f, -0.17555831f, 0.08758076f, 0.04975431f, 0.11740409f, -0.02872811f, -0.03703861f, 0.05773921f, -0.09196392f, 0.10590674f, 0.00443573f, -0.15980226f, -0.13149764f, 0.06657048f },
  { -0.24672328f, 0.59144098f, -0.00704148f, -0.23321521f, 0.16446318f, 0.12202786f, -0.10312379f, 0.30639941f, 0.26106995f, -0.10183052f, 0.08019494f, 0.27452192f, -0.14202105f, -0.20342374f, 0.21062727f, -0.11675473f, 0.09091180f, 0.02411962f, 0.16628045f, -0.20298567f, -0.28566849f, 0.06416015f, -0.07744932f, -0.20883697f, 0.01700363f, 0.02714160f, 0.05466265f },
  { 0.08065590f, -0.18869011f, 0.62438422f, 0.31737331f, -0.03500881f, -0.01888954f, 0.11212160f, 0.13530031f, -0.02164206f, 0.08914479f, 0.02348428f, -0.11547235f, -0.02805140f, -0.10867805f, -0.30929941f, 0.15852652f, -0.04323564f, 0.02209156f, -0.11089187f, -0.02891462f, -0.21864614f, 0.00417110f, -0.09984662f, -0.22459799f, -0.14708547f, 0.07415150f, -0.32874510f },
  { -0.29373625f, -0.30342385f, -0.12735716f, 0.07773939f, -0.14811075f, -0.15005659f, 0.13399535f, -0.29745275f, -0.08094874f, -0.02115881f, -0.41428569f, -0.22077730f, -0.00633275f, -0.19900215f, -0.05163080f, -0.00551626f, -0.13128902f, 0.06924696f, 0.15077831f, -0.10272251f, -0.00594064f, 0.22755823f, -0.04369146f, -0.14869858f, 0.15465569f, -0.26827630f, -0.04937901f },
  { 0.19537714f, -0.10491968f, 0.03352199f, 0.08586350f, -0.10857334f, 0.42318758f, -0.07808901f, -0.22086853f, 0.14254235f, -0.18138690f, -0.04139254f, 0.24029729f, -0.05082139f, 0.14325431f, 0.13073266f, -0.09806110f, 0.05002652f, -0.24071044f, 0.09539299f, 0.36990115f, -0.02773004f, -0.10573039f, 0.03926296f, -0.42003712f, -0.14664088f, 0.04312621f, -0.36135677f },
  { -0.03096549f, 0.10427918f, -0.77070487f, 0.21426889f, -0.12256179f, -0.32535350f, 0.25427234f, 0.02130038f, -0.19015105f, 0.14648995f, -0.09604054f, -0.09581900f, 0.16109650f, 0.11180302f, 0.17608565f, 0.07097834f, 0.12863441f, -0.15117128f, -0.06416188f, 0.15545127f, -0.27413937f, 0.06632507f, 0.07547366f, -0.01911896f, -0.05611925f, 0.11728183f, -0.37259737f },
  { -0.02173985f, 0.04891434f, 0.05931420f, -0.15842955f, 0.10526090f, 0.08274177f, -0.01607222f, -0.15662740f, 0.14560483f, 0.04218918f, 0.14252871f, 0.36771828f, -0.09370440f, -0.05112362f, 0.00898318f, -0.18171938f, -0.21993710f, 0.41106349f, 0.03037283f, 0.07099564f, 0.41777736f, -0.17413111f, -0.04478534f, 0.18004507f, 0.13033634f, -0.17064664f, 0.19448397f },
  { -0.11513412f, 0.14859752f, 0.17808467f, -0.05137402f, -0.03553662f, -0.02970073f, -0.21718024f, -0.23826578f, 0.43604723f, -0.15556811f, -0.06723715f, 0.45046595f, -0.08230495f, 0.02801962f, 0.07178969f, -0.25835568f, 0.08470713f, 0.07310782f, -0.14549053f, 0.04103983f, 0.08315853f, -0.10758496f, -0.29055923f, 0.45506638f, -0.03520280f, 0.03647733f, 0.01680470f },
  { 0.26625499f, 0.04277999f, 0.39717019f, 0.13625284f, -0.08745351f, -0.22694743f, 0.09801654f, 0.21035360f, -0.02056395f, 0.16988716f, -0.18699469f, -0.15892172f, 0.13463742f, -0.05645365f, 0.03751567f, 0.00876288f, -0.01559454f, 0.01858842f, -0.21966374f, 0.00211133f, -0.14108182f, 0.04392036f, -0.21136996f, 0.12115823f, 0.06006399f, -0.20275772f, 0.04193474f },
  { -0.11996882f, 0.02822748f, -0.17837901f, -0.12159450f, 0.16360749f, -0.12250710f, 0.01959544f, -0.14635769f, -0.10371489f, -0.00519192f, -0.08437187f, -0.07207156f, -0.11547226f, -0.01865146f, -0.02137415f, 0.03978585f, -0.08429190f, 0.04109386f, 0.13706531f, 0.14776631f, 0.14223300f, 0.03527102f, -0.13131706f, 0.05803518f, -0.09878965f, -0.02765371f, 0.00069518f },
  { -0.26721081f, 0.37624642f, -0.22309037f, -0.14567047f, 0.42301312f, -0.17510729f, 0.12067294f, -0.05157984f, -0.25266555f, -0.13658315f, -0.12302085f, 0.00396001f, -0.23834805f, 0.16827741f, 0.32367039f, -0.07538546f, -0.15085991f, 0.08745249f, 0.09724779f, -0.16333917f, -0.02529243f, 0.02542125f, 0.07215981f, -0.04065343f, 0.09994753f, -0.04094923f, 0.22448012f },
  { 0.36458090f, 0.21417113f, -0.53886908f, 0.24062082f, 0.13036638f, -0.29469997f, -0.12687854f, -0.08567107f, -0.13802812f, -0.10275939f, -0.00431018f, -0.09293902f, -0.00935831f, -0.07265732f, 0.31317189f, -0.08907633f, 0.10453662f, 0.33848658f, -0.19063248f, -0.11967639f, 0.22597638f, -0.10778765f, -0.07181572f, -0.03351323f, -0.07357129f, -0.09179176f, -0.00505578f },
  { -0.11941877f, -0.08322824f, -0.46094462f, 0.13952146f, -0.04965048f, -0.33002961f, 0.02764460f, -0.12831348f, 0.08387353f, 0.26684529f, 0.08587110f, -0.36310932f, 0.11828090f, -0.06219755f, -0.07305761f, 0.10687804f, -0.19736560f, -0.16460001f, 0.25460953f, 0.08295942f, -0.29837218f, 0.14157635f, 0.23705909f, 0.06000971f, 0.16258726f, -0.01409428f, -0.20478965f },
  { -0.30440921f, -0.14994656f, -0.32710108f, -0.08899775f, 0.05417030f, 0.07747014f, -0.10654818f, -0.04465676f, 0.07362194f, -0.05432492f, -0.24924955f, 0.13539261f, -0.07044744f, -0.20737308f, 0.12821665f, 0.11496847f, -0.06794681f, -0.01838466f, 0.16863525f, 0.20512868f, -0.07236464f, 0.12021462f, 0.05689353f, 0.03165069f, -0.20817231f, 0.28191301f, 0.12060763f },
  { 0.20323056f, 0.34444869f, -0.59057462f, -0.17473525f, 0.22141393f, -0.38508847f, -0.12955619f, 0.24831365f, -0.24404648f, -0.10745187f, -0.05223415f, -0.02451788f, 0.05284008f, -0.13600151f, 0.03120045f, 0.06500955f, 0.10834304f, -0.08681325f, 0.28876087f, 0.06665629f, 0.26686412f, 0.02300885f, -0.00137231f, -0.02438986f, 0.12426771f, -0.03479288f, -0.02149328f },
  { 0.17059149f, 0.10903361f, 0.16359228f, -0.02354213f, -0.02776942f, 0.34125677f, 0.17363948f, -0.08002009f, 0.02748870f, 0.05519225f, 0.07244031f, 0.05219388f, 0.11640875f, 0.07025243f, -0.21268581f, 0.16785613f, 0.09230446f, -0.18523784f, 0.02262197f, 0.00480943f, -0.36384439f, 0.09041207f, -0.02043676f, -0.43783382f, -0.00233849f, 0.08191011f, 0.05423489f },
  { 0.04205675f, 0.52993840f, 0.24651428f, -0.23580047f, 0.34775123f, 0.38666525f, -0.04271397f, 0.11936514f, 0.18688549f, -0.18573612f, 0.26700044f, 0.05686941f, -0.09401932f, 0.04984512f, 0.03044538f, -0.02242665f, 0.03917585f, -0.30400544f, -0.10432465f, 0.00376392f, 0.16523050f, -0.06536446f, -0.11032435f, -0.01474756f, -0.18165387f, -0.06748033f, 0.00313221f },
  { 0.24183574f, 0.18403773f, 0.44950721f, -0.07251669f, 0.22391626f, 0.14227954f, -0.02349947f, -0.13120306f, 0.01993027f, -0.11950635f, -0.08190171f, -0.22457030f, 0.23299044f, 0.17126891f, 0.09512215f, 0.18148924f, 0.08654159f, 0.01150577f, 0.00607007f, -0.10308832f, 0.01341157f, -0.11744687f, -0.06939048f, 0.04386723f, 0.07761811f, -0.08947511f, -0.26493809f },
  { 0.41369525f, 0.37900409f, -0.06441230f, 0.03754904f, 0.16629508f, -0.26874050f, 0.16313651f, -0.08979321f, -0.16683280f, 0.11596848f, 0.18555343f, -0.08816417f, -0.18583357f, -0.05034577f, -0.09835685f, -0.07723223f, 0.15419677f, 0.12640375f, -0.16000250f, 0.16630775f, 0.00889155f, -0.19017059f, -0.16665123f, 0.05182860f, 0.13666455f, 0.03928365f, 0.03814740f },
  { -0.60228616f, 0.16836087f, -0.05499268f, -0.41549700f, 0.31546953f, -0.01425980f, -0.15359184f, 0.10473955f, 0.12551217f, 0.05297065f, 0.31628498f, 0.10001386f, 0.07522835f, 0.20125271f, -0.01992484f, -0.04394266f, 0.21297430f, -0.18543383f, 0.18789144f, 0.24307378f, -0.14255974f, 0.19869231f, -0.03292502f, 0.10708326f, 0.18934645f, 0.08951649f, 0.02322976f },
  { 0.46164635f, -0.05511511f, -0.03198095f, 0.28031081f, 0.14743674f, 0.15496174f, 0.02983606f, 0.08526094f, 0.21429805f, -0.05818317f, -0.01767548f, -0.11101114f, -0.28258982f, 0.04866681f, 0.08153877f, -0.09190943f, 0.09138059f, -0.04524570f, -0.09852297f, 0.04359248f, 0.11563142f, 0.14746483f, 0.16039203f, -0.22309586f, 0.11576911f, -0.09833321f, -0.29602632f }
};

static const float L0_BIASES[L0_OUT] = 
{ -0.04269940f, 0.14371441f, -0.27022737f, 0.10053325f, -0.12908672f, 0.18371214f, 0.10366714f, -0.06088080f, 0.36518261f, 0.01081165f, 0.19883262f, -0.14122917f, 0.07442132f, -0.33419985f, 0.05976949f, -0.01298653f, 0.29234970f, 0.05240837f, -0.26827413f, 0.11473514f, 0.06578061f, 0.03006262f, 0.14290470f, -0.32590088f, -0.45501170f, 0.33174074f, 0.10967704f, -0.35950112f, 0.41423067f, 0.04864204f, -0.11007361f, -0.34536272f, 0.28025833f, 0.11166203f, 0.22227240f, -0.15514150f, 0.16443500f, 0.02772355f, 0.44335619f, 0.34720349f, 0.19115417f, -0.46691772f, -0.08853833f, -0.00135511f, -0.37101129f, -0.37569946f, -0.22827683f, -0.34460929f, 0.10572990f, -0.11115720f, 0.23134661f, 0.32789347f, -0.20452802f, -0.01351160f, 0.17366432f, 0.13768001f, -0.09956705f, 0.17460911f, 0.34547740f, -0.18245517f, -0.17240636f, -0.12612079f, -0.04522569f, -0.07944690f, 0.17746738f, 0.08057930f, -0.12530456f, -0.02134438f, 0.09995408f, 0.01919310f, -0.02761289f, 0.18416503f, -0.19105883f, -0.40205282f, -0.39400443f, -0.13287710f, 0.26645419f, -0.23065388f, -0.05277258f, 0.06727969f, 0.18178152f, -0.04906056f, 0.28181762f, -0.06313789f, 0.07125016f, -0.13087443f, -0.26240477f, -0.07827434f, -0.26050389f, 0.16606586f, -0.23174499f, -0.37202144f, -0.25634038f, 0.22734225f, -0.04022067f, 0.28017968f, -0.34499335f, -0.14281254f, 0.13810761f, -0.18632363f, 0.11605155f, -0.14267188f, -0.10601661f, 0.25046211f, 0.15777972f, 0.01227098f, -0.05370162f, -0.12092418f, 0.08012176f, 0.05344293f, 0.30612859f, 0.07650571f, 0.42331833f, -0.41321611f, -0.30565739f, -0.32544336f, -0.12810409f, 0.28341657f, 0.32744223f, 0.17648424f, 0.40039101f, -0.10441567f, -0.21773618f, -0.20017545f, -0.38505277f, -0.57602084f, 0.28512877f, -0.53454626f };

// Layer 1 (hidden_1) weights and biases
static const float L1_WEIGHTS[L1_OUT][L1_IN] = 
{
  { 0.10797134f, -0.04794104f, 0.09514605f, 0.16702470f, 0.01217050f, 0.08660679f, 0.05319865f, 0.15224369f, 0.05503349f, -0.46127570f, 0.11478996f, -0.06163627f, -0.00966563f, 0.04018837f, 0.06545074f, -0.03703049f, -0.00148841f, 0.06504409f, -0.06621214f, 0.06639645f, 0.18756181f, 0.15020467f, 0.14414141f, 0.09034079f, -0.06622379f, 0.06791037f, 0.03963016f, 0.08205505f, 1.09949160f, 0.10910503f, 0.19886710f, -0.00824172f, 0.19806582f, 0.24912757f, 0.23352586f, 0.07583984f, 0.07781088f, -0.11866862f, 0.02718335f, -0.70152491f, 0.23189060f, -0.44833985f, -0.06987935f, 0.04424054f, 0.07613952f, 0.06426197f, 0.02568027f, -0.04751045f, -0.05375459f, -0.04344357f, 0.05278437f, 0.24198352f, -0.03478110f, 0.06857532f, 0.12238970f, 0.14455341f, -0.08763616f, 0.08059875f, 0.41120425f, -0.14104734f, 0.14699601f, 0.06806659f, 0.04387048f, 0.08718588f, -1.58587790f, 0.14361329f, -0.17884423f, 0.16770007f, -0.70176953f, 0.03169103f, -0.04022078f, 0.03223879f, 0.03095594f, 0.16644751f, 0.01557187f, -0.43190259f, -0.04895211f, 0.02907852f, 0.16126019f, 0.06252056f, 0.09429685f, 0.02649822f, -0.01557497f, 0.00200825f, -0.05843393f, -0.37795395f, -0.09637462f, 0.16204028f, -0.01040037f, 0.05339711f, -0.25643736f, -0.22816366f, -0.01147136f, 0.06507738f, 0.17255324f, 0.24141133f, -0.16187236f, 0.03612084f, -0.22569720f, -0.13297307f, -0.05905012f, 0.00366483f, 0.00351920f, 0.25362977f, 0.18635628f, -0.31598598f, 0.01973571f, 0.04485493f, 0.15449820f, -0.08917453f, 0.16308974f, 0.36882758f, -0.06285832f, -0.18584409f, -0.00681058f, 0.07341583f, 0.01245906f, 0.22586207f, 0.28381637f, 0.18844037f, 0.10780002f, 0.19051044f, -0.12545173f, -0.05661904f, 0.05829198f, -0.14406016f, 0.38584644f, -0.15244460f },
  { 0.15459491f, -0.09080903f, 0.23468281f, -0.20433369f, -0.01470932f, -0.07204573f, 0.12494482f, -0.20187631f, 0.57630038f, 0.14822038f, -0.07735139f, -0.26200745f, -0.07382698f, 0.15021783f, 0.03239018f, -0.03239232f, -0.02514703f, -0.38153100f, 0.07946644f, 0.02762388f, 0.00895964f, -0.51670110f, 0.01376411f, 0.00995832f, 0.13288063f, 0.07414424f, -0.48292485f, -0.04627980f, 0.23991871f, 0.17001173f, 0.12143975f, 0.10391330f, -0.34662238f, 0.02292883f, 0.01041251f, 0.01408266f, -0.21262516f, -0.06057940f, -0.18457991f, 0.65620661f, 0.06990486f, 0.39759403f, 0.04580856f, -0.39998236f, 0.13883057f, 0.00557108f, 0.09843539f, -0.03061528f, 0.08544435f, -0.02023189f, -0.00019825f, 0.02641453f, 0.05772972f, -0.59942108f, 0.03259420f, -0.33531958f, 0.76087880f, -0.01220061f, 0.73883289f, 0.10881040f, -0.10365093f, 0.27748582f, -0.32804996f, -0.00986037f, -0.06946815f, -0.00535641f, 0.18351887f, 0.10295951f, 0.35132894f, -0.23844732f, -0.25857821f, -0.34733638f, -0.08562491f, 0.01987565f, 0.00049279f, -0.22490403f, -0.52997661f, -0.05020994f, -0.01780998f, -0.42283118f, 0.08462012f, -0.41166621f, 0.45692816f, 0.03675355f, 0.10136496f, -0.00643167f, -0.07311562f, 0.14809875f, 0.23355559f, -0.04178758f, 0.30183649f, 0.74977225f, -0.04786112f, -0.13867390f, 0.14192396f, 0.30362296f, 0.24745975f, 0.00202336f, 0.73056829f, -0.08469891f, 0.05854427f, 0.07167869f, 0.41848987f, -0.67791951f, 0.16453649f, 0.35936552f, -0.14288573f, 0.02722619f, -0.24133036f, 0.00488647f, 0.55957782f, -0.69475180f, 0.16416402f, 0.21430607f, -0.70144063f, 0.04174812f, -0.06304988f, 0.13116346f, -0.12367269f, -0.29944336f, -0.33435819f, 0.37306967f, 0.07894783f, 0.47783419f, 0.04729933f, 0.29944366f, -0.67348343f, -0.03338815f },
  { -0.08907649f, 0.03754807f, 0.06678575f, -0.03022163f, 0.05393548f, 0.04091910f, -0.07301444f, 0.06631760f, -0.01579363f, 0.01263640f, -0.09216882f, -0.09999117f, -0.06789639f, 0.05571004f, 0.06065139f, 0.07773108f, -0.03453279f, -0.08185922f, -0.02405669f, 0.03526379f, -0.03892810f, 0.03224025f, -0.02613730f, -0.01515403f, -0.04859851f, 0.06509519f, -0.02769386f, -0.01376759f, -0.07973859f, 0.05360490f, -0.04747079f, 0.00112817f, -0.01848467f, -0.01524092f, 0.01258998f, 0.04081748f, 0.02158627f, -0.09978744f, 0.04642242f, 0.01281273f, -0.03855724f, 0.05552842f, 0.06771656f, -0.02724365f, -0.04512010f, -0.02700935f, -0.00175457f, -0.03135898f, -0.03197505f, 0.07511079f, -0.02242490f, 0.01596754f, 0.01604842f, -0.01834515f, 0.00666206f, -0.01888060f, -0.00182724f, -0.04763910f, 0.04504076f, -0.01885950f, 0.01499491f, -0.01468066f, -0.05000256f, -0.06070677f, 0.05374464f, -0.05397170f, -0.00577894f, -0.02913116f, 0.05158676f, -0.08603101f, -0.04523950f, 0.04353045f, 0.01972568f, 0.05861836f, -0.00972949f, -0.08357330f, -0.01374285f, -0.08312561f, 0.04181665f, -0.02347194f, -0.01469757f, 0.03347240f, -0.05910159f, -0.00531104f, 0.03991730f, 0.06201531f, 0.07261474f, 0.04757120f, 0.05211394f, 0.08644658f, -0.06240041f, -0.03589577f, -0.09601568f, -0.03515743f, -0.02861969f, 0.07116257f, 0.00258689f, 0.03706781f, 0.04191286f, -0.07780246f, -0.01601247f, 0.02769132f, 0.03389473f, 0.03190980f, -0.01196687f, -0.02241151f, -0.10586958f, -0.08122738f, 0.01290652f, 0.05357284f, -0.04822498f, -0.09660942f, -0.09227456f, -0.00591510f, -0.05295848f, 0.06386847f, 0.03275852f, 0.03212888f, 0.00613141f, -0.02711197f, -0.07608093f, -0.04194247f, 0.00974920f, -0.01698049f, -0.06413358f, -0.05588261f, 0.04044740f, 0.06324169f },
  { 0.13280706f, -0.05595444f, 0.16057944f, -0.28857270f, -0.07126474f, -0.09065315f, 0.03680662f, 0.03368349f, 0.45843819f, 0.04420769f, -0.04328415f, -0.13914138f, 0.07351234f, 0.18235779f, 0.09192842f, 0.03737964f, -0.19051670f, 0.00353268f, 0.16175398f, 0.04890215f, -0.05759967f, -0.31284353f, 0.14331545f, 0.09591332f, 0.22602513f, -0.05069906f, -0.45461744f, 0.29601082f, -0.98127580f, -0.05169357f, -0.04218680f, 0.09150611f, -0.38310102f, -0.12036484f, -0.01998100f, 0.02591727f, -0.28861400f, 0.17224570f, -0.41281024f, 0.97037196f, -0.07457750f, 0.33083880f, -0.07019088f, -0.06075614f, -0.03533676f, 0.19210596f, 0.18030870f, 0.24396680f, -0.04561468f, 0.02404118f, -0.06218158f, -0.20470996f, 0.06422247f, -0.52228802f, -0.19587165f, -0.29208705f, 0.37229112f, -0.08731177f, 0.21250634f, 0.19239795f, 0.10438482f, 0.30411139f, -0.50976878f, -0.04035204f, 0.15118198f, -0.03250200f, 0.01129758f, 0.08112394f, -0.01498729f, -0.30167425f, -0.48921144f, -0.17918420f, 0.08559547f, 0.10187386f, 0.10074658f, -0.23862809f, -0.24187985f, 0.21642148f, 0.12610081f, -0.04857318f, -0.12570779f, -0.26810604f, -0.64733201f, -0.07585190f, 0.01745573f, 0.09421821f, 0.27655298f, 0.08700843f, 0.35141814f, 0.04519238f, 0.07573166f, 0.59039402f, 0.09170822f, -0.06395389f, 0.06656515f, 0.03358903f, 0.20556621f, -0.02292519f, 0.48347291f, -0.20392250f, -0.20967785f, -0.05151030f, 0.34223410f, -0.45302224f, -0.06291302f, -0.73161244f, 0.07189283f, 0.08449533f, -0.32684869f, -0.00504569f, 0.26123071f, -0.56964612f, 0.19323970f, -0.00311041f, -0.07776477f, 0.06264000f, -0.02948743f, -0.32950845f, 0.03670705f, -0.27560565f, -0.14319766f, 0.31630820f, -0.01359345f, 0.32398579f, 0.23018868f, 0.49364504f, -0.90021592f, 0.25903797f },
  { 0.31984571f, 0.21348037f, 0.04547675f, 0.15909787f, 0.13346323f, 0.60828757f, 0.04883335f, 0.16792558f, -0.18530269f, 0.80567294f, -0.20290385f, 0.16364320f, -0.36368793f, 0.09932563f, 0.04989073f, 0.03582783f, -0.14503385f, 0.14530465f, 0.10537671f, -0.07854918f, -0.13739671f, -0.12460169f, 0.18143184f, 0.05303686f, 0.17792273f, 0.23342684f, 0.00676407f, 0.08224716f, -0.97173083f, 0.03949340f, -0.32083401f, -0.01264589f, -0.64828527f, 0.02058717f, -0.00536795f, 0.03997885f, 0.33357453f, 0.04514028f, 0.02189795f, 0.41433650f, -0.11177954f, 0.77570206f, -0.08690663f, 0.32097656f, 0.25269952f, 0.08801471f, 0.09672812f, 0.06440742f, -0.07060281f, 0.04419658f, 0.14842570f, -0.26437351f, -0.19043152f, -0.02559375f, 0.10957973f, -0.23814294f, 0.03233165f, -0.74817103f, -0.66235530f, 0.18315776f, 0.35293821f, -0.10126322f, 0.09963283f, 0.07786392f, 0.94708866f, -0.10628088f, 0.59453690f, -0.02758863f, 0.73372859f, -0.10051371f, 0.43563518f, -0.07780657f, 0.06882808f, -0.64559436f, 0.44982952f, 0.91953647f, -0.05341408f, 0.21185251f, -1.11142516f, 0.12506188f, -0.11083317f, 0.21810997f, -0.22915220f, -0.02963332f, -0.08250619f, 0.16957091f, 0.28683126f, -0.00442150f, -0.06514493f, 0.01868073f, 0.23385672f, 0.23950973f, 0.02217898f, -0.19797161f, -0.12132674f, -0.34937042f, 0.08190025f, -0.01765346f, 0.49333006f, 0.02810187f, -0.58982444f, 0.01396789f, -0.09722194f, -0.24952525f, -0.27650717f, 0.53277433f, 0.08364179f, 0.07064003f, 0.24646834f, 0.04315403f, -0.26464134f, -0.10019029f, -0.19572750f, 0.50431466f, 0.42105070f, -0.01657079f, -0.07691491f, -0.04292941f, -0.40738955f, -0.60874790f, -0.45430264f, -0.02602740f, 0.74262464f, 0.33565366f, 0.03702966f, 0.24212103f, -0.25556561f, 0.09807479f },
  { -0.08811454f, -0.06887434f, 0.06888972f, -0.04371779f, -0.02959131f, -0.04852989f, 0.05104556f, -0.02315803f, 0.02685249f, -0.01245068f, 0.00163629f, 0.02469465f, 0.02201963f, 0.03649392f, 0.06499902f, -0.04325486f, -0.07934814f, 0.06711859f, -0.05485408f, 0.00714115f, 0.04211693f, -0.07502007f, 0.01823429f, -0.02651598f, -0.09225657f, -0.01728138f, -0.00400708f, -0.09332988f, 0.08065959f, -0.05813702f, -0.01367282f, 0.03571552f, 0.01561082f, -0.06465957f, -0.03455769f, -0.02739158f, 0.00976597f, -0.00163728f, 0.06468110f, -0.08992425f, -0.00666087f, -0.01099439f, 0.02850614f, 0.04280831f, 0.01053744f, -0.09258071f, 0.01180992f, -0.00750306f, -0.03110803f, 0.01313764f, -0.09210594f, -0.00539899f, -0.00410721f, 0.05693698f, 0.00299257f, 0.05031653f, -0.00776581f, -0.09543910f, 0.01697079f, -0.05727368f, -0.07858295f, 0.07644697f, -0.02953842f, 0.03690334f, -0.00199355f, 0.03576657f, 0.03271535f, 0.00514453f, -0.02977971f, -0.00529933f, 0.03778359f, 0.03114062f, 0.00697730f, -0.01614623f, 0.04544294f, -0.00711062f, -0.04221092f, -0.08902073f, 0.02829943f, -0.09931348f, -0.06889111f, -0.07287327f, -0.10116197f, -0.00509994f, 0.02792716f, 0.04292816f, 0.00817541f, 0.04396427f, 0.06010785f, -0.05190916f, -0.01943083f, -0.00771051f, 0.07413633f, -0.06576971f, -0.06281429f, 0.04035925f, 0.06503655f, 0.08833132f, -0.06038278f, -0.05827872f, -0.04089282f, 0.02290708f, -0.04874474f, 0.06360034f, 0.02764823f, 0.02128259f, 0.03148283f, 0.08010644f, -0.08161968f, -0.07175624f, 0.05859545f, 0.04068200f, -0.07543783f, -0.07100691f, -0.01949591f, -0.02556055f, -0.02638967f, 0.06859596f, 0.01748581f, -0.03320146f, -0.03786987f, 0.00888457f, 0.03543301f, 0.01601689f, -0.09490305f, 0.01414608f, -0.04213975f, 0.06277071f },
  { -0.00547038f, -0.05204869f, -0.07992306f, -0.07916559f, 0.04521500f, -0.00116277f, -0.00882448f, -0.03480530f, 0.04661564f, -0.05411532f, 0.05275432f, -0.09880058f, 0.03015902f, -0.01359058f, -0.09442373f, -0.03461149f, -0.10317755f, 0.05598951f, 0.02455748f, -0.01144104f, -0.00045938f, -0.08584175f, -0.01521010f, -0.01736907f, -0.02670103f, -0.02782770f, -0.03012661f, 0.01582916f, 0.06013992f, 0.05330712f, 0.02637140f, -0.04914812f, 0.05186340f, 0.01799357f, -0.07706641f, -0.02260364f, -0.09851401f, -0.07032304f, -0.04469878f, -0.00857915f, -0.01077548f, -0.00597984f, -0.07547369f, 0.03157571f, 0.04941668f, -0.08598126f, -0.00506966f, -0.02922885f, -0.05420691f, -0.02384216f, 0.02836396f, -0.02801661f, 0.05295650f, 0.00409485f, -0.08954932f, -0.04938252f, 0.03778360f, -0.06032375f, 0.04079716f, 0.00058834f, -0.03878479f, -0.02004452f, -0.09466400f, -0.08135821f, 0.06588607f, -0.04365734f, -0.05250882f, -0.02666264f, 0.04405314f, -0.10912143f, -0.06168990f, 0.02231660f, 0.02236848f, -0.10333215f, -0.03421295f, -0.10172877f, 0.04840920f, -0.07129234f, -0.02967248f, -0.08892590f, -0.09750643f, -0.06428903f, 0.00286869f, 0.00601834f, -0.03020892f, -0.09519508f, 0.05745602f, -0.00825135f, -0.00841363f, 0.07314400f, 0.00362464f, 0.04979953f, -0.03502734f, -0.09414509f, -0.03828118f, 0.00341212f, 0.05940724f, -0.07131343f, -0.07492653f, 0.03886193f, -0.03412304f, -0.01491642f, 0.02263563f, -0.02373970f, 0.01773930f, 0.02418751f, 0.04710480f, 0.02193709f, -0.05094236f, 0.03816745f, 0.06668082f, -0.06403399f, 0.01679219f, -0.05220585f, 0.06518263f, -0.12054150f, 0.04475943f, 0.02288659f, 0.04914649f, 0.03325373f, -0.10403630f, -0.09127328f, -0.05955819f, 0.00120250f, -0.11261792f, -0.01292463f, -0.07978581f, -0.04286427f },
  { -0.14295669f, 0.04898994f, -0.15786865f, -0.00093296f, 0.21560238f, 0.02075550f, -0.06788376f, 0.10871989f, -0.52534544f, -0.26987851f, 0.09530722f, 0.16017127f, 0.06170819f, 0.29191530f, -0.19329908f, 0.06513479f, -0.05592953f, 0.12568286f, 0.26101115f, 0.04125225f, 0.20408283f, 0.24899279f, -0.30906582f, 0.31590012f, 0.11087602f, 0.05222057f, 0.20010485f, 0.33561745f, 0.11265301f, 0.12384658f, -0.08219847f, 0.13953029f, 0.27934256f, 0.01274577f, -0.22694483f, -0.01230457f, 0.04032264f, 0.24870883f, -0.12026179f, -0.20461345f, 0.07015270f, -0.44066775f, -0.01003415f, 0.15378913f, 0.17106597f, 0.17429973f, 0.31916109f, 0.20611167f, -0.05847287f, 0.07517672f, -0.03885195f, -0.01990368f, 0.16003460f, 0.32226381f, 0.08178250f, 0.15925822f, -1.03597832f, 0.11946717f, -0.62333250f, 0.37980163f, -0.14293161f, -0.08802694f, -0.14002956f, 0.00989775f, -0.34582114f, 0.29768544f, -0.14186339f, -0.14704455f, -0.59959370f, 0.21586211f, 0.25161812f, 0.09219606f, -0.02805780f, 0.18353395f, 0.15746021f, -0.36783540f, 0.19338970f, 0.15455830f, 0.21783958f, 0.24262927f, -0.00321297f, 0.37149769f, -0.10430263f, 0.03625874f, 0.04807532f, 0.00736422f, 0.16024747f, 0.17965353f, 0.07589179f, -0.03704217f, -0.37852579f, -0.29181823f, 0.21822552f, 0.03285194f, 0.18491115f, -0.65595758f, 0.29782987f, -0.02492943f, -0.31787008f, 0.15232830f, 0.03824918f, -0.07985265f, -0.31545940f, 0.39475560f, -0.01492947f, -0.42035630f, -0.13122028f, 0.00810657f, -0.14840637f, 0.22773033f, 0.15421653f, 0.47926199f, -0.25685722f, 0.00833660f, 0.02406993f, 0.24754110f, -0.05094046f, -0.01336327f, 0.05134874f, 0.14587907f, -0.21341766f, -0.39902037f, -0.13225630f, -0.39016160f, 0.22551413f, -0.03890136f, 0.92650688f, 0.08357198f },
  { -0.34006193f, 0.26327732f, -0.26634660f, -0.48633248f, 0.09498417f, 0.11821347f, -0.11003045f, 0.12098804f, -0.27624613f, 0.10867649f, 0.17552301f, -0.04043472f, 0.11166577f, 0.06270506f, -0.32173142f, -0.05216116f, 0.23974204f, 0.48253104f, 0.08023345f, 0.02834623f, -0.03600730f, 0.26306552f, 0.29743996f, -0.03332063f, -0.13953051f, 0.18002608f, 0.13138877f, -0.00502292f, -0.40875217f, -0.09365205f, -0.12188196f, 0.10578094f, 0.44225234f, 0.07317225f, 0.10627391f, 0.05472816f, 0.00732603f, 0.14893103f, 0.02700706f, -0.44203097f, 0.08856995f, -0.15657544f, 0.02515227f, 0.07449812f, 0.02909445f, -0.00899790f, -0.15753762f, -0.01371249f, 0.09499656f, 0.03994722f, -0.01389198f, -0.02120789f, 0.00665611f, 0.61052722f, 0.08324838f, 0.14850555f, -0.73123825f, -0.09626699f, -0.61189508f, -0.06137393f, -0.15796803f, -0.29651085f, 0.14418355f, 0.01367012f, 0.36655760f, 0.15722077f, 0.08925644f, -0.25209001f, -0.00152466f, 0.09786911f, 0.25902897f, 0.18919869f, 0.03923119f, 0.03504807f, -0.06125652f, 0.26210657f, 0.20629510f, -0.21742705f, -0.03859811f, -0.07220175f, 0.08100399f, -0.12800714f, 0.18059395f, 0.08075306f, 0.02918180f, 0.03995316f, 0.09884103f, -0.02640929f, 0.07475933f, 0.07360620f, 0.15441318f, 0.01650661f, 0.13166064f, 0.06886484f, 0.07522314f, -0.19588369f, -0.11992405f, -0.08527749f, -0.16637163f, 0.08371369f, -0.02434118f, -0.07699694f, -0.20792854f, 0.41217422f, -0.04886506f, 0.27703640f, -0.15177168f, 0.05277268f, 0.04200496f, 0.12726764f, -0.08185712f, 0.51995945f, -0.19068402f, 0.11435748f, 0.27874652f, 0.01443690f, -0.02420010f, 0.19817457f, -0.06934206f, 0.24761499f, 0.05402837f, -0.04730134f, 0.06533515f, 0.11510683f, -0.06512281f, -0.29624790f, 0.54261881f, -0.17504884f },
  { 0.07120974f, 0.06279032f, -0.07495786f, 0.01000769f, 0.00671406f, 0.00272556f, -0.08008193f, 0.05247371f, -0.01075805f, -0.01556014f, -0.03045568f, 0.05789236f, -0.03754771f, 0.01575655f, 0.02986626f, 0.04923951f, -0.04244770f, 0.02154363f, 0.05551681f, 0.05389627f, 0.01406225f, 0.00781669f, 0.01314555f, -0.04293000f, -0.05303765f, -0.05726058f, -0.09404168f, -0.06096940f, 0.06139228f, -0.06629864f, 0.05357733f, -0.00157715f, 0.01813124f, 0.03647213f, -0.07089087f, -0.06297223f, -0.02413464f, -0.04112152f, 0.00344979f, -0.06737243f, -0.05730753f, -0.07550677f, -0.00424792f, -0.08502327f, 0.05898125f, -0.05241571f, -0.01045002f, -0.08037795f, -0.04705227f, 0.03880554f, 0.01246617f, 0.02003384f, -0.00889036f, 0.05384628f, -0.08866172f, -0.04596531f, -0.08830094f, -0.03006451f, -0.02076290f, -0.07290611f, -0.07883021f, -0.06047117f, -0.08530988f, -0.04494235f, -0.04240016f, 0.01964352f, -0.03060795f, -0.07453593f, 0.00227956f, 0.06150991f, -0.07678083f, 0.04824715f, 0.05549186f, 0.01062444f, -0.01545102f, 0.05361886f, 0.06223688f, 0.06682973f, -0.01232920f, -0.03148295f, -0.07144128f, -0.03271793f, -0.09591366f, 0.00950211f, -0.08484958f, -0.00902072f, -0.07008747f, 0.07256408f, 0.05304271f, -0.07402620f, -0.07109749f, 0.06472497f, -0.04785495f, 0.03169303f, 0.01678785f, -0.05358031f, 0.04450393f, 0.07279422f, 0.02525608f, 0.02593535f, -0.01133144f, 0.01966150f, 0.03561113f, -0.08884410f, -0.01645203f, 0.06901362f, 0.05601984f, -0.02236310f, -0.00545166f, -0.07462744f, 0.03671818f, 0.06948081f, 0.04010588f, 0.00276151f, -0.06129710f, -0.09548184f, 0.01822405f, -0.02678378f, 0.00239584f, -0.08043995f, -0.02954821f, -0.01105991f, -0.09821647f, 0.02222020f, -0.00181878f, -0.01316842f, 0.04821959f, 0.03146945f },
  { 0.03726332f, -0.06473044f, 0.16876099f, -0.18591648f, -0.00146274f, 0.03653353f, -0.06352296f, 0.16581471f, 0.01925366f, -0.09754144f, 0.14212418f, -0.35347748f, 0.06642254f, 0.13746242f, -0.12551674f, 0.09541441f, -0.11055711f, 0.02566160f, 0.23535497f, 0.03624053f, 0.17683424f, -0.01368045f, -0.21003370f, 0.23688303f, 0.36686462f, 0.05925382f, -0.37083286f, 0.32631087f, -1.01144898f, -0.07349388f, -0.09730703f, 0.26534468f, -0.23368523f, -0.07063635f, -0.53366023f, 0.02348106f, -0.17690527f, 0.13888118f, -0.63367301f, 0.50453192f, -0.15146004f, 0.30159178f, -0.02321544f, 0.16546907f, -0.05266121f, 0.21211636f, 0.27173072f, 0.21848211f, -0.14088796f, -0.02756853f, 0.01352078f, -0.15398081f, 0.18082580f, -0.64262748f, -0.16033880f, -0.06174766f, -0.04952346f, 0.03725881f, -0.22426564f, 0.20342512f, -0.14019564f, 0.05919488f, -0.31165680f, 0.01150835f, -0.20319965f, 0.03031847f, 0.01848462f, -0.07617948f, -0.33138186f, -0.17265479f, -0.36044735f, -0.31202334f, 0.04724532f, 0.16168773f, 0.12203110f, -0.60922819f, -0.30326605f, 0.05256829f, 0.16428618f, -0.16431648f, -0.11309365f, -0.16664509f, -0.52212191f, -0.01017367f, 0.17406572f, 0.07132592f, 0.26762411f, 0.21377826f, 0.09274102f, 0.02416567f, 0.03095781f, 0.49132869f, 0.13248585f, -0.15552288f, 0.10372736f, -0.38698739f, 0.34813470f, -0.01335173f, 0.53981209f, 0.11059501f, -0.33717600f, 0.00615675f, 0.14665268f, -0.25087258f, -0.10453613f, -0.68387520f, 0.10450664f, 0.07452048f, -0.50175291f, 0.19439237f, 0.19955198f, -0.68213820f, -0.07324494f, 0.04632891f, 0.03285244f, 0.18369833f, 0.03001103f, -0.72702736f, -0.02544910f, -0.01723755f, -0.21104343f, 0.20851839f, -0.04190440f, 0.03922543f, 0.18422875f, 0.61638099f, -0.76449138f, 0.31807622f },
  { -0.13821313f, 0.12598552f, -0.14616390f, 0.28812784f, 0.29998225f, 0.08703976f, 0.01206970f, 0.00783766f, -0.51108110f, -0.12019309f, 0.29895210f, 0.36430550f, 0.03559323f, 0.08999038f, -0.04763597f, -0.08328136f, 0.09428211f, 0.03300881f, 0.06046697f, 0.06138966f, 0.04335757f, -0.24989285f, 0.23082763f, 0.00222197f, 0.03842435f, 0.07482514f, 0.16460314f, 0.12198818f, 1.09749770f, 0.03423970f, -0.18054657f, 0.02597269f, 0.42662179f, 0.53346634f, -0.30926383f, -0.01796634f, 0.00506307f, 0.33576554f, 0.23064986f, -0.64383715f, 0.09721173f, 0.14194155f, 0.07504613f, 0.18317036f, 0.23267503f, 0.07680278f, 0.42012522f, 0.02718778f, -0.00039594f, 0.01903026f, -0.12147727f, 0.13608137f, -0.11152178f, 0.32952344f, 0.14329812f, -0.14339310f, -1.15048313f, 0.00888213f, 0.06696964f, 0.18419240f, -0.00223632f, -0.18771423f, 0.16599444f, -0.01626755f, -0.40587518f, 0.29228601f, 0.05291538f, -0.12869233f, 0.39916629f, 0.09301905f, -0.04211724f, -0.18741508f, -0.05429678f, 0.19852559f, 0.18777055f, -0.62077039f, -0.05656790f, -0.10533553f, 0.17663868f, 0.08744155f, -0.16401340f, 0.68317628f, -0.37670437f, 0.00689810f, 0.06316625f, 0.04697491f, 0.10517851f, 0.14291389f, -0.39894205f, 0.08222476f, -0.18489705f, -0.19268318f, 0.18250416f, 0.08648539f, 0.11590461f, -0.45175880f, 0.10017179f, 0.03874711f, -0.45965549f, 0.29463422f, -0.20450898f, -0.04425016f, -0.37858489f, 0.42077604f, 0.03891871f, -0.39113650f, -0.14283676f, -0.01777415f, 0.13568294f, 0.19597667f, 0.33986679f, 0.46458361f, -0.34262538f, 0.04921177f, 0.02886702f, 0.11534695f, -0.08221985f, 0.02815491f, -0.24907371f, 0.03173930f, -0.06316503f, -0.39874735f, -0.07052019f, -0.07446317f, -0.01373789f, -0.76127052f, 0.77288395f, -0.23139855f },
  { 0.14702170f, -0.11561566f, 0.19533050f, -0.45077169f, 0.01599522f, 0.01434442f, 0.14498940f, 0.13763288f, 0.17425281f, -0.06879979f, -0.05714713f, -0.10276436f, -0.01493039f, 0.20561711f, 0.05736198f, 0.00286121f, -0.38691306f, -0.36017552f, 0.18640687f, 0.04323789f, 0.00920011f, -0.72969770f, -0.22703806f, 0.15814698f, 0.37205908f, 0.06217110f, -0.28968814f, 0.34081089f, -0.81147391f, -0.22255811f, -0.08135768f, 0.21087334f, -0.29527205f, -0.09319104f, -0.54079211f, 0.08926414f, -0.00513626f, 0.15085196f, -0.46217963f, 1.01946771f, -0.11162920f, 0.21078333f, -0.08407803f, 0.09837865f, -0.04579251f, 0.28051263f, 0.12618488f, 0.12325853f, -0.07485852f, -0.01618683f, -0.15807410f, -0.17736894f, 0.17040646f, -0.58728731f, -0.18051039f, -0.14782657f, 0.21616812f, 0.00098875f, 0.27803662f, 0.15534951f, 0.05248017f, 0.26598513f, -0.37755978f, 0.04437964f, 0.33687642f, -0.07959050f, 0.14822024f, 0.07603536f, -0.06910656f, -0.25420418f, -0.37724382f, -0.20886743f, -0.07733368f, 0.14167947f, 0.17665099f, -0.33247197f, -0.48016134f, 0.15048096f, 0.10941452f, -0.18461274f, -0.19010182f, -0.29539463f, -0.70458508f, 0.08087475f, 0.06744878f, 0.11134403f, 0.15251222f, 0.12410498f, 0.25784302f, 0.04677951f, 0.26055142f, 0.51500899f, 0.02909740f, -0.14125684f, 0.08357126f, -0.25949261f, 0.19722453f, 0.01333655f, 0.63578701f, -0.06729683f, -0.21484326f, -0.01308720f, 0.27605373f, -0.49040672f, 0.19014879f, -0.74679655f, 0.27536324f, 0.06021913f, -0.31281030f, 0.00017809f, 0.17615633f, -0.50981575f, -0.02095612f, 0.08055215f, -0.00048683f, 0.06914292f, 0.01334857f, -1.08116937f, 0.16672273f, -0.14370118f, -0.08611599f, 0.29365531f, 0.12049753f, 0.17929046f, 0.17164835f, 0.27049756f, -1.02166557f, 0.45198765f },
  { 0.08612772f, -0.07740016f, 0.22062966f, 0.12186198f, 0.06674055f, -0.05303125f, 0.04399699f, 0.08244764f, 0.07863718f, -0.25484678f, 0.20721820f, 0.04400415f, -0.00097208f, 0.00222937f, -0.01779973f, 0.02052048f, -0.10156794f, -0.17474248f, 0.15183929f, 0.04150436f, 0.29446873f, -0.19981743f, -0.14336076f, 0.12162667f, 0.09514479f, 0.01564240f, -0.16469856f, 0.26983142f, 0.08375609f, 0.15089485f, 0.13980371f, 0.03920507f, -0.14384727f, 0.31451860f, 0.04655179f, -0.00579124f, -0.09070386f, 0.24652891f, -0.16219571f, 0.14405425f, -0.05398688f, -0.09167754f, 0.00911853f, 0.20751321f, -0.01515972f, 0.11694271f, 0.38118890f, -0.06432107f, -0.04349459f, 0.03768621f, -0.01976667f, 0.16816460f, -0.14135107f, -0.34074557f, -0.19386654f, -0.13844059f, 0.21701285f, -0.03800531f, 0.34167472f, 0.23216835f, 0.05807314f, 0.11238147f, -0.05717774f, -0.04284215f, -0.84333116f, 0.25121671f, -0.00062751f, -0.00236156f, -0.18859531f, 0.05028980f, -0.38124335f, -0.26105213f, -0.02582633f, 0.17283966f, 0.20859560f, -0.82232600f, -0.21695907f, 0.14044842f, 0.23003693f, -0.10155320f, -0.14558370f, 0.08547635f, -0.63154173f, 0.00998456f, 0.03858754f, -0.09057464f, 0.06654189f, 0.12733296f, -0.09712382f, 0.06246725f, -0.34429863f, 0.04275590f, 0.14697894f, -0.01827362f, 0.24026698f, -0.00485384f, 0.15345490f, 0.07031880f, 0.08828863f, 0.17372462f, -0.27675638f, 0.00432552f, -0.17746826f, -0.15114444f, -0.09383904f, -0.70903194f, 0.04558185f, -0.05105693f, -0.18617846f, 0.10497753f, 0.18155475f, -0.23769836f, -0.02919974f, -0.34209123f, -0.24744965f, -0.06445839f, 0.01636712f, -0.08275367f, 0.04429235f, -0.01335061f, -0.08791578f, -0.02900176f, 0.00200969f, -0.09209123f, 0.11628377f, -0.07443071f, -0.13308638f, 0.00266856f },
  { 0.05053474f, -0.09302907f, 0.03000318f, -0.07046502f, 0.05563763f, 0.00536508f, 0.01535946f, -0.07998743f, 0.00704955f, -0.00961112f, 0.02438554f, -0.00158744f, -0.06784917f, -0.06809454f, -0.05112765f, -0.03618437f, -0.11426292f, -0.01897148f, -0.00797091f, -0.05779733f, -0.04865707f, -0.04719363f, -0.01764137f, 0.00881396f, 0.03599675f, -0.05613931f, -0.00714482f, -0.02312151f, -0.00503466f, 0.05532876f, 0.02855620f, -0.06399653f, -0.00395427f, 0.04749869f, -0.07050285f, 0.07626332f, 0.04281197f, -0.02270056f, -0.11767370f, -0.04183301f, 0.05583097f, 0.01263171f, -0.06390294f, -0.02838060f, 0.04491152f, -0.08549784f, -0.05706059f, -0.08203860f, 0.02626207f, 0.04170512f, 0.02652436f, -0.10972358f, 0.04702343f, 0.03363737f, -0.04183770f, -0.03314210f, -0.06090243f, 0.04283382f, 0.07078771f, -0.03619030f, -0.03746750f, -0.02184975f, -0.00817888f, 0.00629679f, 0.06380101f, 0.04821540f, -0.10114293f, -0.03222821f, -0.01801958f, 0.01574390f, -0.04320834f, -0.08766983f, -0.03169778f, 0.04326078f, 0.02982689f, -0.08444979f, -0.08676240f, -0.05250356f, 0.03984921f, -0.04600729f, -0.07944831f, 0.00353360f, -0.00944266f, -0.01267662f, -0.06101964f, -0.06731492f, -0.06808687f, 0.05406040f, -0.07779752f, 0.07279108f, -0.08919589f, -0.08139699f, -0.05277974f, -0.03636689f, -0.02082464f, 0.05124572f, -0.00969505f, -0.01236757f, -0.00325540f, 0.02053529f, -0.07290660f, -0.05001622f, -0.07978200f, -0.02980367f, -0.03854397f, -0.06790897f, 0.05175231f, -0.05897615f, -0.04718998f, -0.03609683f, 0.01763190f, 0.06018027f, 0.05250964f, 0.05858826f, -0.01002874f, -0.07387240f, 0.05013093f, -0.05122086f, -0.04567609f, -0.02764165f, -0.06083628f, 0.03299133f, 0.05057691f, 0.03277907f, 0.00930119f, -0.03347266f, -0.07785658f, -0.06525833f },
  { -0.00939391f, -0.08937579f, -0.05051211f, -0.03924946f, -0.06870043f, -0.04961567f, -0.00049122f, -0.01910158f, 0.06905346f, 0.03929021f, 0.02403455f, -0.07344785f, -0.02531384f, -0.09399825f, -0.08261718f, -0.05399342f, 0.04121109f, -0.03812158f, -0.04826996f, 0.00820985f, 0.06714571f, -0.01415328f, 0.08236487f, -0.06559189f, 0.00533708f, 0.06341010f, -0.01717382f, 0.06762426f, -0.01377900f, 0.05354223f, -0.04363370f, -0.05084304f, 0.06644852f, -0.06561174f, -0.05814051f, 0.05828814f, -0.06684341f, -0.00329480f, -0.02410858f, -0.04777095f, -0.01562820f, 0.08669008f, -0.07530155f, 0.06628958f, 0.08629726f, 0.06844244f, -0.09578255f, 0.05185438f, 0.04617938f, -0.01682838f, -0.02705788f, -0.06382733f, -0.02277478f, -0.09419589f, 0.00437541f, -0.00609339f, -0.00654102f, -0.06286745f, -0.05078686f, -0.00703223f, 0.07378791f, -0.00487152f, 0.04790061f, 0.02850840f, -0.06855406f, -0.02606724f, -0.07865654f, -0.03217006f, -0.02210047f, 0.02385732f, 0.04693548f, -0.06165172f, 0.05486847f, 0.01383901f, -0.06780698f, 0.06682304f, 0.01339155f, 0.01891396f, -0.09082697f, 0.05669819f, -0.00544308f, -0.07617623f, 0.05437229f, -0.07661872f, -0.03378630f, 0.03037934f, -0.05156695f, -0.01262256f, -0.03666187f, -0.08547701f, 0.03100442f, 0.03347402f, -0.02997296f, 0.01827147f, 0.05290390f, -0.04143175f, 0.04019928f, -0.01065721f, 0.01934997f, -0.06238873f, -0.04795951f, -0.08259204f, -0.06354772f, -0.07624751f, -0.01316629f, -0.02879777f, -0.08363774f, 0.06213967f, -0.03631328f, -0.03257061f, 0.04747940f, -0.10150476f, -0.05006164f, -0.01898432f, -0.04708149f, 0.02428792f, 0.02983013f, 0.02516058f, 0.07729305f, 0.00864887f, -0.02421258f, 0.08408137f, 0.04765748f, 0.03463789f, 0.00707782f, 0.02672686f, 0.00111580f, -0.07042710f },
  { -0.05155245f, -0.08133391f, 0.06411996f, -0.09440396f, -0.00943106f, 0.00784852f, -0.06602623f, -0.05398943f, -0.07557862f, 0.06710289f, -0.06915908f, 0.01138665f, -0.06455047f, -0.08475247f, -0.03596133f, -0.04542588f, -0.01752403f, -0.03094835f, -0.00018750f, 0.05063120f, 0.07962152f, -0.02066342f, 0.03534378f, -0.01348528f, -0.02800313f, -0.02362151f, 0.00248963f, 0.01888827f, -0.04028884f, 0.05676260f, -0.04899360f, 0.00275272f, -0.00218921f, 0.06779921f, -0.05647058f, 0.01601520f, -0.03755122f, 0.03837879f, -0.06359299f, -0.01573218f, 0.01868562f, -0.09015184f, -0.01310679f, 0.08177038f, -0.02635013f, 0.01629346f, -0.07795267f, -0.03893579f, -0.08824689f, -0.03399655f, 0.02598399f, 0.05836070f, -0.06891540f, -0.00110805f, -0.00749688f, 0.06020621f, 0.01543098f, -0.06865926f, -0.00973309f, -0.03597673f, -0.06695955f, 0.02547518f, -0.01085301f, 0.02314916f, -0.02359365f, 0.03919634f, -0.01323705f, 0.02266834f, -0.09090629f, 0.07660110f, 0.01646817f, -0.08818854f, 0.03582332f, -0.08671020f, -0.05611990f, -0.01172298f, -0.00402996f, 0.00129915f, 0.07120743f, 0.01157018f, -0.09523749f, -0.01602452f, 0.03062114f, -0.07371477f, -0.02802081f, 0.05470672f, -0.05524094f, 0.07156654f, 0.06061995f, -0.05326277f, -0.04190434f, -0.03059920f, 0.07279208f, 0.02261587f, -0.06539319f, -0.08258801f, -0.00505493f, 0.08177242f, -0.07166531f, 0.07276842f, 0.04202934f, -0.04286819f, 0.07624082f, -0.01871266f, 0.06359486f, 0.03313728f, 0.01992494f, -0.00875299f, 0.06988454f, -0.01679784f, -0.05288156f, 0.02576548f, -0.00547131f, -0.04946039f, -0.07825673f, 0.06814947f, 0.02614126f, 0.04099802f, -0.02594348f, -0.08204161f, -0.05685801f, 0.05342198f, -0.00218213f, 0.06432147f, -0.00806791f, -0.07695375f, -0.03885388f, -0.07646295f },
  { 0.12891908f, 0.15388793f, 0.13093236f, -0.02740868f, 0.06175631f, -0.02353521f, -0.00143733f, -0.11317821f, 0.33677316f, 0.35552505f, -0.08693594f, 0.25702465f, 0.12019108f, -0.01107894f, 0.23143476f, 0.04845769f, 0.07363906f, 0.01790152f, 0.13453549f, 0.07341074f, -0.12161577f, -0.59596467f, 0.09188481f, 0.06145078f, 0.13936220f, -0.01525398f, -0.42765173f, 0.10513803f, -0.55633700f, 0.17075679f, 0.15374982f, 0.05804174f, -0.15807001f, -0.10957862f, -0.02557709f, 0.08288627f, -0.06993920f, 0.08680804f, 0.03720211f, 0.74968052f, -0.02317891f, 0.59152991f, 0.04040918f, 0.12643962f, -0.09203251f, 0.05809648f, 0.13553779f, 0.09258926f, 0.12916383f, -0.06698502f, 0.03024599f, -0.12326211f, -0.11605811f, -0.54517120f, -0.01357473f, -0.41130325f, 0.52435052f, -0.09383006f, -0.23976269f, 0.05633895f, -0.04349101f, 0.34215206f, -0.18637423f, -0.08716265f, 0.27798137f, 0.04756566f, 0.33697084f, 0.04191967f, 0.60747051f, -0.45425129f, -0.25119725f, -0.04867485f, -0.03671016f, 0.17060822f, 0.09051098f, 0.13546343f, -0.16924907f, 0.14432046f, 0.04474964f, -0.13298267f, -0.22248796f, -0.28958824f, 0.09206375f, -0.04409469f, 0.00261713f, 0.29526466f, 0.25370812f, -0.00116049f, 0.02385804f, 0.05309083f, 0.40381938f, 0.56558990f, 0.03740707f, -0.18118967f, 0.04765420f, -0.08734860f, 0.23513086f, -0.00525492f, 0.71833694f, -0.10033768f, 0.01313331f, -0.07228882f, 0.13533804f, -0.50139815f, -0.02828133f, 0.62715524f, 0.10555897f, 0.04743118f, 0.08464212f, 0.08005237f, 0.19674501f, -0.32157183f, 0.22067714f, 0.13770153f, 0.12564276f, -0.01030115f, 0.06453481f, -0.00992998f, -0.21372604f, -0.31152928f, -0.10288742f, 0.15925147f, 0.22123918f, 0.25123411f, 0.01746633f, 0.44323578f, -0.40347037f, 0.14121531f },
  { 0.02440201f, 0.03120827f, 0.01505976f, 0.02373211f, -0.07657398f, 0.03032289f, -0.02685417f, -0.02486150f, 0.05894200f, -0.03682182f, -0.04332628f, -0.00579526f, -0.08950760f, -0.00394947f, -0.06068540f, -0.01709732f, 0.08426581f, -0.07132452f, -0.08423626f, -0.06678583f, -0.02751647f, -0.05320036f, 0.04728037f, -0.06165654f, 0.07950882f, -0.05938052f, 0.03030428f, -0.08751641f, 0.08382142f, -0.07902276f, 0.01804075f, -0.08893839f, 0.05786072f, -0.08833189f, -0.04345375f, -0.08007848f, 0.00564452f, 0.01712851f, -0.08537937f, -0.00479475f, -0.07953861f, 0.05775424f, -0.05361899f, 0.03640094f, 0.08164418f, -0.00408623f, 0.05558518f, 0.00253160f, -0.06462529f, 0.04583430f, -0.03385678f, -0.07450246f, -0.09185159f, -0.02804659f, -0.02780553f, -0.04293364f, 0.07886642f, 0.06525023f, 0.00786850f, 0.08048183f, -0.02478701f, 0.00159463f, -0.01545903f, -0.04144830f, 0.02113104f, -0.03434699f, 0.06088891f, 0.05250756f, -0.00809625f, 0.00186087f, -0.01519698f, -0.04333971f, 0.00884636f, 0.04834222f, -0.04078183f, 0.07698577f, -0.05054520f, 0.03992841f, 0.07867088f, -0.01605523f, 0.05746960f, -0.03332715f, -0.02863422f, 0.03460981f, 0.05559719f, 0.05259921f, -0.05992642f, -0.01381558f, 0.02563018f, -0.00392012f, -0.07435472f, 0.00982474f, -0.07216021f, -0.05503702f, -0.00943788f, -0.03166154f, 0.03549585f, -0.08305883f, 0.06408077f, -0.02073795f, 0.06733633f, -0.06887861f, -0.05993957f, -0.02167394f, 0.04108462f, 0.01681001f, 0.03726199f, 0.06912722f, -0.05077144f, -0.00979568f, 0.02109813f, 0.04689982f, 0.01302730f, -0.07906690f, 0.00953807f, -0.07433001f, 0.06072629f, -0.05455640f, -0.00484578f, 0.04668676f, 0.06898823f, 0.06656561f, -0.00050733f, -0.01732897f, 0.05833892f, 0.03277866f, -0.01669989f, -0.00465087f },
  { -0.44146177f, 0.45177659f, -0.27757373f, -0.21248490f, -0.03058480f, 0.12904538f, -0.02476669f, -0.24508584f, -0.23649734f, 0.07810327f, 0.12096436f, 0.13272434f, -0.01559121f, -0.06479866f, -0.07297512f, 0.08187333f, -0.01444706f, 0.43707258f, -0.02033289f, 0.00622426f, 0.17699036f, -0.02229569f, 0.36549935f, 0.03676146f, 0.01455844f, 0.04313599f, 0.04199758f, 0.06339636f, -0.89070994f, 0.03500884f, -0.42994186f, 0.16946539f, 0.32408533f, -0.26440141f, 0.18681480f, -0.04257268f, -0.37336347f, 0.22938350f, 0.08435596f, -0.35821375f, -0.23069258f, 0.55015868f, 0.02614792f, 0.07031852f, -0.28678337f, 0.01030094f, 0.05122748f, -0.05888080f, -0.09933206f, -0.07969724f, -0.04594805f, -0.07624134f, 0.04519367f, 0.48446220f, -0.16872370f, 0.18598996f, 0.02098047f, 0.14995262f, -0.34456879f, 0.01128461f, -0.05511379f, -0.04222234f, -0.17513633f, -0.07408199f, 1.02308953f, 0.14320433f, 0.08594669f, 0.05582078f, 0.51417154f, -0.01226262f, -0.04416248f, 0.29331604f, 0.08697381f, -0.15853940f, -0.10915328f, 1.27947176f, 0.01892256f, 0.04438304f, 0.06078101f, 0.08934160f, -0.00550939f, 0.04657570f, 0.05290565f, -0.07056274f, -0.22188206f, 0.77501529f, 0.42998731f, -0.11909095f, -0.07420150f, 0.03959233f, -0.20054840f, 0.02047888f, -0.16509315f, -0.18528686f, -0.08896137f, -0.36355820f, -0.01365689f, 0.08263027f, 0.11717170f, 0.04508338f, -0.17558858f, 0.03871756f, 0.05702670f, 0.34727645f, -0.24987663f, 0.54735488f, -0.04156895f, 0.03378206f, -0.05241995f, 0.18786311f, -0.12848879f, 0.13387933f, -0.12156530f, 0.43450367f, 0.50925475f, 0.11090098f, -0.03257573f, 0.23128554f, 0.00477908f, -0.52571577f, -0.09680475f, -0.04694166f, -0.07049581f, 0.21896565f, -0.08399700f, -0.15819457f, 0.16143642f, -0.07312533f },
  { -1.16964436f, 0.45950562f, -0.34888500f, -0.36269313f, 0.14563155f, -0.18259987f, -0.09961727f, 0.10511959f, -0.09625740f, 0.51019281f, 0.12510051f, -0.90716523f, 0.01183400f, 0.30396625f, -0.19492386f, -0.02661678f, -0.46589404f, 0.41521373f, 0.21787202f, 0.03706767f, 0.08560126f, 0.05319155f, 0.09357076f, 0.15937401f, 0.13727954f, -0.11017565f, 0.46141440f, 0.40923014f, -1.13529098f, -0.13815698f, -0.05633361f, 0.07167616f, 0.06754317f, -0.52141798f, -0.15995879f, 0.00517760f, -0.21780527f, 0.37067738f, -0.15019406f, -0.35555294f, -0.40416247f, -0.21971673f, -0.02412134f, 0.38514802f, 0.03532664f, 0.14775196f, 0.29391935f, 0.06500772f, -0.04305358f, 0.06891527f, -0.22296019f, -0.14387085f, 0.06517503f, 0.37567040f, -0.15259612f, 0.19362140f, 0.14613050f, -0.29606628f, 0.28360268f, 0.32148945f, 0.02402592f, -0.11962131f, -0.47779095f, -0.01819500f, 0.29269320f, 0.04360536f, -0.10793823f, -0.18893319f, 0.35382003f, 0.19329257f, 0.23322314f, 0.35799608f, 0.02071345f, 0.00860384f, 0.09868746f, -0.54516613f, 0.06208495f, 0.29975539f, -0.02589589f, -0.13508330f, -0.20391895f, -0.02596879f, -0.52086633f, -0.08361349f, 0.04055652f, 0.39457276f, -0.09928563f, 0.37827346f, -0.09652941f, 0.07490023f, -0.13831547f, -0.32593963f, 0.19762722f, -0.15104292f, 0.10957485f, -0.57581413f, 0.19559054f, 0.03938558f, 0.22534934f, -0.10132130f, -1.02230954f, 0.05764396f, -0.64200622f, 0.23046967f, 0.27757388f, 0.20298840f, 0.12376531f, -0.06657867f, -0.24096873f, 0.22472838f, -0.22159606f, 0.61550635f, -0.49681336f, -0.29836881f, 0.39706740f, -0.01087044f, -0.03765304f, -0.10045063f, -0.20952062f, -0.00443787f, 0.31310380f, 0.03199811f, 0.31754085f, -0.52583027f, 0.45338878f, -0.23967169f, -0.00462804f, 0.05976175f },
  { 0.37861642f, 0.30915135f, 0.00042683f, 0.29478383f, 0.04734641f, -0.05819687f, 0.16800161f, 0.21660729f, 0.12291935f, 0.49395537f, 0.08033137f, -0.02592620f, 0.09521867f, -0.12831557f, 0.10358228f, -0.01524021f, 0.12397633f, 0.10924620f, 0.22001083f, -0.04394202f, 0.11569539f, 0.18850172f, 0.26404959f, 0.05934853f, -0.10104951f, 0.02939039f, 0.01271892f, 0.03037611f, -0.17851792f, 0.07015815f, -0.19102675f, 0.06277535f, -0.15128984f, 0.15211987f, 0.40120929f, -0.04050255f, -0.68928260f, -0.17933092f, 0.14289783f, 1.47540915f, -0.08688626f, 0.47703317f, -0.01350474f, 0.04277109f, 0.28674901f, -0.06360865f, 0.08413675f, 0.18718331f, 0.09087741f, 0.07901796f, -0.06462036f, -0.28395027f, -0.05026471f, -0.70645899f, 0.20447558f, -0.22815354f, 0.64310032f, -0.37491888f, -0.25455952f, 0.07064015f, 0.19878994f, 0.12199070f, 0.17642595f, -0.01630540f, 0.43785569f, -0.00926711f, 0.43445194f, 0.01263175f, 0.19147685f, 0.03157582f, -0.06289887f, 0.15336207f, -0.08598833f, -0.06818247f, 0.21221730f, 0.87495703f, -0.21006207f, -0.09551197f, -0.14765336f, -0.02051991f, -0.01118158f, -0.05578601f, 0.00767499f, -0.07698879f, -0.19564705f, 0.69346744f, 0.19219969f, -0.10966240f, 0.07462192f, -0.02586335f, 0.18325035f, -0.03199289f, 0.05407501f, 0.03032309f, -0.16554677f, -0.21318176f, 0.21174751f, -0.04985470f, 0.26416045f, 0.32848102f, -1.06630039f, -0.04777605f, 0.24041350f, -0.34679165f, 0.00824097f, -0.23255989f, 0.03531764f, -0.02103887f, 0.12745358f, -0.24543095f, -0.21536765f, -0.71463013f, -0.18310730f, 0.49640527f, 0.32967827f, -0.08676014f, -0.04330984f, 0.07852273f, 0.18916160f, -0.71586001f, -0.09055356f, 0.39043546f, -0.08396469f, -0.05206994f, -0.11696067f, 0.84411401f, -0.79127246f, 0.20092236f },
  { -0.49904528f, 0.00377354f, -0.02554952f, -0.05616619f, 0.01584307f, 0.03208916f, -0.12142870f, -0.18240035f, 0.00369098f, 0.04630999f, 0.00479026f, 0.12849352f, -0.10294509f, -0.10573355f, 0.05389070f, 0.00317651f, -0.22620735f, -0.04361052f, 0.14058898f, 0.06391165f, 0.03540061f, 0.05725033f, -0.02894074f, 0.13588864f, -0.03479773f, 0.08146600f, -0.07388908f, 0.02295853f, 0.02536887f, -0.01235044f, -0.34702855f, 0.09823962f, 0.13506444f, 0.08349399f, 0.03140658f, 0.04748055f, 0.03295032f, -0.11681638f, -0.16831951f, 0.03183146f, -0.05922543f, 0.04403789f, -0.00260635f, -0.01206451f, 0.02771239f, -0.03942413f, 0.08603486f, -0.02942746f, 0.17995268f, 0.04292842f, 0.00202483f, -0.34364641f, 0.06223453f, -0.03040415f, -0.03866836f, -0.05364642f, 0.00459143f, 0.10786022f, 0.27119538f, 0.03073357f, 0.00185776f, -0.07499968f, 0.02895627f, -0.01082690f, 0.00938519f, -0.01459464f, -0.36166322f, -0.00223941f, 0.05351344f, 0.05429514f, 0.13991229f, 0.11451220f, -0.03983392f, 0.03311437f, 0.10838973f, -0.14517729f, -0.06644201f, 0.03217712f, -0.06130278f, 0.10564736f, -0.03863017f, -0.07200316f, -0.04699136f, 0.08808041f, 0.03314070f, 0.03842514f, -0.01767519f, -0.03654350f, 0.05646633f, 0.01116980f, 0.13856503f, -0.03754681f, 0.10484498f, -0.06747481f, 0.03001607f, 0.04436987f, 0.07774334f, 0.07556681f, 0.01562153f, -0.03667048f, -0.01457163f, 0.00671828f, 0.01741572f, -0.23855013f, -0.32643124f, -0.22078830f, 0.05012302f, 0.02977030f, 0.06266482f, 0.10568628f, 0.02901695f, 0.02447449f, 0.09631274f, 0.00973651f, -0.05332346f, 0.05282097f, 0.08453085f, -0.11966744f, 0.10876931f, -0.05236642f, -0.22631197f, -0.10064245f, 0.11350955f, 0.10894521f, 0.11603008f, 0.12833202f, 0.05884793f, 0.08555552f },
  { -0.34958073f, 0.06991566f, -0.41771483f, -0.03312705f, 0.01719708f, 0.16524936f, 0.07399966f, 0.00245978f, -0.10000335f, 0.32694310f, -0.11465161f, 0.25310531f, -0.06359709f, 0.00525938f, -0.02756303f, -0.04786620f, 0.10529426f, 0.24925940f, 0.07874924f, -0.07863101f, -0.07853394f, 0.25000909f, -0.00624820f, -0.03869232f, 0.00309222f, 0.13367057f, 0.02700947f, 0.01981122f, -0.64298558f, 0.08124286f, -0.23320374f, 0.09677346f, 0.34520766f, -0.33299324f, -0.01705872f, -0.02096940f, 0.00692092f, 0.12691443f, 0.03807567f, -0.28627983f, -0.18457568f, 0.46993154f, -0.07034048f, 0.03718942f, -0.25694785f, 0.06467709f, -0.09732085f, 0.05678131f, -0.14197740f, -0.01140884f, 0.07976907f, -0.24977589f, 0.06071350f, 0.35182783f, -0.07513931f, 0.03663592f, -0.02510999f, -0.00434764f, -0.42791098f, 0.05821932f, -0.01184050f, -0.00441101f, -0.12483880f, -0.03562404f, 0.88011914f, -0.02037054f, 0.02594656f, 0.05557750f, 0.45837912f, 0.12514274f, 0.18795733f, 0.11663049f, -0.02931812f, -0.06033851f, -0.09670502f, 0.98088795f, 0.11824682f, 0.00521906f, -0.00688324f, 0.15379427f, 0.00506312f, -0.01243778f, 0.12607823f, -0.04758516f, -0.01784495f, 0.37990877f, 0.13111934f, -0.03757634f, -0.09391144f, -0.07681816f, 0.17040800f, 0.15588245f, -0.04906986f, -0.18788995f, -0.07291374f, -0.40735278f, 0.12028778f, 0.07765173f, -0.01107262f, -0.06388845f, -0.04523723f, 0.05296477f, 0.03138731f, 0.00080010f, -0.29807249f, 0.22704545f, 0.02576724f, -0.06389893f, 0.00852745f, 0.10988846f, -0.14433156f, 0.11726171f, -0.03880029f, 0.33578381f, 0.46175036f, 0.11556777f, -0.05259557f, 0.03497255f, -0.10226613f, 0.01212443f, -0.05086989f, -0.06402025f, 0.12673210f, 0.13423033f, -0.11567995f, 0.15379927f, 0.26034689f, -0.07851885f },
  { -0.07475967f, 0.07009308f, 0.03882742f, 0.00052830f, 0.03271097f, 0.00960279f, -0.00985506f, -0.06621008f, -0.08827330f, 0.07096709f, 0.03643256f, -0.09465624f, 0.01217327f, -0.06383531f, 0.01726124f, 0.08096040f, 0.05401962f, -0.02380179f, -0.01016591f, -0.06896722f, 0.02949001f, -0.02957261f, -0.01724644f, -0.07467610f, -0.04808163f, -0.08970727f, 0.03823962f, -0.02499781f, 0.01207135f, -0.02930995f, 0.05190486f, 0.01791980f, 0.06784392f, 0.04234634f, 0.00341768f, -0.00168531f, -0.05200236f, -0.08790481f, 0.02195079f, 0.08504484f, -0.05803598f, -0.09898421f, -0.05090665f, 0.00824918f, -0.07943139f, 0.05373314f, -0.04829344f, 0.06729237f, 0.03382228f, -0.04370529f, -0.05731954f, -0.05265992f, -0.09154069f, -0.08073630f, -0.09635860f, 0.06499919f, 0.04172620f, -0.04252670f, -0.06111810f, 0.00078117f, -0.07198075f, -0.03732435f, -0.04245688f, -0.04760807f, -0.02468718f, -0.02638232f, -0.04389820f, -0.06761698f, 0.05280959f, -0.02340611f, 0.06416472f, -0.05262896f, -0.04585805f, 0.01302060f, -0.06549345f, 0.04819595f, -0.02338209f, 0.07290424f, -0.01244130f, -0.06353611f, -0.07372019f, 0.04920695f, 0.00323550f, -0.05619879f, -0.03447296f, -0.06631036f, 0.02317357f, -0.00212139f, -0.05638713f, 0.00522602f, -0.00718332f, -0.02649222f, 0.02715560f, -0.00668686f, 0.00856194f, -0.07324846f, -0.02388643f, 0.02258379f, 0.04665326f, 0.02382087f, -0.01718070f, -0.08211442f, 0.06157810f, 0.04527494f, 0.02298016f, 0.01049191f, 0.00819672f, 0.05327240f, 0.01127242f, 0.02623244f, 0.03213225f, -0.09879710f, -0.01270441f, 0.01555837f, -0.08276848f, 0.07282855f, 0.03706793f, 0.05486468f, -0.08214273f, 0.02178652f, -0.06044569f, -0.08503455f, 0.06220690f, 0.06316984f, -0.07748120f, 0.04258399f, 0.02557514f, -0.08154341f },
  { -0.26537743f, -0.21260549f, 0.23744199f, -0.04037741f, 0.00163808f, -0.01882131f, 0.17282999f, -0.14098078f, 0.55471432f, -0.10409263f, -0.01124755f, -0.21273710f, -0.07710230f, 0.13164020f, 0.13546474f, -0.03568648f, -0.01053222f, -0.34934348f, 0.05978163f, 0.08385805f, 0.13542348f, -0.52947503f, 0.05676016f, 0.17646173f, 0.08282320f, 0.03220845f, -0.35701945f, 0.05747118f, 0.19052625f, 0.31260455f, 0.04568313f, -0.04059495f, -0.53593594f, 0.12325441f, 0.24421510f, 0.03759548f, -0.12118241f, -0.01029342f, 0.17085676f, 0.61620504f, -0.08189610f, 0.03893735f, 0.04053903f, -0.02778544f, -0.11135789f, 0.22540055f, 0.22175840f, -0.06706961f, 0.01446445f, 0.00455312f, -0.10293762f, 0.29187256f, 0.10304572f, -0.85089928f, -0.22424002f, -0.42604473f, 0.99517077f, -0.03683537f, 0.25779325f, 0.11113952f, 0.13606016f, 0.20975384f, -0.31176996f, 0.08306327f, -0.44657424f, 0.00412597f, 0.06927568f, 0.21380912f, 0.44215500f, -0.11588936f, -0.40108585f, -0.36149967f, 0.02624606f, 0.06236696f, 0.04805930f, -0.15810582f, -0.58938920f, -0.08546340f, -0.13957508f, -0.40333024f, 0.08519191f, -0.45348457f, 0.20339213f, -0.00135341f, 0.07141534f, 0.20578314f, -0.10456313f, 0.16407603f, 0.15476918f, 0.05281240f, 0.01531456f, 0.65192014f, 0.01876136f, -0.10776369f, 0.03564665f, 0.42998338f, 0.14249559f, 0.03709681f, 0.88122970f, -0.02653333f, -0.06715301f, 0.02682858f, 0.44524121f, -0.61616790f, 0.02674333f, 0.04645408f, 0.14459273f, 0.07924939f, -0.27701828f, 0.02501159f, 0.09633569f, -0.37029412f, 0.31980824f, -0.26363930f, -0.29128230f, 0.13740380f, -0.02034439f, 0.04953373f, -0.21370874f, -0.20741163f, 0.16813900f, 0.50816476f, 0.18114553f, 0.56032383f, 0.06046027f, -0.44502345f, -0.50934273f, -0.16654325f },
  { 0.15033652f, -0.50135046f, 0.26738846f, -0.68009496f, -0.27779958f, 0.00539960f, -0.51817328f, 0.47116539f, 0.53006685f, -0.19774467f, -0.07445955f, -0.50365674f, 0.03058389f, -0.08522345f, -0.11838257f, -0.02252984f, -0.51642007f, -0.58846843f, -0.00468371f, 0.00293972f, -0.02610375f, -0.42459342f, -0.82349604f, -0.26147652f, -0.09449915f, 0.18807590f, -0.21297373f, -0.37395400f, -0.36113390f, -0.22162548f, 0.17538294f, 0.05074966f, -0.92814314f, -0.69066882f, 0.52942705f, -0.05985351f, 0.30294046f, -0.32834312f, -0.06263334f, -0.47546512f, -0.01463890f, -0.47556269f, -0.00202489f, -0.93785816f, 0.02408457f, -0.36428523f, -0.34613976f, 0.16625246f, -0.46074864f, -0.04045019f, -0.06461105f, 0.31474975f, -0.18497467f, -0.14527759f, 0.10283774f, -0.46081612f, -0.21774536f, 0.39831480f, -0.34511438f, -0.18822218f, 0.40205714f, 0.17284098f, 0.29499012f, -0.03165095f, 0.11376123f, -0.29892305f, 0.11412707f, -0.13084354f, 0.49441192f, -0.91633636f, 0.12257860f, 0.19074619f, -0.04694870f, 0.10204609f, -0.34261605f, 0.19723502f, -0.29242712f, 0.14971247f, 0.06714700f, -0.69085342f, 0.34748104f, -0.37769225f, 0.34583539f, -0.05848953f, 0.11703521f, -1.84060490f, 0.08324265f, -0.57170212f, 0.47642645f, -0.01641702f, 0.26561108f, -0.19880423f, -0.37803835f, -0.13990279f, 0.05561107f, 0.35931522f, 0.13675021f, 0.03935387f, -0.06431338f, -0.18652242f, -0.10262215f, 0.06350239f, -0.54480809f, -0.42572328f, 0.49042106f, -0.03142860f, 0.85707957f, 0.02947626f, 0.08152626f, -0.61879128f, 0.02526614f, -0.49576023f, -0.22484893f, 0.09992467f, 0.18627205f, 0.08739497f, 0.01362117f, 0.12250967f, 0.25074217f, -1.18363559f, 0.48788816f, 0.35841209f, -0.18160284f, -0.18230076f, -0.40486848f, -0.20141827f, -1.11552978f, -0.41711855f },
  { -0.24720387f, -0.05007157f, 0.19503990f, 0.21504851f, -0.00237205f, -0.03862415f, -0.03924064f, -0.46046722f, -0.47910619f, -0.58256364f, 0.19891903f, -0.16400221f, 0.00744957f, -0.17702174f, 0.13620925f, -0.02246507f, 0.05007154f, -0.73361862f, -0.08213402f, -0.00260124f, 0.07904669f, -0.14698511f, 0.26451921f, -0.19383369f, -0.03995845f, -0.05287466f, 0.25549707f, -0.54278153f, 1.24931502f, 0.29936892f, 0.10173394f, -0.06410193f, 0.28792927f, 0.66437721f, 0.07037213f, -0.03159876f, -0.54653198f, -0.00307311f, 0.48126742f, -0.46771333f, 0.40173745f, -0.15190712f, -0.04270387f, -0.60742593f, 0.38419151f, 0.29440346f, 0.03161630f, -0.05103669f, 0.05802397f, -0.02057514f, -0.78743446f, 0.17585769f, -0.09795472f, 0.76315910f, 0.44961867f, 0.01219731f, -0.87777489f, -0.00857338f, 0.93600583f, -0.26458469f, 0.55195391f, 0.09626275f, 0.34512800f, -0.07657072f, -0.57994318f, -0.14293896f, 0.33562469f, 0.00681733f, -0.02913720f, -0.09913107f, -0.01702353f, -0.01413599f, -0.02697618f, 0.03350045f, 0.14008772f, -0.41419902f, 0.27389455f, -0.13636853f, -0.00287111f, -0.27379960f, 0.58977634f, -0.45042518f, 0.75681901f, 0.01983638f, 0.16006090f, -0.23108894f, -0.28022811f, -0.40962613f, -0.28587547f, -0.07414652f, 0.34920532f, -0.17961071f, -0.00652199f, 0.09087367f, -0.07037541f, 0.13722628f, -0.15523553f, 0.00455275f, -0.61176139f, 0.12639971f, -0.32739365f, -0.02476487f, -0.19761370f, 0.38993016f, -0.02554978f, 1.49486864f, 0.16915263f, -0.03965409f, 0.29794660f, 0.16518225f, -0.03528335f, -0.07512141f, 0.13030539f, 0.09544725f, -0.22784813f, 0.01408309f, 0.01286750f, 0.23213553f, -0.31601903f, 0.24743138f, 0.21622016f, 0.04510143f, -1.14781892f, -0.21559480f, 0.04167829f, -0.73598266f, 0.30855325f, -1.26388490f },
